//Numpy array shape [128]
//Min -0.062500000000
//Max 0.054687500000
//Number of zeros 26

#ifndef B27_H_
#define B27_H_

#ifndef __SYNTHESIS__
bias27_t b27[128];
#else
bias27_t b27[128] = {0.0468750, 0.0156250, -0.0156250, -0.0078125, 0.0390625, -0.0078125, 0.0156250, -0.0156250, 0.0390625, 0.0078125, 0.0312500, -0.0156250, 0.0000000, 0.0000000, 0.0078125, 0.0000000, 0.0078125, 0.0000000, 0.0078125, -0.0468750, -0.0078125, 0.0156250, 0.0000000, 0.0078125, -0.0312500, 0.0000000, 0.0078125, -0.0234375, 0.0078125, 0.0000000, 0.0000000, -0.0078125, -0.0234375, 0.0000000, -0.0078125, 0.0078125, 0.0156250, 0.0078125, 0.0156250, -0.0078125, -0.0078125, 0.0078125, 0.0000000, 0.0156250, -0.0078125, 0.0156250, 0.0156250, -0.0156250, 0.0312500, 0.0078125, -0.0312500, 0.0234375, 0.0000000, 0.0390625, -0.0312500, -0.0078125, -0.0234375, 0.0078125, -0.0078125, 0.0078125, -0.0390625, 0.0156250, 0.0234375, 0.0546875, 0.0156250, -0.0625000, -0.0078125, 0.0000000, 0.0390625, -0.0078125, -0.0390625, -0.0156250, 0.0000000, -0.0156250, 0.0078125, 0.0156250, 0.0078125, 0.0078125, 0.0000000, -0.0078125, -0.0078125, 0.0156250, 0.0078125, -0.0156250, 0.0000000, -0.0312500, 0.0000000, 0.0234375, 0.0000000, 0.0156250, 0.0000000, 0.0312500, 0.0234375, 0.0000000, 0.0390625, -0.0156250, -0.0390625, 0.0000000, -0.0156250, -0.0078125, -0.0156250, -0.0078125, -0.0078125, -0.0078125, -0.0312500, 0.0000000, -0.0078125, -0.0234375, 0.0312500, 0.0000000, -0.0156250, -0.0156250, 0.0156250, 0.0078125, 0.0078125, -0.0234375, 0.0078125, 0.0000000, -0.0390625, 0.0312500, 0.0156250, -0.0078125, 0.0000000, -0.0078125, 0.0156250, 0.0000000, -0.0078125, 0.0000000};
#endif

#endif
