//Numpy array shape [128]
//Min -0.868634462357
//Max 1.366431951523
//Number of zeros 0

#ifndef B29_H_
#define B29_H_

#ifndef __SYNTHESIS__
model_default_t b29[128];
#else
model_default_t b29[128] = {0.3176003, -0.4619302, 0.5669584, 0.2685297, 0.3465683, 0.7998857, 0.7514548, 0.6898488, 0.3117301, 0.1569801, 0.3843792, -0.5196479, 1.3561223, 0.7305710, -0.5065569, 0.3023764, -0.4248529, 0.6998580, -0.4098793, 0.2579254, 0.2533657, -0.4927557, -0.4467429, 0.5637327, -0.7421273, -0.5768115, -0.4497424, -0.5221824, 0.7837458, 0.3378678, -0.4472991, -0.4569619, 0.2202180, 0.0801171, -0.2157571, 0.1644742, 0.2871269, 0.0740456, 0.4848366, 0.8494811, 0.2975699, -0.4722482, 0.7699221, -0.1487603, 0.5919384, -0.3731816, -0.3826145, 0.3438549, 0.7230517, -0.7658948, 0.2045991, -0.5078917, -0.4554767, -0.4889602, -0.2963900, -0.5221662, 0.4649862, 0.1430870, -0.3892173, 0.1080384, 0.0772161, -0.2766218, 0.4557297, 0.3259147, 0.7068129, 0.2009512, 0.3082249, 0.7345425, 0.2408422, -0.5342981, 0.0410949, -0.5770989, -0.2758663, 0.3845376, -0.3047483, 0.9729568, 0.2199114, 0.6938729, -0.3459890, 0.2552000, 0.7259661, -0.6463657, 0.2910916, 0.1858434, 0.2507618, 0.5871147, -0.5115465, 0.3400196, 0.4897687, -0.0041788, -0.3012940, 0.3452376, 0.3602320, -0.8686345, -0.3694947, -0.3859465, 0.1040909, 0.4636913, 0.4066957, 0.5530943, -0.4562670, 0.5982735, -0.3589992, -0.1507537, 0.3316738, -0.4628125, 0.1596847, 0.6555033, 0.6808003, -0.1000731, 1.3664320, 0.6976367, -0.4692192, 0.1730918, 0.4557339, 0.8391228, 0.1933676, 0.4818417, -0.4298074, 0.2964211, 0.7536778, -0.4011163, -0.4881659, 0.3159155, -0.0459182, 0.3315416, 0.3267490, 0.5275007};
#endif

#endif
