//Numpy array shape [128]
//Min -0.023437500000
//Max 0.023437500000
//Number of zeros 63

#ifndef B31_H_
#define B31_H_

#ifndef __SYNTHESIS__
bias31_t b31[128];
#else
bias31_t b31[128] = {-0.0234375, 0.0000000, 0.0000000, -0.0078125, 0.0000000, 0.0000000, 0.0000000, 0.0000000, 0.0000000, -0.0078125, 0.0000000, 0.0000000, 0.0156250, -0.0078125, 0.0000000, -0.0078125, 0.0000000, 0.0000000, 0.0000000, -0.0078125, -0.0156250, -0.0078125, 0.0078125, -0.0156250, 0.0000000, 0.0000000, 0.0000000, 0.0078125, 0.0000000, 0.0078125, 0.0000000, 0.0078125, 0.0000000, -0.0078125, -0.0156250, -0.0078125, 0.0000000, 0.0000000, -0.0078125, 0.0078125, 0.0156250, -0.0078125, 0.0156250, 0.0000000, -0.0078125, 0.0000000, -0.0078125, 0.0000000, 0.0078125, 0.0000000, 0.0000000, 0.0000000, 0.0156250, 0.0078125, -0.0078125, 0.0000000, 0.0000000, -0.0078125, -0.0078125, 0.0234375, 0.0000000, 0.0000000, 0.0000000, -0.0156250, 0.0000000, 0.0078125, -0.0078125, 0.0078125, 0.0000000, -0.0078125, -0.0078125, 0.0000000, 0.0078125, 0.0000000, 0.0000000, -0.0078125, 0.0000000, 0.0078125, 0.0000000, 0.0000000, 0.0078125, 0.0078125, -0.0156250, 0.0078125, 0.0156250, -0.0156250, -0.0078125, 0.0000000, -0.0156250, 0.0000000, 0.0000000, 0.0000000, -0.0078125, 0.0000000, 0.0078125, 0.0000000, 0.0156250, 0.0000000, 0.0000000, -0.0078125, 0.0078125, 0.0000000, -0.0234375, 0.0000000, 0.0078125, 0.0000000, 0.0078125, 0.0234375, 0.0000000, -0.0078125, 0.0000000, -0.0156250, 0.0000000, -0.0234375, 0.0000000, 0.0000000, 0.0000000, 0.0000000, 0.0000000, -0.0078125, -0.0156250, -0.0078125, 0.0078125, -0.0156250, 0.0000000, 0.0000000, 0.0000000, 0.0000000};
#endif

#endif
