//Numpy array shape [128]
//Min -0.672683179379
//Max 0.826444625854
//Number of zeros 0

#ifndef B33_H_
#define B33_H_

#ifndef __SYNTHESIS__
model_default_t b33[128];
#else
model_default_t b33[128] = {0.2927321, 0.1017378, 0.2716784, 0.3125587, 0.3124222, 0.0494233, 0.4420510, -0.0496828, 0.0519802, 0.5702448, 0.5416128, -0.0266958, 0.3178878, -0.4420460, -0.1439838, -0.0940988, -0.1925784, 0.3106764, -0.0072746, 0.2900301, -0.5838267, 0.0497380, -0.0675919, 0.1613475, -0.2927263, -0.2510525, 0.3592023, 0.4483100, 0.3781959, 0.8264446, 0.1797237, 0.1299913, -0.0590257, 0.2850657, -0.0081213, 0.5422931, 0.7376656, 0.6743534, 0.3557843, 0.2822619, 0.2299260, 0.3626313, 0.3265799, 0.2286342, -0.5027290, 0.2069924, 0.2492637, -0.6726832, 0.0250571, -0.0611902, 0.2373174, -0.0058054, 0.1925589, 0.1354810, 0.2259286, 0.1826790, -0.1594064, 0.2499111, 0.3936145, 0.2016381, -0.0826613, -0.5005486, 0.1526544, 0.1999390, -0.0172291, 0.3856574, 0.6387677, 0.2854843, 0.1147295, 0.1465592, 0.3137197, 0.0361679, 0.1539763, 0.1239763, -0.1978509, 0.2392781, 0.3192027, 0.4229288, 0.2016757, 0.4077170, 0.2786805, -0.1039282, 0.3173024, 0.2920987, 0.3533904, 0.1371778, -0.2016706, -0.2184978, 0.3015076, 0.2285504, 0.2385484, 0.2262637, 0.0312068, -0.2964533, -0.1954172, 0.6046931, 0.2425627, -0.2616425, -0.2292607, 0.0641403, 0.0465545, 0.0144290, 0.2146742, 0.0423245, 0.2130313, -0.5861087, 0.6885220, 0.2046933, 0.3517861, 0.2579091, 0.2048339, 0.3761480, 0.2061167, 0.4666875, 0.0768704, -0.2865093, -0.4388110, 0.1875317, 0.1987786, 0.2240936, 0.2110077, -0.2665284, 0.2146022, 0.0173841, 0.3509716, -0.1505764, 0.0008023, 0.4503856};
#endif

#endif
