//Numpy array shape [256]
//Min -2.101088047028
//Max 1.160776615143
//Number of zeros 0

#ifndef B38_H_
#define B38_H_

#ifndef __SYNTHESIS__
model_default_t b38[256];
#else
model_default_t b38[256] = {0.2848993, 0.0854472, 0.5913073, -0.0560469, 0.3027584, 0.0332902, 0.0069421, 0.4947342, 0.6406386, -0.5810223, 0.0332522, 0.5286086, -0.1989292, 0.1045956, -0.0147318, 0.4971003, 1.1607766, -0.7680689, 0.0704518, 0.2661822, 0.0920460, 0.0205926, -1.0927207, -1.2029434, 0.0021904, -1.7780260, -0.6648957, -0.1368085, 0.7056773, 0.4171521, 0.1959984, -1.2016587, 0.4640362, 0.2422530, -0.4018235, 0.0324883, 0.6110886, -0.1790105, -0.3434628, 0.2531846, -0.7073709, 0.3521072, 0.7036925, -0.9503955, 0.5712737, -0.3962033, -0.1934257, 0.2665917, -0.4697569, 0.3400576, -1.4747820, -1.0964941, 0.2552587, -0.8145319, 0.3989983, -0.4090037, 0.5284360, -0.0629584, 0.1615510, 0.5122139, 0.2365286, 0.5764247, -1.0247316, -0.0019305, -0.7711916, 0.2048495, 0.5158358, 0.5214310, -0.0068523, -0.0748091, -0.1706834, -0.0417030, -0.1783912, 0.3792831, -0.9241251, -0.5586396, 0.0780520, 0.2576606, -0.6429250, -0.7782469, -0.3061159, 0.4460927, 0.9466560, 0.6015734, -0.3709520, -0.0766527, 0.1877835, 0.2652874, 0.6971368, 0.0951129, -0.7539888, -0.1647052, 0.2753147, 0.3604842, 0.2543615, 0.5509298, -0.0102001, -0.8770458, 0.1505843, 0.5208827, -0.1935321, -1.2022526, 0.1340083, 0.0437219, 0.7902772, -1.6479927, -0.0689961, -0.5762956, 0.2113241, -0.0694409, 0.3854660, 0.2699774, 0.2217122, -0.1333950, 0.4148375, 0.6857058, -0.2305060, 0.3004460, 0.0147234, 0.3945189, -1.2292562, -0.2496869, 0.2238048, 0.8916321, 0.3473734, 0.6437781, -1.0299892, 0.1428473, 0.3274093, 0.4507728, -0.0808760, 0.0416918, -0.2292861, 0.0807778, 0.1238076, 0.3285816, 0.7767994, -0.6361997, 0.0505827, -0.2097682, -1.1450071, 0.4859319, 0.4755608, -1.5750276, 0.6666193, 0.8124690, -0.5036144, -1.5862650, 0.5029080, -0.3220019, -0.2196742, 0.4642980, 0.2103148, -0.5316145, -0.9132578, 0.9671223, -1.4506428, -0.3383250, 0.4828759, 0.7141374, -0.1249290, -1.2612108, -0.6595109, 0.0168163, 0.0042939, 0.2349417, -0.5021184, -0.7282218, 0.6254801, -0.1472441, -0.1794431, 0.2725914, -0.4017290, 0.4000549, -1.5253332, 0.0648725, 0.0924171, 0.0920431, 0.0234759, 0.2918378, -0.2861990, -0.0022192, 0.9971539, -0.0376883, -0.3420134, 0.4972652, 0.2657676, -0.2344434, 0.1479391, -1.4511050, -0.2066747, 0.3966565, -0.0311570, 0.0112506, -1.4016038, 0.1496890, 0.4865779, -1.0298476, -0.2728015, 0.4400690, 0.3469458, -0.5995378, -0.2181509, 0.0118048, 0.2125894, 0.3906930, 1.1029383, 0.3880098, 0.7197526, -0.0645287, 0.4031009, 0.7179269, -0.5115292, -0.2145038, -1.1514056, -0.4474536, -1.7317935, 0.3247548, 0.5531894, 1.0560350, 0.3356494, -0.8575279, 0.2691379, 0.2063816, 0.3926348, -0.5843936, -0.1488770, 0.0387196, -0.2366077, 0.6465216, -0.3998039, -0.1464821, 0.3857183, -0.7532023, 0.0729201, 0.6020010, -0.6426358, -0.1805015, 0.4811222, 0.3783527, 0.2516980, 0.2544904, 0.6983942, 0.6253396, 0.3507628, -0.4300399, -0.1989726, 0.4071082, -1.3391968, 0.4178456, -0.2084254, 0.9201618, 0.2383943, 0.2030355, -0.6341969, -2.1010880};
#endif

#endif
