//Numpy array shape [256]
//Min -1.329821586609
//Max 1.157841682434
//Number of zeros 0

#ifndef B42_H_
#define B42_H_

#ifndef __SYNTHESIS__
model_default_t b42[256];
#else
model_default_t b42[256] = {0.8074819, 0.7730685, 0.7904510, -0.8584579, 0.8166597, 0.8179882, 0.7142460, 1.0112551, -0.7501624, 0.9831022, -0.7942405, 0.5786988, 0.8543638, 0.5115180, -0.6263514, -1.1243720, 0.9154674, -0.9530155, -1.0513294, 0.6988394, -0.7332612, -0.8180125, 1.0876269, 1.0083878, -1.0128826, -0.8179930, -0.9546729, -0.9416282, 0.9404681, 0.9753014, -1.0706184, -0.8264265, 0.9410291, 0.7983602, -0.7800719, -1.0338528, -0.8938572, 0.9261318, -1.0034978, -0.6992849, -0.8779848, -1.0062137, -0.4019643, -0.8861384, 0.6064174, -0.8094789, -0.7927065, 0.8046401, 0.8082441, -0.7732133, -0.8704916, -0.9761040, -0.9135213, -0.8918339, -0.9461291, -0.7527676, -0.9500685, -0.8593351, 0.8689202, -0.8535444, 0.7345760, -0.9284109, 0.7716168, -0.8866375, -0.9207423, -0.8963183, -0.9501883, 1.0156847, -1.0790324, -0.7679089, -0.9446778, -0.9304334, 0.5634387, -0.8845519, 0.8410922, 0.8387020, 0.8399589, 0.9984155, -0.7529784, -0.6645644, 0.9095681, -0.9864824, -0.8216798, 0.7136303, 0.9084034, -0.9133253, 0.7890211, 0.9124385, -0.7258581, 1.1578417, -0.8149698, 0.6111017, -0.8318602, 0.8500552, 0.8163978, -1.0025818, 0.6681070, -0.8617530, 0.7461324, -1.1945870, 0.8104533, 0.6698212, 0.9521912, 0.6888626, 0.8303257, -0.8343306, -0.8522545, -0.8786872, 1.1023163, 0.9411923, -0.8689277, 0.8761016, 0.7327747, 0.9543301, 0.9560380, 0.6856176, 0.8976972, 0.9227431, 0.8882501, -0.9988765, -0.8801874, -1.2592125, -0.9051491, 0.9507875, 0.8921580, 0.9711665, -0.8580509, 0.8977031, -0.7274393, 0.9060199, 0.7901933, -0.8199493, -0.7994801, 0.9930962, -0.9406273, 0.8172277, 0.8143291, -0.7414299, -0.9128776, 0.6417597, 0.4324512, -0.7306502, -0.8354175, -0.9219062, 0.4849406, -0.9152893, 0.9451595, -0.9232368, 0.8616071, -0.9489825, 0.5838063, -0.9484713, 0.5603734, -0.6902819, 0.8785691, -1.3298216, 0.7492051, 0.7870737, -0.9023968, 0.6471261, -0.8301139, 0.7679135, 0.8056105, -0.7438495, 0.9133454, 1.1005301, -0.8858951, -0.8246609, -0.8770765, 0.7923859, 0.8446411, 0.7622062, 1.0480440, 0.8704306, -0.9001405, -0.8039795, 0.7982758, 0.9332025, 0.8522775, 0.6913401, 0.6745536, -0.8510994, -0.6879490, -0.8485665, -0.8457063, -0.8941957, 0.9810219, -0.7369354, 0.8013490, -0.9253339, -0.7493255, 0.6842896, -0.8157904, -0.9217838, -0.8387756, -0.9150685, -1.0359097, -0.7873769, -0.8931100, 0.6883246, 0.8937898, 0.6218231, 0.7608737, -1.0572486, 0.7390746, 0.8840497, -0.7101170, -0.8257641, -0.8199706, -0.7453600, 0.8219354, -0.7836837, -0.6718508, 0.7897280, -0.8612674, -0.8751286, 0.7703534, 0.9205972, -0.8918236, 0.3288022, -0.8613921, -1.0965546, 0.5402345, 0.8356447, 0.5271320, -0.9077295, 0.6040779, -0.9096034, -1.0676697, 1.0875100, 0.8803189, -0.9759884, 0.9832151, -0.8997745, 0.8284667, -0.7849811, -0.8465796, 0.5707170, 0.8348430, 0.9836813, 0.8544666, -0.8549081, -0.8493719, -0.9520897, 1.0173436, 0.8260579, -0.7488295, -0.8511695, -0.7549108, -0.8507261, -0.6838307, -0.7622890, -0.8864849, -0.7866533, 0.7328999, -0.9586172};
#endif

#endif
