//Numpy array shape [256]
//Min -0.803448796272
//Max 1.139401793480
//Number of zeros 0

#ifndef B42_H_
#define B42_H_

#ifndef __SYNTHESIS__
model_default_t b42[256];
#else
model_default_t b42[256] = {-0.5338026, -0.2541504, -0.3352900, -0.3329023, -0.1169134, -0.3055561, -0.3116012, -0.2787148, 0.1220638, -0.2810622, 0.1034652, 0.7500368, -0.3949075, -0.6080511, -0.4897331, -0.4048489, -0.2052444, 0.4854476, -0.3363717, -0.1663064, 0.4211136, -0.4124942, 0.1202625, 0.3922803, -0.1406068, 0.0156880, -0.3346210, -0.1080493, -0.3170383, -0.1442207, -0.1432029, 0.0355496, -0.2503618, 0.5868006, -0.3808710, -0.1846219, -0.2884534, -0.4243811, 0.6566269, -0.2367710, 0.4748867, 0.3315256, 0.0770156, -0.4481566, -0.2447143, -0.4108724, 0.2190396, -0.1613069, 0.3968934, -0.3556297, 0.6043055, -0.5214612, -0.0632644, -0.2313741, 0.0198134, 0.6103613, -0.2622735, 0.4225139, -0.1350796, 0.0474221, -0.4526333, -0.3498186, -0.1350591, -0.2127286, -0.1082257, -0.0004537, 0.0599086, 0.3081500, -0.0514858, 0.4315832, -0.2853611, -0.3416266, -0.3651139, -0.4228819, -0.4220971, 0.1465179, 0.3261245, 0.5260756, -0.4161021, -0.3445561, 0.1956795, -0.2846638, 0.0066392, -0.0925370, 0.1593123, 0.0342122, -0.3619727, 0.0039471, -0.2120963, 0.3430749, -0.3053711, -0.1413595, -0.2522461, 0.1059868, -0.5873920, -0.0082064, -0.7030120, 0.4317963, -0.1437156, -0.3629582, -0.2380719, -0.0480887, -0.1580832, -0.2776173, 0.6864656, -0.1684536, 0.0883484, -0.3934413, -0.3948800, 0.5436856, -0.2809736, 0.2393531, -0.3771656, -0.2122336, 0.2835074, -0.1641474, 0.3394831, 0.2372431, -0.3829868, -0.4189467, -0.0487424, 0.3248694, -0.2054774, -0.0965518, 0.3357884, -0.1888019, -0.0917596, -0.2980769, 0.3719490, -0.2748617, -0.1673113, -0.3103847, 0.7393544, -0.3223507, 0.1296574, -0.1393893, 0.4724226, 0.6773893, -0.2694242, 0.4551306, -0.3113063, 0.3910631, -0.3423411, -0.7520225, -0.3672225, 0.3322374, -0.1570592, -0.3909993, -0.0565124, -0.1525790, -0.2761610, -0.2780172, -0.3513857, -0.3246578, -0.2523666, 0.4291930, -0.0708370, -0.2565961, -0.0667181, -0.0374280, -0.3213010, -0.1593398, -0.2193424, 0.3320619, 0.4361829, -0.3761533, -0.2443729, -0.2722874, -0.1536428, 0.1025337, -0.2771776, 0.4437120, -0.3706863, 0.4440055, 0.2835538, -0.2990733, 0.3978507, -0.3371182, -0.2947964, -0.3779620, -0.0095806, -0.0670896, -0.3913804, 0.5080799, -0.5835178, -0.2650170, -0.3756866, 0.3198543, -0.1905511, -0.1330198, 0.2496789, -0.0628521, 0.0496144, 0.0033186, -0.1579227, -0.2041895, 0.3841379, -0.1786891, -0.3665760, -0.2291101, 0.1643794, -0.3385184, 0.0937220, -0.1243188, -0.3632124, -0.7081501, -0.4171952, 0.0004716, -0.3338621, -0.1310020, -0.2450868, -0.2629198, -0.4167942, -0.1655713, -0.2167848, 0.0014174, -0.3492044, -0.2587160, -0.3239546, -0.0783252, -0.3941361, -0.8034488, -0.4424511, 0.1235874, 0.2348360, -0.2717462, -0.2597758, 1.1394018, -0.4880368, -0.3281290, -0.3809674, 0.5294866, -0.4022391, -0.7204657, -0.2314072, -0.7334740, -0.2315549, -0.5399364, 0.3470519, -0.2908432, -0.3507088, 0.0773377, -0.0898708, 0.4834756, -0.0305058, -0.3715351, 0.2954360, -0.3212509, -0.4467932, -0.2447781, -0.1188035, -0.3782440, -0.3006938, -0.0693186, 0.5338524, -0.7507244};
#endif

#endif
