//Numpy array shape [3, 3, 128, 128]
//Min -0.179687500000
//Max 0.164062500000
//Number of zeros 11295

#ifndef W25_H_
#define W25_H_

#ifndef __SYNTHESIS__
weight25_t w25[147456];
#else
weight25_t w25[147456] = {0.0078125, 0.0000000, 0.0000000, -0.0078125, 0.0078125, -0.0078125, 0.0000000, 0.0000000, 0.0078125, 0.0078125, 0.0078125, 0.0000000, 0.0000000, 0.0000000, 0.0078125, 0.0078125, 0.0078125, 0.0000000, 0.0000000, 0.0000000, 0.0078125, 0.0000000, 0.0078125, 0.0078125, 0.0000000, 0.0078125, 0.0000000, 0.0156250, 0.0000000, 0.0000000, 0.0000000, 0.0078125, 0.0078125, 0.0156250, 0.0078125, 0.0000000, 0.0000000, 0.0000000, -0.0078125, 0.0078125, 0.0000000, 0.0000000, 0.0000000, 0.0000000, 0.0078125, 0.0078125, 0.0078125, 0.0000000, 0.0078125, 0.0000000, -0.0078125, 0.0000000, 0.0000000, 0.0000000, 0.0000000, 0.0000000, -0.0078125, 0.0000000, 0.0000000, 0.0078125, 0.0000000, -0.0078125, 0.0078125, 0.0000000, 0.0000000, 0.0156250, -0.0078125, 0.0000000, -0.0078125, 0.0000000, 0.0000000, 0.0000000, -0.0078125, 0.0078125, 0.0078125, 0.0000000, 0.0078125, 0.0000000, 0.0000000, 0.0078125, 0.0078125, 0.0000000, 0.0000000, 0.0000000, 0.0078125, -0.0078125, 0.0000000, 0.0000000, 0.0000000, 0.0000000, 0.0000000, 0.0000000, 0.0000000, 0.0078125, -0.0078125, 0.0078125, -0.0078125, 0.0000000, 0.0078125, 0.0000000, 0.0078125, 0.0000000, 0.0000000, 0.0000000, 0.0000000, 0.0078125, 0.0000000, -0.0078125, 0.0156250, 0.0078125, 0.0000000, 0.0156250, 0.0000000, 0.0000000, 0.0078125, 0.0000000, -0.0078125, -0.0078125, 0.0000000, -0.0078125, 0.0078125, 0.0000000, 0.0078125, 0.0000000, -0.0078125, -0.0156250, 0.0078125, 0.0000000, 0.0000000, 0.0078125, 0.0078125, -0.0156250, 0.0000000, -0.0078125, 0.0078125, 0.0000000, 0.0000000, -0.0078125, -0.0156250, -0.0078125, 0.0078125, 0.0078125, 0.0000000, -0.0078125, 0.0000000, -0.0078125, 0.0000000, 0.0000000, 0.0000000, 0.0000000, 0.0078125, 0.0000000, 0.0000000, -0.0078125, 0.0000000, 0.0000000, 0.0000000, 0.0000000, -0.0078125, 0.0234375, -0.0078125, 0.0000000, 0.0000000, 0.0000000, 0.0000000, 0.0000000, 0.0000000, -0.0078125, -0.0156250, 0.0000000, 0.0078125, -0.0078125, 0.0000000, 0.0078125, 0.0078125, 0.0000000, 0.0000000, -0.0078125, -0.0234375, 0.0000000, -0.0078125, 0.0000000, 0.0000000, 0.0000000, 0.0000000, 0.0000000, 0.0078125, 0.0000000, 0.0000000, -0.0078125, 0.0000000, 0.0000000, -0.0078125, 0.0078125, 0.0000000, 0.0000000, 0.0000000, 0.0000000, -0.0078125, -0.0078125, 0.0078125, 0.0000000, 0.0000000, 0.0000000, 0.0000000, 0.0000000, -0.0078125, 0.0078125, 0.0000000, -0.0078125, 0.0000000, 0.0000000, 0.0000000, 0.0156250, 0.0000000, 0.0000000, -0.0078125, -0.0156250, 0.0000000, -0.0078125, 0.0000000, -0.0078125, -0.0156250, 0.0000000, -0.0078125, 0.0000000, 0.0078125, -0.0078125, 0.0000000, 0.0078125, -0.0156250, 0.0078125, 0.0000000, 0.0000000, 0.0078125, -0.0078125, 0.0078125, 0.0000000, 0.0000000, 0.0000000, -0.0078125, -0.0078125, -0.0078125, 0.0156250, 0.0000000, 0.0000000, -0.0078125, 0.0000000, 0.0000000, 0.0000000, 0.0000000, 0.0078125, -0.0078125, -0.0078125, 0.0000000, 0.0000000, 0.0000000, 0.0000000, 0.0000000, 0.0000000, 0.0156250, 0.0000000, 0.0078125, -0.0078125, 0.0000000, 0.0078125, 0.0000000, -0.0078125, 0.0000000, 0.0000000, 0.0000000, -0.0078125, 0.0000000, 0.0000000, -0.0078125, 0.0000000, -0.0078125, -0.0078125, 0.0078125, -0.0078125, -0.0078125, -0.0078125, 0.0000000, 0.0078125, 0.0156250, 0.0078125, 0.0000000, 0.0000000, -0.0078125, 0.0000000, -0.0078125, 0.0078125, 0.0078125, -0.0078125, 0.0000000, 0.0000000, 0.0000000, 0.0078125, 0.0078125, 0.0000000, 0.0000000, 0.0078125, 0.0000000, 0.0000000, 0.0000000, -0.0078125, 0.0000000, 0.0078125, -0.0078125, -0.0078125, 0.0000000, 0.0000000, 0.0078125, 0.0156250, -0.0078125, -0.0078125, 0.0000000, 0.0000000, 0.0000000, 0.0078125, -0.0078125, 0.0156250, -0.0078125, 0.0078125, 0.0078125, 0.0078125, -0.0078125, 0.0000000, 0.0000000, 0.0234375, -0.0078125, 0.0078125, 0.0078125, 0.0078125, 0.0000000, 0.0156250, -0.0078125, -0.0078125, -0.0078125, -0.0156250, 0.0000000, 0.0000000, 0.0078125, 0.0000000, 0.0000000, 0.0000000, 0.0000000, 0.0078125, 0.0000000, 0.0078125, 0.0000000, 0.0000000, 0.0000000, 0.0000000, 0.0156250, 0.0000000, 0.0000000, 0.0078125, 0.0000000, 0.0078125, 0.0000000, 0.0078125, 0.0078125, 0.0000000, 0.0078125, 0.0000000, 0.0000000, 0.0078125, 0.0078125, 0.0000000, 0.0000000, 0.0000000, 0.0000000, -0.0078125, 0.0078125, -0.0078125, -0.0078125, 0.0078125, -0.0078125, -0.0078125, -0.0078125, 0.0078125, 0.0078125, 0.0000000, 0.0000000, -0.0078125, 0.0156250, -0.0078125, -0.0078125, 0.0000000, 0.0078125, 0.0078125, -0.0078125, -0.0078125, -0.0078125, -0.0078125, 0.0078125, -0.0078125, 0.0000000, 0.0000000, -0.0078125, 0.0078125, 0.0000000, -0.0078125, 0.0078125, 0.0078125, 0.0156250, 0.0078125, 0.0000000, -0.0078125, 0.0000000, -0.0078125, 0.0000000, 0.0000000, -0.0156250, 0.0078125, -0.0078125, 0.0000000, 0.0078125, 0.0000000, 0.0000000, -0.0078125, 0.0000000, 0.0000000, 0.0000000, 0.0000000, 0.0000000, 0.0000000, 0.0078125, 0.0156250, 0.0000000, -0.0078125, -0.0078125, 0.0000000, -0.0078125, 0.0000000, 0.0078125, -0.0078125, -0.0078125, 0.0156250, 0.0078125, 0.0000000, 0.0078125, 0.0000000, 0.0000000, 0.0078125, -0.0078125, 0.0078125, 0.0000000, 0.0000000, -0.0156250, -0.0078125, 0.0078125, 0.0078125, 0.0000000, 0.0078125, -0.0078125, 0.0078125, -0.0078125, -0.0156250, 0.0078125, 0.0000000, 0.0000000, 0.0156250, 0.0000000, -0.0078125, -0.0078125, -0.0078125, -0.0156250, 0.0000000, -0.0078125, -0.0078125, -0.0078125, 0.0000000, 0.0078125, -0.0156250, -0.0156250, -0.0078125, 0.0000000, -0.0078125, 0.0000000, 0.0000000, 0.0000000, 0.0000000, 0.0078125, 0.0156250, -0.0078125, -0.0156250, -0.0156250, -0.0078125, 0.0000000, -0.0078125, 0.0156250, 0.0000000, 0.0000000, 0.0000000, -0.0078125, 0.0078125, -0.0156250, 0.0000000, -0.0156250, -0.0078125, -0.0078125, -0.0078125, -0.0078125, -0.0078125, 0.0000000, 0.0078125, -0.0078125, 0.0078125, 0.0000000, -0.0078125, 0.0000000, 0.0000000, 0.0156250, -0.0078125, -0.0078125, 0.0078125, 0.0078125, -0.0078125, -0.0156250, -0.0078125, -0.0078125, -0.0078125, 0.0000000, -0.0078125, -0.0156250, -0.0156250, 0.0156250, 0.0000000, 0.0000000, 0.0156250, 0.0000000, 0.0000000, 0.0000000, 0.0000000, -0.0078125, -0.0078125, -0.0078125, 0.0000000, -0.0078125, 0.0000000, -0.0078125, 0.0078125, -0.0078125, 0.0078125, 0.0156250, 0.0000000, 0.0000000, -0.0078125, 0.0000000, 0.0078125, 0.0000000, 0.0000000, 0.0000000, 0.0000000, 0.0078125, 0.0000000, 0.0000000, -0.0078125, -0.0078125, -0.0078125, -0.0156250, 0.0000000, 0.0078125, -0.0078125, 0.0000000, 0.0078125, -0.0078125, 0.0078125, 0.0000000, 0.0000000, 0.0000000, -0.0078125, 0.0000000, -0.0078125, -0.0078125, 0.0000000, -0.0078125, 0.0000000, 0.0000000, 0.0156250, -0.0078125, 0.0078125, -0.0078125, 0.0000000, -0.0078125, 0.0000000, 0.0000000, 0.0000000, 0.0000000, 0.0078125, -0.0156250, -0.0156250, -0.0078125, -0.0156250, -0.0156250, 0.0000000, 0.0078125, -0.0078125, -0.0156250, 0.0078125, 0.0078125, -0.0156250, -0.0078125, 0.0000000, 0.0156250, 0.0000000, 0.0078125, -0.0078125, 0.0000000, -0.0078125, 0.0078125, 0.0000000, -0.0078125, -0.0156250, -0.0156250, -0.0078125, -0.0156250, 0.0000000, 0.0000000, 0.0000000, 0.0000000, -0.0156250, -0.0078125, 0.0000000, -0.0078125, 0.0078125, 0.0000000, -0.0156250, -0.0078125, -0.0078125, 0.0078125, -0.0078125, -0.0078125, 0.0078125, -0.0156250, 0.0078125, -0.0078125, 0.0000000, 0.0000000, 0.0000000, 0.0000000, -0.0078125, 0.0000000, 0.0000000, 0.0078125, -0.0078125, 0.0000000, -0.0078125, -0.0078125, -0.0078125, 0.0078125, 0.0000000, -0.0078125, 0.0000000, 0.0156250, 0.0078125, -0.0156250, 0.0078125, 0.0078125, 0.0000000, 0.0000000, 0.0000000, -0.0078125, -0.0078125, -0.0078125, 0.0000000, 0.0000000, 0.0000000, -0.0078125, -0.0078125, -0.0078125, -0.0078125, 0.0000000, 0.0000000, -0.0078125, -0.0078125, 0.0078125, 0.0000000, -0.0078125, 0.0156250, 0.0000000, 0.0000000, 0.0156250, 0.0156250, 0.0000000, -0.0078125, -0.0078125, -0.0156250, 0.0000000, 0.0000000, 0.0000000, -0.0078125, -0.0078125, 0.0000000, 0.0000000, 0.0078125, 0.0000000, 0.0078125, 0.0000000, 0.0000000, -0.0078125, 0.0156250, -0.0078125, 0.0078125, 0.0000000, -0.0078125, 0.0078125, 0.0156250, -0.0156250, 0.0000000, -0.0078125, 0.0000000, -0.0078125, 0.0000000, 0.0000000, 0.0078125, 0.0000000, 0.0000000, 0.0000000, 0.0000000, 0.0000000, -0.0078125, 0.0000000, 0.0000000, 0.0000000, 0.0078125, 0.0000000, 0.0000000, -0.0078125, 0.0000000, -0.0078125, 0.0000000, -0.0078125, 0.0000000, -0.0078125, -0.0078125, 0.0000000, 0.0156250, 0.0000000, 0.0000000, -0.0078125, 0.0078125, 0.0000000, -0.0078125, 0.0078125, 0.0078125, 0.0000000, -0.0078125, 0.0000000, 0.0000000, -0.0078125, 0.0156250, 0.0000000, -0.0078125, -0.0078125, 0.0078125, 0.0000000, -0.0078125, 0.0078125, -0.0078125, 0.0078125, 0.0000000, 0.0000000, 0.0000000, 0.0156250, 0.0000000, 0.0000000, 0.0000000, -0.0156250, -0.0078125, 0.0078125, 0.0078125, 0.0000000, 0.0078125, 0.0000000, -0.0078125, -0.0078125, -0.0078125, -0.0078125, -0.0156250, -0.0156250, -0.0078125, 0.0000000, 0.0078125, 0.0000000, -0.0078125, 0.0000000, 0.0078125, -0.0234375, 0.0078125, 0.0078125, -0.0078125, -0.0078125, 0.0000000, -0.0078125, -0.0078125, -0.0078125, 0.0078125, 0.0000000, 0.0000000, 0.0078125, 0.0000000, 0.0000000, -0.0156250, 0.0000000, 0.0000000, 0.0000000, 0.0000000, 0.0078125, 0.0078125, 0.0078125, 0.0078125, 0.0078125, 0.0000000, 0.0000000, -0.0078125, 0.0000000, -0.0078125, 0.0000000, 0.0000000, -0.0078125, 0.0156250, -0.0078125, -0.0078125, 0.0078125, 0.0078125, -0.0156250, 0.0000000, 0.0078125, 0.0078125, 0.0000000, -0.0156250, -0.0078125, -0.0078125, -0.0078125, 0.0078125, 0.0078125, 0.0078125, -0.0078125, 0.0000000, 0.0078125, -0.0078125, 0.0000000, 0.0078125, 0.0000000, -0.0078125, -0.0078125, -0.0156250, -0.0078125, -0.0078125, -0.0156250, 0.0000000, 0.0000000, 0.0000000, 0.0000000, -0.0078125, 0.0078125, -0.0078125, 0.0000000, 0.0000000, -0.0078125, -0.0078125, 0.0078125, 0.0156250, 0.0000000, 0.0078125, 0.0078125, 0.0156250, 0.0000000, -0.0078125, -0.0078125, -0.0156250, 0.0000000, -0.0078125, -0.0156250, -0.0078125, 0.0000000, -0.0156250, 0.0000000, -0.0078125, 0.0000000, -0.0078125, -0.0078125, -0.0078125, -0.0156250, 0.0078125, -0.0078125, 0.0078125, 0.0000000, 0.0078125, 0.0078125, 0.0078125, -0.0078125, 0.0000000, 0.0000000, 0.0000000, 0.0000000, -0.0078125, -0.0078125, 0.0000000, 0.0078125, 0.0000000, -0.0234375, 0.0000000, -0.0156250, -0.0078125, 0.0000000, -0.0078125, -0.0156250, 0.0078125, -0.0156250, -0.0078125, -0.0078125, 0.0000000, -0.0078125, -0.0078125, -0.0078125, 0.0078125, 0.0000000, 0.0000000, 0.0156250, -0.0078125, -0.0078125, -0.0078125, -0.0078125, 0.0078125, -0.0078125, 0.0156250, 0.0000000, -0.0078125, -0.0078125, 0.0000000, 0.0000000, -0.0078125, -0.0078125, 0.0000000, 0.0000000, -0.0078125, 0.0000000, 0.0234375, -0.0078125, 0.0000000, -0.0234375, 0.0000000, -0.0078125, 0.0078125, 0.0078125, -0.0078125, 0.0078125, 0.0078125, 0.0000000, -0.0078125, -0.0078125, 0.0000000, -0.0078125, -0.0078125, 0.0000000, 0.0078125, 0.0000000, -0.0078125, 0.0000000, -0.0078125, -0.0078125, 0.0000000, -0.0078125, 0.0078125, -0.0156250, -0.0078125, 0.0000000, -0.0156250, 0.0000000, -0.0078125, 0.0000000, -0.0078125, -0.0078125, 0.0000000, -0.0078125, 0.0000000, -0.0078125, 0.0000000, 0.0000000, 0.0000000, -0.0078125, 0.0000000, 0.0000000, -0.0078125, -0.0156250, 0.0000000, -0.0078125, 0.0000000, 0.0156250, -0.0078125, 0.0078125, 0.0000000, 0.0078125, 0.0078125, 0.0078125, 0.0000000, 0.0000000, 0.0000000, 0.0000000, 0.0000000, -0.0078125, 0.0000000, 0.0156250, -0.0078125, -0.0234375, 0.0156250, 0.0000000, 0.0000000, -0.0156250, -0.0078125, -0.0078125, -0.0078125, 0.0000000, 0.0078125, 0.0000000, -0.0078125, 0.0000000, -0.0078125, -0.0078125, 0.0000000, -0.0078125, -0.0078125, -0.0078125, -0.0078125, 0.0000000, 0.0156250, 0.0000000, 0.0000000, -0.0078125, 0.0000000, -0.0078125, -0.0078125, 0.0000000, -0.0078125, -0.0078125, -0.0078125, -0.0156250, -0.0078125, 0.0156250, 0.0078125, 0.0078125, 0.0000000, 0.0000000, 0.0078125, -0.0078125, 0.0078125, -0.0078125, 0.0078125, 0.0000000, 0.0078125, -0.0078125, 0.0078125, -0.0078125, 0.0078125, 0.0000000, 0.0000000, -0.0234375, 0.0000000, 0.0000000, 0.0000000, 0.0000000, 0.0000000, 0.0000000, 0.0000000, 0.0000000, 0.0078125, 0.0000000, 0.0000000, -0.0078125, 0.0000000, 0.0078125, 0.0078125, 0.0078125, -0.0156250, -0.0078125, 0.0000000, 0.0000000, -0.0078125, 0.0000000, 0.0000000, -0.0078125, -0.0078125, 0.0000000, -0.0078125, -0.0078125, 0.0000000, 0.0000000, 0.0000000, 0.0000000, 0.0078125, 0.0000000, 0.0000000, 0.0000000, -0.0078125, -0.0078125, 0.0078125, -0.0078125, -0.0078125, 0.0078125, 0.0000000, -0.0156250, 0.0000000, 0.0078125, 0.0000000, 0.0156250, 0.0078125, -0.0078125, -0.0156250, -0.0078125, 0.0000000, 0.0078125, 0.0078125, 0.0000000, -0.0078125, 0.0000000, 0.0000000, 0.0156250, -0.0078125, 0.0000000, 0.0078125, 0.0078125, -0.0078125, 0.0000000, 0.0000000, 0.0000000, 0.0000000, 0.0156250, -0.0156250, 0.0000000, -0.0078125, -0.0078125, 0.0000000, -0.0078125, 0.0078125, 0.0078125, 0.0078125, -0.0078125, 0.0156250, 0.0000000, 0.0000000, 0.0000000, 0.0000000, 0.0000000, 0.0000000, 0.0000000, 0.0000000, -0.0078125, 0.0000000, -0.0156250, -0.0078125, 0.0078125, -0.0156250, -0.0078125, -0.0156250, -0.0234375, 0.0000000, -0.0078125, -0.0078125, -0.0156250, -0.0078125, -0.0312500, -0.0078125, -0.0156250, -0.0156250, 0.0156250, -0.0156250, 0.0000000, -0.0156250, 0.0000000, -0.0078125, -0.0078125, -0.0078125, -0.0078125, -0.0078125, 0.0000000, -0.0078125, 0.0078125, 0.0156250, -0.0156250, -0.0312500, 0.0000000, -0.0234375, -0.0312500, 0.0078125, -0.0234375, 0.0078125, 0.0078125, 0.0000000, -0.0078125, 0.0000000, 0.0000000, -0.0156250, -0.0078125, -0.0078125, 0.0078125, 0.0156250, 0.0000000, 0.0000000, 0.0078125, 0.0078125, 0.0078125, -0.0078125, 0.0156250, -0.0078125, 0.0000000, -0.0156250, 0.0000000, -0.0078125, 0.0078125, 0.0000000, -0.0078125, -0.0078125, 0.0078125, 0.0156250, 0.0156250, 0.0078125, 0.0000000, -0.0078125, -0.0078125, -0.0078125, 0.0000000, 0.0000000, 0.0234375, -0.0078125, 0.0078125, 0.0000000, -0.0078125, 0.0156250, 0.0078125, -0.0234375, 0.0156250, 0.0000000, -0.0078125, -0.0234375, 0.0000000, 0.0000000, 0.0078125, 0.0000000, 0.0000000, 0.0078125, 0.0000000, -0.0234375, 0.0078125, 0.0000000, -0.0156250, -0.0156250, -0.0078125, 0.0000000, -0.0078125, 0.0000000, -0.0156250, 0.0000000, 0.0000000, 0.0078125, -0.0156250, 0.0000000, -0.0078125, 0.0078125, 0.0000000, 0.0000000, -0.0156250, -0.0078125, 0.0078125, -0.0156250, 0.0078125, -0.0156250, 0.0000000, 0.0078125, 0.0156250, 0.0078125, -0.0078125, -0.0234375, -0.0156250, -0.0156250, 0.0000000, -0.0312500, -0.0156250, 0.0000000, 0.0078125, 0.0000000, 0.0000000, -0.0078125, 0.0078125, -0.0078125, 0.0000000, 0.0000000, 0.0000000, 0.0000000, -0.0078125, 0.0078125, -0.0078125, 0.0000000, -0.0156250, 0.0156250, 0.0000000, 0.0000000, -0.0156250, 0.0000000, -0.0156250, 0.0156250, 0.0000000, -0.0078125, 0.0078125, -0.0078125, 0.0078125, -0.0078125, 0.0078125, -0.0156250, -0.0156250, -0.0078125, 0.0156250, 0.0312500, 0.0078125, -0.0078125, 0.0000000, -0.0078125, 0.0078125, 0.0000000, -0.0078125, -0.0078125, -0.0078125, 0.0000000, 0.0078125, 0.0078125, 0.0000000, -0.0078125, 0.0078125, -0.0156250, 0.0234375, 0.0078125, 0.0156250, -0.0078125, 0.0000000, -0.0078125, 0.0000000, 0.0000000, -0.0156250, 0.0078125, 0.0000000, 0.0000000, 0.0000000, 0.0000000, 0.0156250, 0.0078125, 0.0000000, 0.0156250, 0.0000000, 0.0078125, -0.0078125, 0.0000000, 0.0312500, 0.0078125, 0.0078125, 0.0000000, 0.0000000, -0.0078125, 0.0000000, -0.0078125, 0.0000000, 0.0078125, 0.0000000, 0.0000000, -0.0078125, -0.0156250, 0.0000000, -0.0390625, 0.0078125, -0.0156250, 0.0000000, 0.0000000, -0.0156250, -0.0234375, 0.0000000, -0.0078125, 0.0078125, -0.0078125, 0.0156250, -0.0078125, 0.0000000, 0.0000000, -0.0156250, 0.0000000, -0.0078125, 0.0078125, -0.0078125, 0.0234375, -0.0078125, -0.0078125, -0.0156250, -0.0156250, -0.0156250, -0.0234375, 0.0078125, 0.0000000, 0.0156250, 0.0078125, -0.0078125, 0.0156250, 0.0078125, -0.0078125, -0.0078125, 0.0156250, 0.0000000, 0.0000000, 0.0000000, 0.0000000, 0.0078125, -0.0156250, -0.0078125, -0.0078125, -0.0078125, -0.0156250, 0.0000000, 0.0078125, -0.0078125, 0.0000000, 0.0078125, -0.0234375, -0.0078125, -0.0078125, -0.0234375, 0.0000000, 0.0000000, 0.0078125, 0.0000000, 0.0000000, -0.0234375, 0.0078125, -0.0078125, -0.0234375, -0.0156250, -0.0234375, -0.0156250, -0.0156250, -0.0156250, 0.0000000, -0.0078125, -0.0078125, 0.0000000, -0.0156250, 0.0000000, 0.0156250, 0.0000000, 0.0078125, 0.0078125, -0.0078125, 0.0000000, -0.0078125, 0.0000000, 0.0234375, 0.0156250, -0.0078125, 0.0000000, -0.0234375, 0.0078125, -0.0234375, 0.0078125, 0.0156250, -0.0312500, 0.0000000, 0.0078125, 0.0156250, -0.0078125, 0.0000000, -0.0312500, -0.0156250, 0.0078125, 0.0000000, -0.0078125, -0.0078125, 0.0078125, -0.0234375, 0.0078125, 0.0078125, -0.0156250, -0.0078125, -0.0078125, -0.0156250, 0.0000000, -0.0078125, 0.0078125, -0.0078125, -0.0078125, 0.0156250, 0.0000000, 0.0000000, -0.0234375, -0.0078125, -0.0234375, 0.0156250, 0.0078125, -0.0156250, 0.0078125, -0.0078125, 0.0078125, -0.0156250, -0.0234375, 0.0078125, -0.0078125, -0.0078125, -0.0078125, 0.0234375, -0.0078125, -0.0078125, 0.0234375, -0.0156250, -0.0156250, 0.0000000, 0.0000000, -0.0156250, 0.0078125, 0.0078125, -0.0078125, 0.0156250, 0.0078125, -0.0156250, -0.0156250, 0.0000000, -0.0156250, -0.0234375, 0.0000000, -0.0234375, -0.0078125, 0.0156250, -0.0156250, 0.0078125, 0.0000000, -0.0078125, 0.0156250, 0.0234375, -0.0234375, -0.0234375, -0.0078125, -0.0156250, -0.0078125, -0.0078125, 0.0156250, -0.0390625, 0.0078125, 0.0000000, -0.0156250, 0.0000000, 0.0078125, -0.0078125, -0.0078125, 0.0000000, 0.0078125, 0.0000000, -0.0156250, -0.0234375, -0.0078125, -0.0156250, -0.0156250, -0.0234375, 0.0156250, -0.0078125, -0.0156250, -0.0078125, -0.0234375, -0.0156250, -0.0078125, -0.0078125, 0.0078125, -0.0156250, -0.0078125, 0.0000000, 0.0000000, 0.0078125, 0.0078125, 0.0000000, -0.0078125, 0.0078125, 0.0000000, 0.0078125, -0.0156250, 0.0000000, -0.0156250, 0.0000000, -0.0078125, 0.0078125, 0.0078125, 0.0156250, 0.0078125, 0.0078125, -0.0390625, 0.0000000, -0.0078125, 0.0000000, 0.0078125, 0.0156250, -0.0078125, -0.0078125, 0.0156250, 0.0078125, -0.0078125, -0.0234375, 0.0000000, 0.0000000, 0.0000000, 0.0078125, 0.0234375, -0.0078125, 0.0078125, -0.0234375, -0.0156250, 0.0078125, -0.0156250, -0.0078125, 0.0000000, -0.0078125, -0.0312500, -0.0156250, 0.0000000, 0.0000000, -0.0234375, -0.0078125, -0.0078125, 0.0078125, -0.0156250, -0.0078125, 0.0234375, 0.0000000, -0.0234375, 0.0000000, 0.0156250, -0.0078125, -0.0156250, -0.0156250, -0.0312500, 0.0000000, -0.0078125, -0.0078125, -0.0078125, 0.0000000, -0.0156250, 0.0078125, -0.0234375, -0.0156250, 0.0156250, -0.0156250, -0.0156250, 0.0078125, -0.0156250, -0.0156250, 0.0000000, -0.0156250, 0.0156250, 0.0078125, 0.0000000, -0.0156250, -0.0078125, -0.0156250, 0.0156250, -0.0156250, -0.0156250, 0.0078125, 0.0000000, -0.0078125, 0.0000000, -0.0078125, -0.0078125, -0.0234375, -0.0078125, -0.0156250, 0.0000000, -0.0312500, -0.0078125, 0.0000000, -0.0156250, 0.0000000, 0.0000000, 0.0078125, -0.0078125, 0.0000000, 0.0078125, 0.0078125, 0.0000000, -0.0078125, -0.0078125, 0.0000000, -0.0078125, 0.0000000, 0.0000000, -0.0156250, 0.0078125, 0.0000000, -0.0078125, -0.0156250, -0.0078125, 0.0078125, 0.0000000, -0.0078125, 0.0000000, 0.0000000, 0.0000000, 0.0234375, 0.0000000, 0.0156250, -0.0078125, 0.0156250, 0.0156250, -0.0078125, 0.0078125, -0.0156250, -0.0156250, 0.0078125, 0.0078125, -0.0078125, -0.0234375, 0.0156250, 0.0156250, -0.0234375, -0.0156250, 0.0000000, -0.0156250, -0.0078125, -0.0234375, 0.0078125, -0.0156250, -0.0078125, -0.0078125, -0.0078125, -0.0156250, -0.0078125, 0.0000000, 0.0000000, -0.0156250, 0.0078125, 0.0078125, -0.0078125, -0.0078125, -0.0156250, 0.0078125, -0.0156250, 0.0156250, -0.0078125, 0.0000000, -0.0078125, -0.0078125, 0.0000000, 0.0000000, 0.0000000, 0.0000000, 0.0000000, 0.0000000, -0.0156250, -0.0078125, -0.0078125, 0.0156250, -0.0156250, -0.0078125, -0.0078125, 0.0234375, 0.0078125, -0.0312500, -0.0156250, 0.0000000, 0.0000000, -0.0078125, -0.0078125, -0.0078125, -0.0234375, 0.0000000, -0.0078125, -0.0156250, -0.0078125, 0.0156250, 0.0078125, -0.0312500, 0.0000000, 0.0000000, 0.0000000, -0.0078125, -0.0078125, -0.0156250, -0.0234375, -0.0078125, 0.0000000, 0.0078125, 0.0078125, 0.0156250, 0.0000000, 0.0000000, -0.0156250, -0.0156250, 0.0000000, -0.0078125, -0.0078125, -0.0078125, 0.0078125, -0.0078125, 0.0000000, 0.0000000, 0.0000000, -0.0078125, 0.0156250, 0.0000000, 0.0000000, -0.0156250, -0.0156250, -0.0078125, -0.0156250, 0.0000000, -0.0234375, -0.0234375, 0.0078125, -0.0156250, 0.0078125, -0.0078125, -0.0078125, -0.0078125, 0.0156250, 0.0000000, -0.0156250, -0.0078125, -0.0156250, -0.0078125, -0.0078125, -0.0234375, 0.0000000, 0.0000000, 0.0156250, 0.0078125, -0.0078125, -0.0078125, 0.0078125, 0.0000000, 0.0078125, 0.0078125, 0.0000000, -0.0078125, 0.0000000, -0.0078125, 0.0000000, -0.0156250, 0.0000000, 0.0078125, 0.0078125, -0.0156250, -0.0078125, 0.0000000, 0.0078125, -0.0234375, 0.0000000, -0.0078125, -0.0156250, 0.0078125, -0.0078125, -0.0078125, 0.0000000, 0.0000000, -0.0078125, 0.0000000, -0.0078125, -0.0078125, -0.0156250, 0.0156250, 0.0000000, 0.0156250, -0.0078125, -0.0312500, -0.0078125, 0.0000000, -0.0078125, -0.0078125, -0.0078125, 0.0156250, -0.0312500, 0.0000000, -0.0234375, -0.0156250, -0.0078125, -0.0156250, 0.0000000, -0.0234375, -0.0078125, 0.0000000, -0.0156250, 0.0078125, 0.0078125, -0.0156250, 0.0000000, 0.0000000, 0.0078125, 0.0078125, 0.0078125, 0.0078125, -0.0078125, -0.0156250, -0.0078125, 0.0000000, 0.0000000, -0.0156250, -0.0312500, -0.0078125, 0.0000000, 0.0000000, -0.0078125, 0.0000000, -0.0312500, -0.0234375, 0.0000000, 0.0000000, -0.0078125, -0.0156250, -0.0156250, 0.0000000, 0.0000000, 0.0000000, 0.0000000, -0.0078125, -0.0156250, 0.0078125, -0.0156250, -0.0156250, 0.0078125, -0.0156250, 0.0078125, -0.0234375, -0.0312500, -0.0078125, -0.0156250, 0.0078125, -0.0078125, -0.0312500, 0.0000000, -0.0078125, 0.0000000, 0.0156250, 0.0078125, 0.0078125, -0.0156250, -0.0078125, 0.0234375, -0.0156250, 0.0000000, -0.0078125, 0.0078125, 0.0078125, -0.0078125, -0.0234375, 0.0078125, 0.0000000, 0.0234375, 0.0000000, -0.0156250, -0.0078125, -0.0156250, 0.0000000, -0.0078125, 0.0078125, 0.0000000, 0.0234375, 0.0000000, -0.0234375, 0.0000000, -0.0156250, 0.0156250, 0.0000000, 0.0156250, -0.0078125, 0.0078125, 0.0078125, -0.0156250, 0.0000000, 0.0000000, 0.0000000, -0.0156250, 0.0156250, 0.0000000, -0.0078125, -0.0234375, 0.0234375, 0.0078125, 0.0234375, 0.0078125, -0.0078125, 0.0000000, 0.0156250, 0.0000000, 0.0000000, 0.0000000, 0.0000000, 0.0000000, -0.0078125, 0.0000000, 0.0234375, 0.0234375, -0.0156250, 0.0078125, 0.0000000, 0.0000000, -0.0156250, -0.0078125, 0.0078125, -0.0234375, 0.0234375, -0.0312500, -0.0156250, -0.0156250, -0.0078125, 0.0078125, 0.0000000, -0.0078125, 0.0312500, 0.0000000, -0.0234375, 0.0078125, -0.0156250, 0.0156250, -0.0234375, -0.0078125, 0.0000000, 0.0000000, -0.0078125, 0.0312500, 0.0078125, 0.0000000, -0.0078125, 0.0078125, -0.0078125, -0.0078125, 0.0000000, 0.0000000, -0.0156250, 0.0078125, -0.0312500, 0.0156250, 0.0078125, 0.0078125, -0.0156250, -0.0078125, -0.0078125, -0.0078125, -0.0078125, 0.0234375, -0.0156250, 0.0000000, -0.0078125, 0.0156250, -0.0078125, 0.0234375, -0.0156250, -0.0234375, 0.0000000, 0.0000000, -0.0078125, -0.0156250, 0.0000000, -0.0156250, 0.0312500, 0.0078125, -0.0156250, 0.0000000, -0.0078125, 0.0000000, 0.0078125, -0.0078125, 0.0078125, -0.0312500, -0.0234375, 0.0078125, -0.0156250, -0.0156250, 0.0156250, 0.0078125, 0.0078125, 0.0156250, -0.0234375, 0.0000000, 0.0078125, 0.0000000, -0.0078125, -0.0078125, -0.0078125, 0.0000000, -0.0078125, -0.0078125, -0.0078125, 0.0078125, 0.0234375, 0.0078125, 0.0078125, 0.0078125, -0.0078125, 0.0078125, 0.0156250, 0.0234375, 0.0078125, 0.0000000, 0.0156250, -0.0156250, -0.0156250, -0.0078125, 0.0000000, 0.0000000, -0.0234375, 0.0000000, -0.0234375, -0.0078125, 0.0078125, 0.0000000, 0.0000000, 0.0000000, -0.0078125, 0.0000000, 0.0078125, -0.0078125, 0.0000000, 0.0000000, 0.0000000, -0.0234375, 0.0156250, -0.0078125, 0.0000000, -0.0234375, 0.0000000, 0.0000000, -0.0156250, -0.0078125, 0.0156250, -0.0078125, -0.0078125, 0.0078125, -0.0312500, -0.0390625, 0.0000000, 0.0078125, -0.0156250, 0.0000000, 0.0000000, -0.0078125, 0.0156250, -0.0078125, -0.0078125, -0.0078125, -0.0078125, 0.0078125, -0.0078125, -0.0156250, -0.0078125, 0.0000000, -0.0234375, 0.0234375, -0.0078125, -0.0312500, -0.0234375, 0.0078125, 0.0000000, -0.0078125, 0.0156250, -0.0078125, 0.0156250, 0.0078125, 0.0000000, 0.0156250, -0.0078125, 0.0078125, -0.0156250, 0.0000000, -0.0156250, -0.0078125, 0.0078125, -0.0078125, 0.0078125, 0.0078125, 0.0078125, 0.0000000, 0.0078125, 0.0000000, -0.0078125, -0.0078125, -0.0078125, -0.0234375, -0.0156250, -0.0156250, -0.0156250, -0.0078125, 0.0312500, 0.0078125, -0.0078125, 0.0000000, -0.0156250, -0.0078125, 0.0000000, 0.0000000, -0.0078125, -0.0234375, -0.0078125, -0.0078125, -0.0078125, 0.0078125, 0.0000000, 0.0078125, 0.0078125, -0.0078125, 0.0000000, 0.0000000, 0.0000000, -0.0078125, 0.0000000, 0.0078125, -0.0078125, -0.0156250, -0.0078125, 0.0000000, 0.0078125, -0.0078125, 0.0078125, -0.0156250, 0.0156250, -0.0234375, -0.0156250, 0.0000000, 0.0078125, 0.0156250, -0.0156250, -0.0078125, -0.0078125, -0.0312500, 0.0078125, -0.0234375, 0.0000000, -0.0078125, -0.0078125, 0.0078125, -0.0312500, -0.0156250, -0.0156250, 0.0078125, 0.0156250, -0.0156250, 0.0078125, -0.0234375, 0.0000000, 0.0078125, -0.0078125, 0.0000000, -0.0156250, 0.0000000, 0.0000000, -0.0156250, -0.0078125, -0.0078125, 0.0000000, 0.0000000, -0.0078125, -0.0078125, 0.0000000, -0.0078125, -0.0078125, 0.0000000, 0.0156250, -0.0078125, -0.0312500, 0.0000000, -0.0156250, 0.0000000, 0.0156250, -0.0234375, -0.0078125, -0.0156250, 0.0000000, 0.0000000, -0.0078125, 0.0078125, -0.0156250, -0.0156250, -0.0078125, 0.0156250, -0.0078125, -0.0078125, 0.0156250, 0.0000000, -0.0156250, -0.0156250, -0.0078125, -0.0156250, -0.0078125, 0.0000000, 0.0078125, 0.0078125, -0.0156250, 0.0156250, 0.0000000, 0.0000000, 0.0078125, 0.0078125, -0.0156250, -0.0078125, -0.0234375, 0.0000000, -0.0078125, 0.0078125, 0.0000000, 0.0078125, -0.0078125, -0.0156250, -0.0234375, -0.0156250, 0.0000000, -0.0234375, -0.0156250, -0.0078125, -0.0078125, -0.0234375, -0.0078125, -0.0156250, -0.0156250, -0.0078125, -0.0078125, 0.0000000, 0.0078125, -0.0078125, -0.0078125, 0.0000000, 0.0000000, 0.0078125, -0.0078125, 0.0078125, 0.0078125, -0.0078125, 0.0156250, -0.0078125, -0.0078125, -0.0156250, -0.0078125, 0.0000000, -0.0078125, -0.0078125, -0.0078125, 0.0000000, -0.0234375, -0.0156250, 0.0000000, -0.0156250, -0.0156250, -0.0156250, -0.0078125, 0.0000000, -0.0156250, 0.0312500, 0.0000000, 0.0000000, 0.0078125, -0.0078125, -0.0078125, -0.0078125, 0.0156250, 0.0000000, -0.0156250, 0.0000000, 0.0000000, 0.0000000, 0.0000000, -0.0156250, 0.0078125, 0.0000000, -0.0078125, -0.0156250, -0.0234375, 0.0000000, 0.0078125, 0.0000000, 0.0000000, 0.0000000, -0.0156250, -0.0156250, -0.0078125, -0.0156250, -0.0078125, 0.0000000, 0.0078125, 0.0000000, 0.0000000, -0.0078125, 0.0078125, 0.0078125, -0.0078125, -0.0078125, -0.0078125, 0.0078125, 0.0078125, -0.0078125, 0.0078125, 0.0000000, 0.0078125, -0.0156250, 0.0078125, 0.0000000, -0.0078125, -0.0078125, -0.0078125, 0.0078125, -0.0156250, -0.0078125, -0.0156250, 0.0078125, -0.0078125, 0.0000000, -0.0156250, -0.0156250, 0.0000000, 0.0156250, 0.0078125, -0.0078125, 0.0000000, -0.0078125, -0.0234375, -0.0234375, -0.0078125, 0.0000000, -0.0078125, 0.0000000, 0.0078125, 0.0000000, -0.0234375, -0.0078125, 0.0078125, 0.0156250, 0.0078125, 0.0078125, 0.0000000, 0.0000000, 0.0078125, 0.0000000, -0.0078125, 0.0000000, -0.0078125, 0.0000000, -0.0078125, 0.0000000, -0.0078125, -0.0078125, 0.0000000, -0.0156250, -0.0234375, -0.0078125, 0.0078125, -0.0078125, -0.0156250, -0.0156250, 0.0000000, 0.0078125, 0.0000000, 0.0000000, -0.0078125, 0.0000000, 0.0156250, -0.0156250, 0.0078125, -0.0156250, -0.0156250, -0.0156250, -0.0078125, -0.0078125, 0.0000000, -0.0078125, 0.0000000, 0.0000000, -0.0234375, -0.0156250, -0.0078125, -0.0234375, -0.0156250, 0.0078125, -0.0078125, -0.0234375, -0.0078125, 0.0078125, 0.0000000, 0.0000000, -0.0078125, -0.0156250, 0.0000000, -0.0078125, 0.0000000, -0.0078125, -0.0234375, -0.0156250, 0.0000000, 0.0000000, 0.0000000, -0.0156250, 0.0000000, 0.0078125, 0.0000000, -0.0234375, 0.0078125, 0.0000000, -0.0078125, -0.0078125, 0.0078125, -0.0234375, -0.0078125, -0.0156250, 0.0078125, 0.0000000, -0.0078125, 0.0000000, -0.0078125, 0.0078125, 0.0000000, -0.0234375, 0.0156250, 0.0000000, 0.0078125, -0.0078125, -0.0078125, -0.0156250, -0.0078125, -0.0078125, -0.0234375, 0.0000000, 0.0000000, -0.0234375, -0.0234375, -0.0156250, 0.0078125, -0.0156250, 0.0000000, 0.0000000, 0.0078125, 0.0000000, -0.0078125, 0.0078125, -0.0078125, -0.0078125, 0.0000000, 0.0078125, -0.0156250, 0.0234375, -0.0078125, -0.0078125, 0.0078125, 0.0000000, -0.0156250, 0.0000000, 0.0000000, -0.0078125, -0.0156250, 0.0078125, -0.0078125, 0.0156250, -0.0078125, -0.0234375, -0.0156250, 0.0078125, 0.0000000, 0.0000000, -0.0156250, -0.0156250, 0.0000000, 0.0000000, -0.0078125, -0.0078125, 0.0000000, 0.0000000, -0.0078125, -0.0156250, 0.0000000, 0.0078125, 0.0000000, 0.0000000, -0.0156250, -0.0156250, -0.0078125, -0.0312500, 0.0078125, -0.0156250, -0.0156250, 0.0000000, 0.0000000, -0.0078125, 0.0078125, 0.0000000, 0.0078125, 0.0078125, -0.0078125, -0.0078125, -0.0078125, -0.0078125, 0.0000000, -0.0078125, -0.0078125, -0.0234375, -0.0156250, -0.0078125, -0.0234375, 0.0078125, -0.0078125, 0.0078125, 0.0078125, -0.0156250, 0.0156250, -0.0234375, 0.0078125, -0.0078125, 0.0000000, -0.0156250, -0.0078125, 0.0000000, 0.0000000, -0.0078125, 0.0000000, -0.0234375, -0.0234375, -0.0078125, -0.0078125, -0.0078125, -0.0156250, 0.0000000, 0.0000000, 0.0078125, 0.0078125, -0.0156250, -0.0156250, -0.0078125, -0.0078125, -0.0156250, -0.0156250, 0.0078125, 0.0000000, -0.0234375, 0.0078125, 0.0156250, -0.0156250, -0.0078125, -0.0156250, 0.0000000, 0.0000000, -0.0156250, 0.0000000, -0.0078125, 0.0078125, -0.0156250, -0.0078125, -0.0234375, 0.0000000, 0.0000000, -0.0234375, -0.0156250, 0.0078125, -0.0390625, 0.0078125, -0.0078125, 0.0078125, -0.0234375, -0.0312500, 0.0078125, 0.0000000, -0.0234375, 0.0078125, 0.0000000, 0.0000000, 0.0000000, 0.0078125, 0.0000000, -0.0234375, 0.0078125, -0.0390625, -0.0156250, 0.0000000, 0.0078125, -0.0078125, 0.0000000, -0.0078125, -0.0234375, -0.0390625, -0.0078125, -0.0156250, 0.0078125, -0.0156250, -0.0156250, -0.0312500, -0.0156250, -0.0312500, 0.0000000, 0.0078125, 0.0000000, -0.0156250, -0.0156250, -0.0156250, 0.0078125, 0.0000000, -0.0078125, -0.0156250, 0.0078125, -0.0156250, 0.0000000, -0.0078125, -0.0234375, -0.0078125, 0.0000000, 0.0000000, -0.0156250, 0.0078125, -0.0078125, 0.0000000, 0.0078125, -0.0078125, -0.0078125, -0.0078125, 0.0000000, 0.0156250, -0.0078125, -0.0078125, -0.0078125, -0.0078125, -0.0234375, 0.0078125, -0.0234375, -0.0078125, -0.0156250, -0.0156250, -0.0078125, -0.0078125, -0.0234375, -0.0078125, -0.0078125, 0.0000000, 0.0156250, 0.0000000, 0.0000000, -0.0234375, 0.0000000, -0.0156250, 0.0000000, -0.0078125, -0.0156250, -0.0234375, -0.0156250, 0.0078125, -0.0078125, -0.0078125, 0.0078125, -0.0078125, 0.0000000, 0.0000000, 0.0078125, 0.0078125, 0.0000000, -0.0078125, -0.0078125, 0.0000000, -0.0078125, 0.0000000, -0.0078125, 0.0156250, -0.0156250, 0.0078125, -0.0078125, 0.0000000, 0.0000000, -0.0156250, -0.0078125, 0.0000000, -0.0078125, 0.0000000, 0.0078125, 0.0000000, 0.0000000, -0.0078125, 0.0000000, -0.0078125, -0.0078125, -0.0156250, 0.0000000, -0.0078125, 0.0000000, -0.0078125, -0.0078125, 0.0000000, -0.0078125, -0.0078125, -0.0078125, -0.0156250, -0.0234375, -0.0156250, 0.0156250, -0.0078125, 0.0078125, -0.0078125, -0.0078125, -0.0078125, -0.0156250, -0.0234375, 0.0078125, 0.0000000, 0.0078125, -0.0078125, -0.0234375, 0.0000000, 0.0234375, -0.0078125, -0.0078125, 0.0156250, 0.0000000, -0.0156250, 0.0000000, -0.0156250, 0.0078125, 0.0078125, 0.0078125, 0.0078125, 0.0000000, -0.0234375, 0.0000000, 0.0000000, 0.0000000, -0.0078125, -0.0156250, 0.0000000, 0.0000000, 0.0000000, -0.0156250, -0.0078125, -0.0156250, 0.0078125, -0.0078125, 0.0000000, -0.0078125, -0.0078125, 0.0000000, -0.0156250, -0.0078125, 0.0000000, -0.0078125, 0.0000000, 0.0078125, 0.0000000, 0.0000000, 0.0078125, -0.0078125, 0.0078125, 0.0000000, -0.0078125, 0.0000000, -0.0078125, -0.0234375, -0.0078125, -0.0156250, -0.0156250, 0.0000000, -0.0078125, 0.0000000, 0.0000000, 0.0000000, 0.0078125, -0.0078125, -0.0078125, -0.0156250, -0.0078125, 0.0000000, 0.0000000, -0.0078125, -0.0234375, -0.0078125, 0.0000000, 0.0000000, 0.0000000, -0.0078125, 0.0000000, -0.0078125, 0.0000000, 0.0000000, -0.0156250, -0.0156250, 0.0078125, -0.0312500, 0.0078125, 0.0000000, -0.0234375, -0.0156250, -0.0078125, -0.0078125, 0.0234375, -0.0078125, -0.0078125, -0.0156250, 0.0078125, 0.0156250, 0.0078125, 0.0000000, -0.0078125, -0.0156250, 0.0078125, 0.0000000, -0.0156250, 0.0078125, 0.0000000, -0.0078125, 0.0000000, -0.0156250, -0.0078125, 0.0000000, 0.0000000, 0.0000000, 0.0000000, 0.0078125, 0.0000000, -0.0078125, -0.0156250, 0.0000000, 0.0000000, 0.0000000, 0.0000000, 0.0000000, -0.0156250, 0.0000000, -0.0078125, 0.0000000, -0.0156250, 0.0000000, 0.0156250, -0.0078125, -0.0156250, 0.0000000, 0.0156250, -0.0078125, -0.0078125, 0.0156250, 0.0078125, -0.0156250, -0.0078125, 0.0000000, -0.0156250, -0.0234375, 0.0000000, 0.0078125, -0.0156250, 0.0234375, 0.0000000, 0.0000000, 0.0078125, -0.0078125, -0.0078125, -0.0078125, -0.0234375, -0.0078125, -0.0078125, 0.0156250, -0.0156250, -0.0234375, -0.0156250, 0.0000000, -0.0078125, -0.0078125, -0.0312500, -0.0156250, 0.0078125, -0.0156250, -0.0078125, -0.0312500, -0.0234375, -0.0078125, -0.0078125, -0.0078125, 0.0000000, 0.0000000, -0.0078125, 0.0000000, 0.0000000, -0.0234375, 0.0000000, 0.0000000, 0.0078125, -0.0234375, -0.0468750, -0.0156250, -0.0156250, 0.0000000, -0.0234375, 0.0156250, 0.0000000, 0.0078125, 0.0000000, -0.0156250, 0.0000000, -0.0078125, 0.0156250, 0.0078125, -0.0078125, -0.0078125, -0.0156250, -0.0078125, 0.0000000, 0.0078125, -0.0234375, -0.0312500, -0.0156250, -0.0156250, 0.0156250, 0.0000000, 0.0078125, 0.0078125, -0.0078125, 0.0234375, -0.0156250, 0.0000000, -0.0156250, 0.0000000, 0.0078125, -0.0078125, -0.0078125, -0.0312500, -0.0078125, -0.0234375, -0.0078125, 0.0078125, 0.0078125, 0.0078125, -0.0156250, -0.0312500, 0.0000000, -0.0234375, 0.0000000, -0.0156250, -0.0156250, -0.0078125, 0.0000000, -0.0078125, -0.0078125, -0.0078125, -0.0156250, -0.0156250, 0.0156250, -0.0234375, 0.0156250, -0.0156250, 0.0000000, -0.0078125, -0.0156250, 0.0156250, 0.0000000, -0.0078125, 0.0156250, 0.0078125, 0.0000000, 0.0156250, 0.0000000, -0.0078125, 0.0078125, -0.0078125, -0.0078125, -0.0312500, 0.0156250, 0.0234375, -0.0078125, -0.0078125, 0.0000000, -0.0156250, -0.0234375, 0.0000000, -0.0234375, -0.0156250, -0.0312500, -0.0156250, -0.0156250, 0.0156250, -0.0078125, 0.0000000, 0.0078125, -0.0078125, -0.0078125, 0.0078125, -0.0156250, 0.0156250, -0.0078125, -0.0078125, 0.0078125, -0.0234375, -0.0078125, -0.0078125, 0.0156250, -0.0156250, -0.0234375, -0.0078125, 0.0000000, -0.0156250, 0.0000000, -0.0156250, -0.0078125, 0.0000000, -0.0078125, -0.0156250, -0.0078125, -0.0078125, 0.0000000, 0.0156250, -0.0078125, 0.0156250, -0.0078125, -0.0156250, 0.0078125, 0.0000000, -0.0156250, 0.0078125, 0.0000000, -0.0078125, -0.0078125, 0.0000000, -0.0078125, 0.0078125, 0.0078125, -0.0078125, -0.0078125, -0.0078125, -0.0234375, 0.0078125, -0.0156250, 0.0156250, 0.0078125, -0.0156250, -0.0078125, 0.0078125, 0.0000000, -0.0156250, -0.0078125, 0.0000000, 0.0078125, -0.0156250, -0.0156250, -0.0078125, 0.0000000, 0.0078125, 0.0078125, 0.0000000, 0.0078125, -0.0078125, 0.0000000, 0.0078125, 0.0000000, -0.0078125, 0.0000000, 0.0000000, 0.0078125, -0.0156250, -0.0156250, 0.0078125, -0.0078125, 0.0078125, 0.0000000, -0.0078125, 0.0000000, 0.0234375, 0.0078125, 0.0000000, -0.0156250, -0.0078125, 0.0078125, -0.0078125, 0.0000000, 0.0156250, -0.0156250, -0.0078125, -0.0156250, -0.0078125, -0.0156250, -0.0156250, 0.0000000, 0.0078125, 0.0000000, 0.0000000, 0.0078125, 0.0078125, -0.0078125, 0.0078125, 0.0000000, -0.0078125, -0.0156250, -0.0078125, 0.0000000, 0.0000000, 0.0000000, 0.0078125, -0.0078125, 0.0312500, 0.0000000, 0.0000000, 0.0000000, 0.0234375, -0.0234375, 0.0000000, 0.0078125, 0.0000000, -0.0156250, 0.0000000, -0.0078125, 0.0000000, 0.0000000, -0.0078125, -0.0078125, 0.0000000, 0.0000000, 0.0000000, -0.0078125, 0.0000000, 0.0000000, -0.0078125, 0.0000000, 0.0000000, 0.0078125, -0.0078125, -0.0156250, -0.0078125, 0.0000000, -0.0078125, -0.0078125, 0.0000000, 0.0000000, 0.0234375, 0.0000000, 0.0000000, 0.0234375, 0.0000000, 0.0156250, 0.0078125, 0.0000000, 0.0000000, -0.0156250, 0.0078125, 0.0000000, -0.0156250, -0.0078125, -0.0234375, -0.0078125, -0.0078125, -0.0078125, 0.0000000, -0.0156250, 0.0156250, -0.0078125, -0.0078125, 0.0078125, -0.0078125, -0.0078125, 0.0000000, 0.0000000, 0.0156250, 0.0078125, -0.0078125, 0.0000000, 0.0078125, 0.0000000, -0.0078125, 0.0000000, 0.0000000, 0.0156250, -0.0078125, 0.0078125, -0.0078125, 0.0078125, 0.0000000, 0.0000000, -0.0078125, -0.0156250, -0.0078125, 0.0156250, 0.0078125, 0.0156250, 0.0078125, -0.0156250, -0.0156250, 0.0000000, 0.0000000, -0.0156250, 0.0078125, -0.0156250, 0.0000000, -0.0078125, -0.0078125, -0.0078125, -0.0156250, 0.0078125, -0.0156250, 0.0078125, -0.0156250, 0.0078125, 0.0000000, 0.0078125, 0.0000000, 0.0000000, -0.0078125, 0.0078125, -0.0078125, 0.0000000, -0.0156250, 0.0000000, -0.0078125, -0.0156250, 0.0078125, 0.0000000, 0.0000000, 0.0000000, 0.0000000, 0.0000000, 0.0078125, -0.0156250, -0.0078125, -0.0078125, 0.0000000, 0.0156250, 0.0000000, -0.0234375, 0.0078125, 0.0078125, -0.0156250, 0.0156250, 0.0156250, -0.0078125, 0.0078125, -0.0078125, 0.0000000, -0.0156250, 0.0000000, 0.0000000, 0.0000000, -0.0156250, 0.0000000, 0.0078125, -0.0078125, -0.0156250, 0.0000000, -0.0156250, 0.0000000, -0.0078125, -0.0078125, 0.0000000, -0.0078125, 0.0156250, 0.0000000, -0.0078125, -0.0078125, 0.0078125, -0.0156250, 0.0078125, -0.0234375, -0.0078125, 0.0078125, 0.0000000, 0.0000000, 0.0156250, 0.0156250, -0.0078125, 0.0000000, -0.0078125, -0.0078125, 0.0078125, 0.0312500, -0.0156250, -0.0078125, -0.0468750, 0.0000000, -0.0156250, 0.0078125, -0.0234375, 0.0156250, -0.0078125, 0.0000000, 0.0234375, -0.0078125, -0.0078125, 0.0000000, -0.0078125, 0.0078125, 0.0000000, 0.0000000, 0.0000000, 0.0000000, 0.0000000, 0.0000000, -0.0156250, -0.0078125, 0.0000000, -0.0078125, 0.0078125, 0.0078125, -0.0156250, -0.0078125, -0.0078125, 0.0078125, 0.0000000, -0.0078125, 0.0000000, 0.0000000, 0.0078125, 0.0000000, 0.0156250, -0.0078125, 0.0156250, -0.0156250, 0.0078125, 0.0078125, 0.0000000, 0.0000000, -0.0078125, -0.0078125, 0.0078125, -0.0156250, 0.0156250, -0.0078125, 0.0078125, 0.0078125, 0.0000000, -0.0078125, -0.0078125, -0.0234375, 0.0000000, 0.0000000, 0.0000000, 0.0078125, 0.0156250, -0.0078125, 0.0234375, -0.0156250, 0.0000000, -0.0078125, -0.0234375, -0.0156250, 0.0156250, 0.0078125, 0.0000000, 0.0078125, 0.0234375, 0.0156250, 0.0156250, 0.0000000, -0.0078125, -0.0156250, 0.0000000, 0.0078125, -0.0078125, 0.0156250, 0.0156250, -0.0078125, 0.0000000, 0.0000000, -0.0156250, -0.0078125, -0.0078125, 0.0000000, -0.0078125, 0.0000000, 0.0156250, -0.0078125, 0.0078125, -0.0078125, 0.0078125, 0.0000000, -0.0078125, -0.0078125, 0.0078125, 0.0078125, 0.0078125, 0.0156250, 0.0078125, -0.0078125, 0.0000000, 0.0078125, 0.0078125, 0.0078125, 0.0078125, 0.0156250, -0.0078125, 0.0156250, 0.0156250, 0.0078125, 0.0078125, 0.0078125, 0.0156250, -0.0156250, -0.0078125, -0.0078125, 0.0156250, 0.0000000, 0.0156250, 0.0312500, 0.0000000, 0.0078125, 0.0234375, 0.0156250, 0.0078125, 0.0078125, 0.0156250, -0.0078125, 0.0000000, 0.0000000, 0.0078125, 0.0078125, 0.0078125, 0.0156250, 0.0078125, 0.0000000, 0.0078125, 0.0000000, 0.0000000, 0.0000000, -0.0078125, 0.0078125, 0.0078125, -0.0078125, 0.0078125, -0.0078125, -0.0078125, -0.0156250, 0.0000000, 0.0156250, 0.0000000, 0.0000000, 0.0000000, -0.0156250, 0.0234375, 0.0156250, 0.0000000, -0.0156250, 0.0000000, 0.0078125, -0.0078125, 0.0078125, 0.0000000, -0.0078125, 0.0156250, 0.0000000, 0.0156250, 0.0000000, -0.0078125, 0.0078125, 0.0156250, -0.0078125, 0.0000000, 0.0234375, 0.0156250, 0.0078125, 0.0000000, 0.0156250, -0.0156250, -0.0078125, 0.0000000, 0.0000000, 0.0000000, 0.0000000, 0.0000000, 0.0000000, 0.0078125, 0.0078125, 0.0000000, 0.0000000, -0.0156250, -0.0078125, -0.0078125, 0.0234375, -0.0078125, 0.0078125, -0.0078125, 0.0078125, 0.0156250, 0.0078125, 0.0000000, -0.0156250, 0.0000000, 0.0234375, 0.0000000, 0.0000000, 0.0078125, 0.0000000, 0.0234375, 0.0078125, 0.0156250, 0.0000000, 0.0078125, -0.0078125, 0.0000000, 0.0000000, 0.0234375, 0.0000000, -0.0078125, 0.0000000, 0.0312500, -0.0078125, -0.0078125, 0.0000000, 0.0234375, 0.0078125, 0.0078125, -0.0078125, -0.0156250, 0.0078125, -0.0078125, -0.0078125, 0.0156250, 0.0078125, 0.0078125, 0.0078125, 0.0000000, -0.0078125, -0.0078125, -0.0312500, 0.0078125, -0.0234375, -0.0156250, 0.0000000, 0.0156250, 0.0000000, 0.0078125, -0.0156250, 0.0000000, 0.0078125, 0.0156250, 0.0078125, 0.0078125, 0.0000000, -0.0078125, 0.0078125, 0.0078125, -0.0078125, 0.0078125, 0.0078125, 0.0078125, 0.0000000, -0.0156250, -0.0078125, 0.0000000, 0.0156250, 0.0000000, 0.0000000, 0.0234375, 0.0000000, 0.0156250, -0.0156250, 0.0078125, 0.0156250, 0.0000000, 0.0000000, -0.0078125, -0.0078125, 0.0078125, 0.0000000, 0.0000000, -0.0078125, 0.0000000, -0.0078125, 0.0000000, -0.0156250, 0.0000000, 0.0078125, 0.0156250, 0.0078125, 0.0078125, -0.0078125, -0.0078125, 0.0000000, 0.0000000, 0.0000000, 0.0078125, 0.0156250, 0.0078125, -0.0156250, 0.0000000, -0.0078125, 0.0078125, 0.0000000, -0.0156250, 0.0078125, -0.0078125, 0.0078125, -0.0078125, 0.0156250, 0.0000000, 0.0078125, -0.0078125, 0.0000000, 0.0156250, 0.0078125, 0.0000000, 0.0000000, -0.0078125, -0.0078125, 0.0000000, 0.0078125, 0.0000000, 0.0000000, 0.0000000, -0.0078125, 0.0000000, 0.0078125, -0.0078125, -0.0156250, 0.0000000, 0.0000000, -0.0078125, 0.0000000, 0.0156250, 0.0000000, 0.0078125, -0.0156250, 0.0156250, -0.0078125, 0.0000000, 0.0000000, 0.0000000, -0.0156250, 0.0078125, -0.0078125, 0.0078125, 0.0000000, 0.0156250, -0.0156250, 0.0156250, 0.0078125, 0.0078125, 0.0156250, -0.0078125, 0.0156250, 0.0234375, 0.0000000, 0.0156250, 0.0000000, 0.0000000, 0.0234375, 0.0156250, 0.0078125, 0.0000000, 0.0078125, -0.0156250, -0.0078125, 0.0000000, -0.0234375, 0.0078125, -0.0078125, 0.0000000, 0.0000000, 0.0000000, 0.0000000, -0.0156250, 0.0078125, 0.0156250, -0.0078125, 0.0000000, -0.0078125, 0.0156250, -0.0078125, 0.0000000, -0.0078125, -0.0078125, 0.0000000, 0.0000000, 0.0078125, 0.0000000, -0.0078125, 0.0000000, 0.0156250, 0.0000000, 0.0000000, 0.0078125, -0.0078125, 0.0156250, 0.0000000, 0.0000000, 0.0156250, -0.0078125, 0.0000000, 0.0078125, 0.0000000, 0.0078125, 0.0156250, -0.0156250, -0.0078125, 0.0234375, 0.0156250, 0.0000000, -0.0078125, 0.0000000, 0.0078125, -0.0156250, 0.0078125, 0.0234375, 0.0078125, 0.0000000, 0.0000000, 0.0000000, 0.0078125, -0.0078125, 0.0234375, 0.0000000, 0.0078125, -0.0078125, -0.0078125, -0.0078125, 0.0078125, -0.0078125, 0.0156250, -0.0078125, -0.0156250, 0.0000000, 0.0078125, 0.0000000, 0.0078125, 0.0000000, 0.0000000, 0.0156250, 0.0000000, -0.0078125, 0.0078125, 0.0000000, 0.0000000, -0.0078125, -0.0156250, -0.0078125, -0.0078125, -0.0156250, 0.0078125, 0.0156250, 0.0078125, -0.0078125, -0.0078125, -0.0078125, 0.0078125, -0.0078125, 0.0234375, 0.0078125, -0.0078125, 0.0000000, -0.0078125, 0.0156250, 0.0156250, 0.0078125, 0.0000000, 0.0000000, 0.0078125, 0.0000000, 0.0156250, 0.0000000, -0.0156250, 0.0156250, -0.0078125, -0.0078125, 0.0156250, -0.0156250, 0.0156250, -0.0078125, -0.0156250, 0.0000000, 0.0078125, 0.0078125, 0.0078125, 0.0234375, 0.0000000, 0.0000000, -0.0078125, 0.0078125, -0.0078125, -0.0078125, 0.0078125, -0.0078125, -0.0234375, -0.0078125, 0.0000000, 0.0078125, 0.0078125, 0.0078125, 0.0000000, 0.0000000, 0.0000000, 0.0078125, 0.0000000, 0.0000000, 0.0078125, 0.0078125, -0.0078125, 0.0312500, 0.0078125, 0.0156250, 0.0234375, -0.0078125, 0.0156250, 0.0000000, 0.0078125, 0.0156250, 0.0078125, 0.0000000, -0.0078125, 0.0078125, 0.0156250, -0.0078125, 0.0000000, -0.0078125, 0.0156250, 0.0078125, 0.0156250, -0.0078125, 0.0078125, 0.0078125, 0.0156250, 0.0156250, 0.0078125, 0.0000000, -0.0078125, 0.0000000, 0.0000000, -0.0078125, 0.0000000, 0.0000000, 0.0000000, 0.0156250, 0.0156250, 0.0078125, 0.0078125, 0.0000000, 0.0078125, -0.0312500, 0.0156250, 0.0000000, 0.0000000, 0.0000000, -0.0078125, 0.0078125, -0.0078125, -0.0078125, 0.0000000, -0.0078125, 0.0000000, 0.0078125, 0.0000000, 0.0156250, 0.0078125, 0.0078125, 0.0156250, 0.0078125, 0.0078125, -0.0078125, 0.0000000, 0.0000000, 0.0078125, 0.0078125, -0.0078125, -0.0078125, -0.0078125, 0.0078125, 0.0000000, 0.0000000, -0.0078125, 0.0156250, -0.0156250, 0.0078125, 0.0156250, 0.0078125, 0.0156250, 0.0156250, -0.0078125, 0.0078125, -0.0234375, 0.0000000, 0.0000000, 0.0000000, 0.0000000, -0.0234375, 0.0000000, 0.0000000, 0.0156250, 0.0000000, 0.0000000, 0.0000000, 0.0156250, -0.0156250, 0.0000000, -0.0156250, 0.0078125, -0.0078125, 0.0000000, 0.0078125, 0.0078125, 0.0000000, 0.0078125, 0.0078125, -0.0156250, 0.0078125, 0.0000000, -0.0078125, 0.0000000, 0.0000000, 0.0078125, 0.0000000, 0.0078125, -0.0078125, 0.0000000, 0.0000000, 0.0078125, 0.0000000, 0.0000000, -0.0078125, 0.0078125, -0.0078125, 0.0000000, 0.0000000, 0.0078125, 0.0000000, 0.0078125, 0.0156250, -0.0078125, 0.0156250, -0.0078125, -0.0078125, 0.0000000, -0.0078125, 0.0000000, 0.0000000, 0.0000000, 0.0234375, 0.0000000, 0.0078125, -0.0078125, -0.0078125, -0.0078125, -0.0078125, -0.0078125, 0.0000000, 0.0156250, -0.0156250, 0.0234375, 0.0000000, 0.0156250, 0.0000000, 0.0234375, -0.0156250, 0.0078125, 0.0078125, 0.0000000, -0.0078125, 0.0000000, 0.0000000, -0.0078125, 0.0000000, 0.0000000, 0.0000000, 0.0000000, -0.0156250, 0.0078125, -0.0156250, -0.0078125, 0.0000000, 0.0078125, 0.0000000, 0.0078125, 0.0000000, -0.0234375, 0.0000000, 0.0000000, 0.0000000, 0.0078125, 0.0000000, -0.0078125, 0.0078125, 0.0078125, -0.0078125, -0.0078125, 0.0000000, 0.0000000, 0.0000000, -0.0078125, 0.0078125, 0.0000000, 0.0078125, 0.0000000, -0.0078125, 0.0078125, -0.0078125, -0.0078125, 0.0078125, 0.0000000, 0.0156250, 0.0000000, 0.0078125, -0.0078125, -0.0078125, 0.0078125, -0.0078125, -0.0078125, 0.0078125, -0.0156250, -0.0078125, 0.0000000, 0.0078125, 0.0078125, 0.0000000, 0.0000000, 0.0078125, 0.0078125, 0.0156250, 0.0000000, 0.0000000, 0.0078125, -0.0156250, -0.0078125, -0.0078125, 0.0000000, -0.0078125, -0.0156250, -0.0078125, 0.0000000, 0.0156250, 0.0000000, 0.0000000, 0.0078125, 0.0078125, 0.0078125, 0.0156250, 0.0000000, 0.0000000, 0.0078125, 0.0078125, -0.0078125, -0.0156250, 0.0078125, 0.0078125, 0.0156250, 0.0000000, -0.0234375, 0.0078125, 0.0078125, 0.0078125, 0.0000000, 0.0000000, -0.0078125, 0.0156250, 0.0156250, 0.0000000, -0.0078125, 0.0156250, 0.0078125, 0.0078125, 0.0156250, 0.0000000, 0.0078125, 0.0000000, -0.0156250, 0.0000000, 0.0156250, 0.0000000, -0.0156250, 0.0000000, 0.0000000, 0.0000000, 0.0000000, 0.0078125, -0.0078125, 0.0078125, 0.0078125, -0.0078125, -0.0078125, 0.0078125, 0.0078125, 0.0156250, 0.0078125, 0.0078125, 0.0078125, -0.0078125, 0.0078125, 0.0078125, 0.0156250, 0.0078125, 0.0000000, 0.0078125, 0.0000000, 0.0000000, -0.0078125, -0.0078125, 0.0078125, 0.0156250, 0.0156250, 0.0078125, -0.0156250, 0.0078125, 0.0156250, -0.0156250, 0.0078125, 0.0078125, 0.0156250, -0.0078125, -0.0156250, 0.0078125, 0.0078125, 0.0000000, 0.0156250, 0.0000000, 0.0156250, -0.0078125, 0.0000000, 0.0234375, 0.0078125, 0.0000000, 0.0000000, 0.0078125, 0.0078125, 0.0156250, 0.0078125, 0.0078125, 0.0000000, 0.0000000, -0.0078125, 0.0000000, -0.0078125, -0.0156250, -0.0078125, 0.0234375, 0.0156250, 0.0078125, -0.0078125, 0.0000000, -0.0078125, 0.0000000, 0.0078125, -0.0078125, -0.0078125, 0.0000000, 0.0078125, 0.0078125, 0.0078125, 0.0000000, -0.0156250, 0.0156250, 0.0000000, -0.0156250, 0.0000000, -0.0234375, -0.0078125, 0.0000000, 0.0078125, 0.0078125, 0.0156250, 0.0156250, 0.0156250, 0.0078125, 0.0000000, 0.0078125, 0.0078125, -0.0078125, 0.0078125, 0.0000000, -0.0078125, -0.0078125, 0.0078125, 0.0000000, 0.0000000, 0.0078125, 0.0078125, 0.0234375, -0.0156250, 0.0000000, 0.0000000, 0.0078125, 0.0078125, 0.0234375, 0.0078125, -0.0078125, 0.0234375, 0.0234375, -0.0078125, 0.0078125, 0.0000000, -0.0078125, 0.0078125, 0.0078125, -0.0078125, 0.0078125, 0.0000000, 0.0000000, 0.0078125, 0.0078125, 0.0156250, 0.0234375, 0.0078125, 0.0000000, -0.0078125, 0.0156250, 0.0000000, 0.0156250, -0.0078125, 0.0234375, 0.0156250, 0.0000000, 0.0156250, 0.0078125, 0.0078125, 0.0312500, -0.0078125, 0.0078125, 0.0156250, 0.0156250, 0.0156250, 0.0078125, -0.0078125, 0.0000000, 0.0078125, 0.0000000, 0.0156250, -0.0078125, 0.0000000, 0.0156250, 0.0000000, 0.0078125, -0.0078125, 0.0000000, 0.0234375, 0.0312500, 0.0156250, 0.0000000, 0.0156250, 0.0234375, 0.0156250, 0.0078125, 0.0078125, 0.0078125, 0.0000000, 0.0000000, 0.0156250, 0.0000000, 0.0156250, 0.0156250, -0.0312500, 0.0000000, 0.0078125, 0.0000000, 0.0078125, 0.0156250, 0.0156250, -0.0078125, -0.0078125, 0.0078125, -0.0078125, -0.0078125, 0.0156250, 0.0156250, 0.0078125, 0.0156250, -0.0078125, 0.0156250, 0.0156250, 0.0078125, 0.0078125, -0.0078125, -0.0078125, 0.0312500, -0.0078125, 0.0078125, 0.0000000, -0.0078125, 0.0000000, -0.0078125, 0.0000000, 0.0000000, 0.0000000, 0.0000000, -0.0078125, 0.0000000, 0.0156250, 0.0156250, 0.0000000, 0.0078125, 0.0156250, 0.0000000, 0.0078125, 0.0000000, -0.0078125, -0.0078125, 0.0000000, 0.0000000, -0.0234375, 0.0078125, 0.0000000, -0.0156250, 0.0078125, 0.0156250, 0.0078125, 0.0000000, 0.0000000, 0.0000000, -0.0078125, 0.0156250, 0.0156250, 0.0156250, 0.0000000, 0.0078125, 0.0156250, 0.0156250, 0.0156250, 0.0078125, 0.0078125, -0.0078125, 0.0234375, 0.0156250, -0.0078125, 0.0078125, 0.0234375, 0.0078125, 0.0000000, 0.0000000, 0.0156250, 0.0000000, 0.0000000, 0.0078125, 0.0078125, -0.0078125, 0.0234375, -0.0078125, -0.0078125, 0.0078125, 0.0312500, 0.0078125, 0.0000000, 0.0156250, 0.0078125, 0.0000000, 0.0000000, 0.0078125, 0.0078125, -0.0078125, 0.0000000, -0.0078125, 0.0000000, 0.0078125, -0.0078125, -0.0078125, -0.0078125, -0.0156250, 0.0000000, 0.0234375, 0.0078125, 0.0000000, 0.0156250, 0.0156250, 0.0078125, 0.0156250, 0.0000000, 0.0156250, 0.0078125, 0.0078125, 0.0156250, 0.0156250, 0.0156250, 0.0000000, 0.0000000, 0.0000000, -0.0156250, -0.0156250, -0.0078125, 0.0000000, -0.0078125, 0.0078125, 0.0156250, 0.0000000, 0.0078125, 0.0078125, 0.0234375, 0.0000000, -0.0156250, 0.0156250, -0.0156250, 0.0078125, 0.0078125, 0.0078125, 0.0000000, 0.0000000, -0.0156250, 0.0078125, 0.0078125, 0.0078125, 0.0156250, -0.0078125, 0.0078125, 0.0156250, -0.0156250, 0.0078125, 0.0000000, -0.0078125, -0.0234375, 0.0000000, -0.0078125, 0.0000000, 0.0234375, 0.0000000, 0.0000000, -0.0078125, 0.0156250, 0.0156250, 0.0000000, 0.0156250, 0.0156250, 0.0078125, 0.0156250, 0.0000000, 0.0000000, 0.0000000, 0.0078125, -0.0078125, -0.0156250, 0.0000000, -0.0078125, -0.0078125, 0.0000000, 0.0000000, 0.0078125, -0.0078125, 0.0078125, 0.0078125, -0.0234375, 0.0000000, 0.0000000, 0.0156250, -0.0078125, 0.0000000, 0.0078125, -0.0156250, 0.0234375, 0.0000000, 0.0000000, -0.0078125, 0.0234375, 0.0234375, 0.0000000, 0.0156250, -0.0078125, -0.0078125, 0.0078125, 0.0156250, 0.0156250, 0.0078125, 0.0078125, 0.0156250, 0.0078125, 0.0000000, 0.0078125, 0.0156250, -0.0156250, 0.0000000, 0.0000000, 0.0156250, 0.0000000, 0.0078125, 0.0000000, 0.0234375, 0.0000000, 0.0156250, 0.0000000, 0.0000000, 0.0234375, -0.0078125, 0.0078125, 0.0000000, 0.0000000, 0.0078125, 0.0234375, -0.0078125, 0.0078125, 0.0000000, 0.0078125, 0.0312500, 0.0000000, 0.0156250, 0.0078125, 0.0156250, 0.0078125, -0.0156250, 0.0156250, 0.0078125, 0.0000000, 0.0078125, 0.0078125, -0.0078125, 0.0078125, 0.0000000, -0.0078125, -0.0078125, 0.0000000, 0.0078125, 0.0000000, 0.0234375, 0.0000000, 0.0000000, 0.0156250, 0.0078125, 0.0234375, -0.0078125, -0.0078125, 0.0078125, -0.0078125, 0.0156250, 0.0000000, 0.0234375, 0.0078125, 0.0078125, -0.0156250, 0.0234375, 0.0078125, 0.0000000, 0.0000000, -0.0078125, 0.0000000, 0.0078125, 0.0000000, 0.0156250, 0.0000000, 0.0156250, -0.0078125, 0.0000000, -0.0078125, 0.0000000, 0.0156250, 0.0000000, -0.0078125, 0.0000000, 0.0078125, 0.0000000, 0.0000000, 0.0156250, 0.0078125, 0.0078125, 0.0078125, 0.0156250, 0.0078125, -0.0078125, -0.0078125, 0.0000000, 0.0000000, -0.0078125, -0.0078125, 0.0000000, 0.0000000, 0.0078125, 0.0078125, -0.0078125, 0.0078125, 0.0156250, 0.0078125, 0.0156250, 0.0078125, 0.0156250, 0.0156250, 0.0000000, 0.0234375, 0.0078125, 0.0156250, 0.0078125, 0.0000000, 0.0000000, 0.0000000, 0.0000000, 0.0078125, 0.0078125, 0.0078125, 0.0000000, 0.0078125, 0.0078125, 0.0078125, 0.0156250, -0.0078125, 0.0078125, -0.0078125, 0.0000000, 0.0000000, 0.0156250, 0.0000000, 0.0078125, -0.0156250, 0.0078125, 0.0156250, 0.0000000, -0.0078125, 0.0000000, 0.0078125, -0.0078125, 0.0156250, 0.0078125, 0.0000000, 0.0000000, -0.0078125, 0.0000000, 0.0000000, 0.0078125, 0.0000000, 0.0078125, 0.0000000, -0.0078125, 0.0000000, 0.0000000, 0.0078125, -0.0078125, 0.0078125, 0.0000000, -0.0078125, -0.0078125, 0.0078125, 0.0000000, 0.0156250, 0.0000000, 0.0078125, 0.0156250, 0.0078125, 0.0000000, 0.0078125, -0.0156250, -0.0078125, -0.0078125, 0.0078125, 0.0000000, 0.0000000, 0.0078125, -0.0078125, 0.0000000, 0.0000000, 0.0000000, 0.0078125, 0.0000000, 0.0000000, 0.0000000, 0.0000000, 0.0078125, -0.0078125, 0.0078125, 0.0000000, 0.0078125, 0.0078125, 0.0156250, 0.0000000, 0.0156250, 0.0000000, 0.0078125, 0.0000000, -0.0078125, -0.0078125, 0.0078125, 0.0078125, 0.0078125, 0.0078125, 0.0156250, 0.0078125, -0.0078125, -0.0156250, 0.0000000, 0.0156250, 0.0078125, -0.0078125, 0.0078125, 0.0078125, 0.0000000, 0.0156250, 0.0078125, -0.0078125, 0.0078125, 0.0000000, 0.0000000, 0.0078125, -0.0078125, 0.0078125, 0.0156250, 0.0000000, 0.0078125, 0.0156250, -0.0078125, -0.0078125, 0.0156250, 0.0000000, 0.0078125, 0.0000000, 0.0156250, 0.0078125, 0.0156250, 0.0156250, -0.0078125, 0.0156250, -0.0156250, 0.0078125, 0.0000000, 0.0078125, 0.0156250, -0.0078125, 0.0000000, 0.0078125, -0.0078125, 0.0156250, 0.0156250, 0.0000000, 0.0000000, 0.0156250, 0.0078125, 0.0078125, 0.0156250, 0.0000000, 0.0078125, 0.0000000, 0.0000000, 0.0000000, 0.0156250, 0.0078125, 0.0156250, -0.0078125, 0.0078125, 0.0078125, 0.0156250, 0.0156250, 0.0000000, 0.0000000, -0.0156250, 0.0078125, 0.0078125, 0.0000000, 0.0078125, 0.0078125, 0.0078125, -0.0078125, 0.0000000, 0.0156250, 0.0156250, 0.0000000, 0.0078125, 0.0000000, 0.0078125, 0.0000000, 0.0000000, 0.0000000, -0.0078125, -0.0078125, -0.0078125, 0.0156250, 0.0078125, 0.0000000, 0.0078125, 0.0156250, -0.0156250, 0.0078125, 0.0000000, 0.0078125, 0.0078125, 0.0078125, -0.0078125, 0.0000000, 0.0156250, 0.0078125, 0.0000000, -0.0078125, -0.0078125, -0.0078125, -0.0078125, 0.0078125, 0.0000000, -0.0078125, 0.0078125, -0.0078125, 0.0078125, 0.0000000, 0.0156250, 0.0000000, 0.0000000, -0.0078125, 0.0078125, 0.0000000, -0.0156250, 0.0078125, 0.0078125, 0.0078125, 0.0000000, 0.0000000, 0.0078125, 0.0078125, 0.0000000, 0.0000000, 0.0078125, 0.0000000, 0.0000000, 0.0000000, 0.0000000, 0.0078125, 0.0078125, 0.0078125, 0.0000000, 0.0000000, 0.0000000, -0.0156250, 0.0000000, -0.0078125, 0.0000000, -0.0078125, 0.0156250, 0.0156250, 0.0078125, -0.0078125, 0.0000000, 0.0000000, 0.0234375, 0.0156250, 0.0000000, 0.0078125, 0.0078125, 0.0078125, -0.0078125, 0.0078125, 0.0000000, 0.0000000, 0.0078125, 0.0078125, 0.0000000, 0.0000000, 0.0000000, 0.0078125, 0.0000000, -0.0078125, 0.0000000, 0.0078125, 0.0000000, 0.0000000, 0.0078125, 0.0078125, 0.0000000, 0.0078125, 0.0156250, 0.0156250, 0.0000000, -0.0078125, 0.0000000, -0.0078125, 0.0078125, 0.0000000, 0.0000000, 0.0000000, 0.0078125, 0.0234375, 0.0000000, 0.0156250, 0.0078125, -0.0078125, 0.0078125, 0.0078125, 0.0234375, -0.0156250, -0.0078125, -0.0078125, 0.0156250, -0.0078125, -0.0078125, 0.0078125, 0.0000000, 0.0078125, 0.0000000, 0.0000000, -0.0078125, -0.0078125, 0.0078125, 0.0000000, 0.0000000, 0.0078125, 0.0000000, 0.0078125, 0.0234375, 0.0000000, 0.0000000, 0.0156250, -0.0156250, 0.0000000, 0.0000000, -0.0078125, 0.0000000, 0.0000000, -0.0078125, 0.0000000, 0.0156250, 0.0156250, -0.0078125, -0.0078125, 0.0000000, 0.0000000, 0.0000000, 0.0078125, 0.0156250, 0.0078125, 0.0156250, 0.0078125, 0.0000000, 0.0000000, 0.0156250, 0.0078125, 0.0156250, 0.0000000, 0.0078125, 0.0000000, 0.0000000, 0.0078125, 0.0078125, -0.0078125, 0.0000000, 0.0078125, -0.0078125, 0.0078125, 0.0000000, 0.0000000, 0.0156250, 0.0078125, 0.0078125, 0.0156250, 0.0078125, 0.0000000, 0.0000000, 0.0078125, 0.0234375, 0.0078125, -0.0156250, -0.0078125, 0.0078125, 0.0078125, 0.0000000, 0.0078125, 0.0078125, 0.0078125, 0.0078125, 0.0156250, -0.0078125, -0.0156250, 0.0078125, 0.0078125, 0.0078125, -0.0156250, 0.0156250, 0.0000000, 0.0078125, 0.0078125, 0.0078125, 0.0078125, -0.0078125, 0.0000000, 0.0000000, 0.0000000, -0.0078125, -0.0078125, -0.0078125, 0.0078125, 0.0078125, 0.0000000, 0.0078125, 0.0000000, 0.0000000, 0.0000000, 0.0000000, 0.0078125, -0.0078125, 0.0000000, 0.0078125, 0.0000000, 0.0078125, 0.0078125, 0.0156250, 0.0078125, -0.0078125, 0.0000000, 0.0078125, 0.0156250, 0.0078125, 0.0156250, 0.0078125, 0.0000000, 0.0000000, 0.0000000, 0.0000000, 0.0156250, -0.0156250, 0.0156250, -0.0078125, 0.0000000, -0.0078125, -0.0078125, 0.0156250, 0.0156250, 0.0078125, 0.0156250, 0.0000000, -0.0078125, 0.0078125, -0.0156250, 0.0000000, 0.0000000, -0.0078125, 0.0078125, 0.0312500, 0.0078125, 0.0078125, 0.0000000, 0.0000000, 0.0078125, 0.0000000, 0.0156250, 0.0000000, 0.0078125, 0.0000000, 0.0000000, 0.0078125, 0.0078125, 0.0156250, 0.0078125, -0.0078125, 0.0156250, 0.0000000, 0.0078125, 0.0000000, 0.0156250, 0.0156250, 0.0000000, 0.0078125, 0.0078125, 0.0078125, 0.0234375, 0.0000000, 0.0000000, 0.0078125, 0.0078125, -0.0078125, 0.0078125, 0.0078125, 0.0000000, -0.0078125, 0.0078125, 0.0000000, 0.0078125, -0.0078125, 0.0078125, 0.0078125, 0.0000000, 0.0000000, 0.0000000, 0.0078125, 0.0078125, -0.0078125, 0.0000000, 0.0156250, 0.0000000, -0.0156250, 0.0078125, 0.0078125, 0.0000000, 0.0000000, 0.0234375, 0.0000000, 0.0078125, 0.0078125, 0.0000000, 0.0234375, -0.0078125, 0.0078125, 0.0078125, 0.0000000, 0.0000000, 0.0078125, -0.0156250, 0.0078125, 0.0000000, 0.0078125, -0.0078125, -0.0078125, 0.0000000, -0.0078125, 0.0078125, -0.0078125, 0.0000000, 0.0078125, 0.0000000, 0.0078125, 0.0078125, -0.0156250, 0.0000000, 0.0078125, 0.0000000, 0.0078125, 0.0000000, 0.0000000, -0.0078125, 0.0000000, 0.0078125, -0.0078125, 0.0000000, 0.0078125, 0.0078125, 0.0078125, 0.0000000, 0.0000000, 0.0078125, 0.0000000, 0.0000000, 0.0000000, 0.0078125, 0.0078125, 0.0000000, 0.0000000, 0.0000000, -0.0078125, -0.0078125, -0.0078125, 0.0156250, 0.0000000, -0.0078125, 0.0078125, 0.0078125, -0.0078125, 0.0156250, 0.0078125, 0.0078125, 0.0078125, -0.0078125, 0.0000000, 0.0078125, -0.0078125, 0.0078125, -0.0078125, 0.0000000, 0.0078125, -0.0156250, -0.0078125, 0.0156250, 0.0000000, 0.0000000, 0.0000000, 0.0078125, -0.0078125, 0.0000000, 0.0156250, 0.0000000, 0.0156250, 0.0078125, 0.0078125, 0.0000000, 0.0000000, -0.0078125, 0.0234375, -0.0078125, 0.0000000, 0.0000000, 0.0078125, 0.0078125, 0.0000000, 0.0078125, -0.0078125, 0.0000000, -0.0156250, -0.0078125, 0.0078125, 0.0000000, 0.0078125, 0.0000000, 0.0000000, 0.0000000, 0.0000000, 0.0078125, 0.0000000, 0.0078125, 0.0000000, 0.0000000, 0.0234375, 0.0000000, 0.0156250, 0.0156250, 0.0000000, 0.0078125, 0.0078125, 0.0156250, 0.0000000, -0.0078125, 0.0078125, 0.0000000, -0.0078125, 0.0000000, 0.0000000, 0.0000000, 0.0000000, 0.0078125, -0.0078125, 0.0000000, 0.0078125, 0.0000000, 0.0000000, 0.0000000, 0.0234375, 0.0000000, 0.0078125, 0.0000000, 0.0156250, 0.0156250, -0.0078125, 0.0156250, 0.0000000, 0.0000000, -0.0078125, 0.0078125, 0.0078125, 0.0000000, -0.0078125, 0.0078125, 0.0000000, 0.0078125, 0.0078125, 0.0156250, 0.0000000, 0.0000000, 0.0000000, 0.0078125, 0.0000000, 0.0000000, 0.0000000, 0.0000000, 0.0156250, 0.0156250, 0.0078125, 0.0000000, 0.0000000, 0.0078125, 0.0078125, 0.0156250, 0.0078125, 0.0078125, -0.0078125, 0.0000000, 0.0000000, -0.0078125, 0.0000000, 0.0000000, 0.0078125, 0.0156250, 0.0078125, 0.0078125, 0.0156250, 0.0156250, 0.0078125, 0.0000000, -0.0078125, 0.0000000, 0.0000000, 0.0078125, 0.0078125, 0.0078125, -0.0078125, 0.0156250, 0.0078125, -0.0156250, 0.0000000, 0.0078125, 0.0000000, -0.0078125, 0.0156250, 0.0000000, 0.0000000, 0.0078125, 0.0000000, 0.0078125, 0.0156250, 0.0078125, 0.0000000, 0.0000000, 0.0156250, 0.0000000, 0.0156250, 0.0000000, 0.0156250, -0.0156250, 0.0156250, 0.0000000, 0.0078125, -0.0156250, 0.0000000, 0.0000000, -0.0078125, 0.0000000, 0.0000000, 0.0000000, 0.0156250, 0.0078125, 0.0078125, 0.0000000, 0.0156250, 0.0000000, 0.0078125, 0.0156250, 0.0078125, -0.0156250, 0.0078125, 0.0000000, 0.0234375, 0.0156250, 0.0234375, 0.0078125, -0.0078125, 0.0156250, 0.0078125, 0.0078125, 0.0000000, 0.0078125, 0.0000000, -0.0078125, 0.0000000, 0.0156250, 0.0078125, 0.0000000, 0.0000000, 0.0078125, 0.0078125, 0.0000000, 0.0156250, -0.0078125, 0.0234375, 0.0000000, 0.0234375, 0.0078125, 0.0000000, 0.0000000, 0.0000000, 0.0312500, -0.0156250, 0.0156250, 0.0078125, 0.0000000, 0.0078125, -0.0156250, -0.0234375, -0.0156250, 0.0078125, 0.0156250, 0.0000000, 0.0156250, 0.0078125, 0.0078125, 0.0000000, 0.0000000, 0.0000000, 0.0000000, 0.0156250, -0.0078125, -0.0078125, 0.0000000, 0.0156250, 0.0078125, 0.0000000, 0.0156250, 0.0156250, 0.0156250, 0.0078125, 0.0078125, 0.0156250, -0.0156250, 0.0078125, -0.0156250, 0.0156250, 0.0078125, 0.0000000, 0.0000000, 0.0000000, 0.0078125, 0.0000000, -0.0234375, 0.0156250, 0.0000000, 0.0078125, 0.0156250, 0.0000000, -0.0156250, 0.0078125, 0.0156250, 0.0000000, 0.0156250, 0.0000000, 0.0078125, 0.0156250, 0.0000000, -0.0078125, 0.0078125, 0.0000000, 0.0078125, 0.0000000, -0.0156250, 0.0078125, 0.0078125, 0.0078125, 0.0000000, 0.0156250, 0.0156250, 0.0000000, 0.0078125, -0.0078125, 0.0000000, 0.0000000, 0.0000000, 0.0234375, -0.0078125, 0.0156250, 0.0000000, 0.0234375, 0.0078125, 0.0234375, -0.0078125, 0.0000000, 0.0000000, 0.0078125, 0.0000000, 0.0078125, -0.0078125, 0.0000000, 0.0000000, 0.0078125, 0.0078125, -0.0156250, 0.0078125, 0.0000000, -0.0078125, 0.0156250, -0.0078125, 0.0156250, 0.0234375, 0.0156250, 0.0156250, -0.0078125, 0.0156250, -0.0078125, 0.0156250, -0.0078125, 0.0078125, 0.0078125, -0.0234375, 0.0156250, 0.0000000, -0.0078125, -0.0078125, 0.0078125, 0.0078125, 0.0000000, 0.0078125, 0.0078125, 0.0000000, 0.0078125, 0.0000000, 0.0234375, 0.0000000, 0.0000000, 0.0156250, 0.0000000, 0.0234375, 0.0000000, 0.0156250, 0.0078125, 0.0078125, 0.0000000, 0.0000000, 0.0000000, 0.0078125, -0.0078125, 0.0078125, 0.0078125, 0.0156250, 0.0156250, 0.0234375, -0.0078125, 0.0000000, -0.0078125, 0.0000000, 0.0234375, 0.0000000, -0.0078125, 0.0000000, 0.0156250, 0.0078125, 0.0000000, 0.0078125, 0.0156250, 0.0000000, 0.0156250, 0.0156250, 0.0078125, 0.0000000, 0.0000000, 0.0000000, 0.0078125, 0.0078125, -0.0078125, 0.0078125, 0.0000000, 0.0000000, 0.0078125, -0.0156250, 0.0078125, 0.0000000, 0.0000000, 0.0156250, 0.0078125, -0.0078125, 0.0078125, 0.0156250, 0.0000000, 0.0000000, 0.0078125, 0.0156250, 0.0234375, 0.0000000, -0.0078125, -0.0078125, 0.0000000, 0.0078125, 0.0078125, 0.0000000, 0.0000000, 0.0078125, 0.0078125, 0.0000000, -0.0078125, 0.0156250, -0.0156250, 0.0078125, -0.0156250, 0.0000000, 0.0000000, 0.0078125, 0.0234375, 0.0156250, 0.0156250, 0.0078125, 0.0156250, 0.0000000, 0.0156250, 0.0078125, -0.0078125, 0.0078125, 0.0000000, -0.0156250, -0.0078125, -0.0156250, -0.0078125, -0.0078125, 0.0000000, 0.0078125, -0.0078125, 0.0234375, 0.0078125, -0.0078125, 0.0078125, 0.0078125, 0.0156250, 0.0156250, 0.0156250, 0.0156250, -0.0156250, 0.0156250, 0.0078125, 0.0156250, 0.0000000, 0.0000000, 0.0078125, -0.0156250, 0.0000000, 0.0000000, 0.0156250, 0.0078125, 0.0000000, 0.0078125, 0.0000000, -0.0078125, 0.0234375, 0.0000000, 0.0000000, 0.0078125, 0.0156250, 0.0078125, -0.0078125, 0.0156250, 0.0078125, 0.0234375, 0.0000000, 0.0156250, 0.0000000, -0.0078125, 0.0156250, -0.0156250, 0.0000000, 0.0000000, -0.0078125, 0.0078125, 0.0156250, 0.0156250, 0.0234375, 0.0234375, 0.0000000, -0.0078125, 0.0000000, 0.0000000, 0.0078125, 0.0000000, -0.0156250, -0.0078125, 0.0156250, 0.0156250, 0.0078125, 0.0000000, 0.0078125, 0.0078125, 0.0156250, 0.0156250, 0.0078125, -0.0078125, 0.0078125, 0.0000000, 0.0000000, 0.0078125, 0.0000000, 0.0156250, 0.0000000, 0.0000000, 0.0078125, -0.0078125, 0.0156250, 0.0078125, 0.0000000, 0.0234375, 0.0000000, -0.0078125, 0.0000000, 0.0078125, 0.0078125, 0.0156250, -0.0078125, 0.0156250, 0.0156250, -0.0078125, -0.0078125, 0.0078125, 0.0000000, -0.0078125, 0.0078125, -0.0078125, 0.0000000, -0.0078125, 0.0000000, 0.0000000, 0.0078125, 0.0078125, -0.0078125, -0.0078125, 0.0078125, 0.0000000, 0.0000000, 0.0078125, 0.0156250, 0.0000000, 0.0156250, 0.0000000, 0.0156250, 0.0156250, 0.0234375, -0.0078125, 0.0156250, 0.0000000, 0.0156250, 0.0078125, 0.0156250, 0.0000000, 0.0000000, -0.0078125, -0.0078125, 0.0000000, 0.0000000, -0.0078125, 0.0000000, -0.0078125, 0.0000000, 0.0000000, -0.0078125, -0.0156250, 0.0000000, -0.0156250, 0.0156250, -0.0078125, 0.0078125, -0.0078125, 0.0000000, 0.0078125, -0.0078125, 0.0078125, 0.0078125, 0.0078125, 0.0000000, 0.0000000, 0.0078125, -0.0078125, 0.0000000, -0.0078125, -0.0078125, -0.0078125, -0.0078125, 0.0078125, -0.0156250, 0.0000000, 0.0000000, -0.0078125, 0.0078125, -0.0156250, 0.0078125, -0.0078125, 0.0000000, 0.0078125, 0.0000000, 0.0000000, 0.0078125, 0.0078125, 0.0156250, 0.0000000, -0.0078125, -0.0078125, -0.0078125, -0.0078125, 0.0000000, 0.0000000, 0.0000000, 0.0000000, 0.0000000, 0.0000000, 0.0000000, 0.0078125, -0.0078125, 0.0000000, 0.0000000, 0.0000000, 0.0000000, 0.0000000, 0.0000000, -0.0078125, 0.0000000, 0.0078125, 0.0000000, 0.0078125, 0.0000000, 0.0000000, 0.0000000, -0.0078125, 0.0078125, 0.0000000, -0.0078125, 0.0000000, 0.0000000, -0.0078125, -0.0078125, -0.0156250, -0.0078125, 0.0000000, -0.0078125, -0.0078125, -0.0078125, -0.0078125, 0.0000000, 0.0000000, 0.0000000, 0.0078125, 0.0000000, -0.0078125, 0.0000000, -0.0078125, 0.0078125, -0.0078125, 0.0078125, 0.0078125, -0.0078125, -0.0078125, -0.0078125, 0.0000000, 0.0078125, 0.0078125, 0.0000000, 0.0000000, -0.0078125, -0.0156250, 0.0000000, 0.0156250, -0.0078125, 0.0078125, 0.0000000, -0.0078125, 0.0000000, 0.0000000, 0.0000000, 0.0078125, 0.0000000, 0.0000000, -0.0078125, 0.0000000, 0.0000000, 0.0156250, 0.0000000, 0.0078125, 0.0000000, -0.0156250, 0.0000000, 0.0000000, 0.0078125, 0.0000000, -0.0156250, -0.0078125, 0.0000000, -0.0078125, 0.0156250, -0.0078125, 0.0000000, -0.0078125, 0.0078125, 0.0156250, 0.0078125, 0.0000000, 0.0078125, 0.0000000, 0.0000000, 0.0078125, 0.0000000, -0.0156250, 0.0156250, 0.0078125, -0.0078125, 0.0000000, -0.0078125, 0.0078125, -0.0156250, 0.0000000, 0.0000000, -0.0078125, -0.0078125, -0.0156250, 0.0000000, 0.0000000, 0.0000000, 0.0000000, 0.0000000, 0.0078125, -0.0078125, 0.0000000, 0.0000000, 0.0000000, -0.0156250, -0.0078125, -0.0078125, 0.0078125, 0.0078125, 0.0000000, 0.0000000, 0.0078125, 0.0000000, 0.0000000, 0.0000000, 0.0078125, -0.0078125, -0.0078125, 0.0000000, 0.0000000, -0.0078125, -0.0078125, 0.0000000, -0.0156250, 0.0000000, 0.0000000, 0.0000000, 0.0000000, -0.0078125, 0.0234375, 0.0000000, -0.0078125, -0.0078125, 0.0000000, -0.0078125, 0.0000000, 0.0000000, -0.0078125, 0.0000000, -0.0156250, -0.0078125, 0.0000000, 0.0000000, -0.0078125, -0.0156250, 0.0000000, 0.0156250, -0.0156250, -0.0156250, 0.0000000, 0.0078125, -0.0078125, 0.0078125, 0.0000000, 0.0078125, 0.0000000, 0.0000000, 0.0078125, 0.0078125, -0.0078125, -0.0156250, -0.0078125, 0.0078125, 0.0000000, 0.0078125, 0.0000000, 0.0000000, -0.0078125, 0.0000000, 0.0078125, -0.0078125, 0.0078125, -0.0078125, -0.0078125, -0.0078125, -0.0078125, 0.0000000, 0.0078125, -0.0078125, 0.0000000, 0.0000000, 0.0000000, 0.0000000, 0.0000000, 0.0000000, 0.0000000, 0.0078125, -0.0078125, -0.0156250, -0.0078125, 0.0000000, 0.0000000, -0.0078125, 0.0000000, -0.0078125, -0.0156250, 0.0156250, -0.0078125, -0.0078125, -0.0078125, 0.0000000, 0.0000000, 0.0000000, 0.0000000, 0.0156250, 0.0000000, 0.0156250, 0.0078125, -0.0078125, -0.0078125, 0.0078125, 0.0078125, -0.0078125, -0.0078125, -0.0156250, 0.0078125, -0.0078125, 0.0078125, -0.0078125, 0.0000000, 0.0000000, -0.0078125, 0.0156250, -0.0234375, 0.0078125, 0.0078125, 0.0000000, -0.0078125, 0.0078125, 0.0000000, 0.0078125, -0.0156250, 0.0000000, -0.0078125, 0.0000000, 0.0078125, -0.0078125, 0.0078125, 0.0000000, 0.0000000, 0.0000000, 0.0078125, 0.0156250, 0.0078125, -0.0078125, -0.0078125, 0.0156250, 0.0000000, -0.0078125, 0.0000000, -0.0156250, 0.0000000, 0.0078125, 0.0000000, -0.0156250, 0.0078125, -0.0078125, 0.0000000, 0.0000000, -0.0078125, 0.0000000, 0.0000000, -0.0078125, 0.0078125, 0.0000000, -0.0078125, 0.0000000, -0.0078125, -0.0078125, 0.0000000, 0.0156250, -0.0078125, 0.0000000, -0.0078125, 0.0000000, -0.0078125, 0.0000000, 0.0000000, 0.0000000, 0.0000000, 0.0000000, -0.0078125, 0.0078125, 0.0078125, 0.0000000, -0.0078125, 0.0000000, 0.0000000, -0.0078125, 0.0000000, 0.0078125, 0.0078125, 0.0078125, 0.0000000, 0.0000000, 0.0078125, -0.0078125, 0.0078125, 0.0000000, 0.0078125, -0.0078125, -0.0078125, -0.0156250, 0.0000000, 0.0000000, 0.0000000, -0.0078125, 0.0000000, 0.0000000, 0.0000000, 0.0000000, 0.0078125, -0.0078125, 0.0000000, 0.0000000, 0.0000000, 0.0078125, -0.0078125, 0.0078125, -0.0078125, -0.0078125, 0.0000000, 0.0000000, 0.0000000, 0.0078125, 0.0000000, -0.0156250, 0.0000000, 0.0000000, 0.0000000, 0.0000000, 0.0078125, 0.0000000, 0.0156250, 0.0000000, 0.0000000, 0.0000000, 0.0000000, 0.0000000, 0.0000000, -0.0078125, -0.0078125, 0.0000000, 0.0156250, 0.0000000, 0.0000000, -0.0078125, 0.0000000, 0.0078125, -0.0078125, -0.0078125, -0.0078125, 0.0000000, 0.0078125, -0.0078125, 0.0078125, 0.0078125, 0.0000000, 0.0000000, 0.0000000, -0.0078125, -0.0156250, -0.0078125, -0.0078125, 0.0078125, -0.0078125, 0.0078125, 0.0078125, 0.0078125, -0.0078125, 0.0078125, 0.0000000, 0.0000000, 0.0000000, 0.0000000, -0.0078125, 0.0000000, -0.0078125, 0.0000000, -0.0078125, 0.0000000, 0.0078125, 0.0078125, 0.0000000, -0.0078125, 0.0000000, 0.0000000, 0.0000000, 0.0078125, 0.0078125, 0.0000000, -0.0078125, -0.0078125, 0.0000000, 0.0156250, 0.0000000, 0.0000000, 0.0000000, -0.0078125, -0.0156250, 0.0000000, -0.0078125, 0.0078125, -0.0078125, 0.0078125, 0.0000000, 0.0000000, -0.0078125, 0.0078125, 0.0000000, 0.0078125, 0.0000000, 0.0156250, 0.0078125, 0.0156250, 0.0000000, -0.0078125, -0.0156250, 0.0000000, 0.0000000, -0.0078125, 0.0000000, 0.0000000, -0.0078125, -0.0078125, 0.0078125, -0.0078125, -0.0156250, 0.0000000, 0.0000000, -0.0078125, 0.0078125, 0.0000000, 0.0078125, 0.0000000, -0.0078125, 0.0000000, 0.0000000, -0.0078125, 0.0078125, -0.0078125, 0.0078125, -0.0078125, -0.0078125, 0.0078125, -0.0078125, 0.0000000, -0.0078125, -0.0156250, 0.0000000, 0.0000000, -0.0078125, 0.0000000, 0.0078125, -0.0078125, -0.0156250, 0.0000000, 0.0078125, 0.0000000, 0.0078125, -0.0078125, 0.0000000, -0.0078125, 0.0078125, -0.0078125, 0.0000000, 0.0078125, -0.0078125, 0.0000000, -0.0078125, -0.0078125, 0.0000000, -0.0078125, 0.0078125, 0.0078125, 0.0000000, -0.0078125, -0.0156250, -0.0078125, -0.0078125, 0.0078125, 0.0000000, 0.0000000, 0.0078125, -0.0078125, -0.0078125, 0.0000000, -0.0156250, -0.0156250, -0.0078125, 0.0000000, -0.0156250, -0.0078125, 0.0000000, -0.0078125, 0.0000000, 0.0078125, 0.0000000, 0.0156250, 0.0000000, -0.0078125, 0.0000000, 0.0078125, -0.0078125, 0.0000000, -0.0078125, 0.0000000, -0.0078125, 0.0078125, 0.0000000, 0.0000000, 0.0078125, -0.0078125, 0.0000000, 0.0000000, -0.0078125, -0.0078125, 0.0000000, 0.0078125, -0.0156250, -0.0078125, 0.0000000, 0.0000000, 0.0000000, 0.0000000, 0.0000000, -0.0078125, 0.0078125, -0.0078125, -0.0078125, 0.0078125, -0.0078125, 0.0000000, 0.0078125, -0.0078125, 0.0000000, 0.0078125, 0.0000000, 0.0078125, -0.0078125, 0.0000000, 0.0000000, 0.0156250, 0.0000000, 0.0000000, -0.0156250, 0.0000000, 0.0078125, -0.0078125, 0.0000000, 0.0000000, -0.0078125, -0.0234375, 0.0078125, -0.0078125, -0.0078125, -0.0078125, -0.0078125, -0.0156250, 0.0000000, 0.0000000, 0.0078125, -0.0078125, 0.0000000, 0.0000000, 0.0000000, -0.0156250, 0.0000000, -0.0078125, -0.0078125, -0.0078125, 0.0000000, -0.0078125, 0.0000000, 0.0078125, 0.0000000, -0.0078125, -0.0078125, -0.0078125, -0.0156250, 0.0078125, -0.0078125, -0.0156250, 0.0078125, 0.0000000, 0.0000000, -0.0156250, 0.0000000, 0.0078125, 0.0078125, 0.0000000, 0.0000000, 0.0000000, 0.0078125, 0.0078125, -0.0078125, -0.0078125, 0.0000000, -0.0078125, 0.0000000, 0.0000000, 0.0078125, -0.0078125, -0.0078125, 0.0078125, -0.0078125, 0.0156250, -0.0078125, -0.0078125, 0.0000000, -0.0078125, -0.0078125, 0.0000000, -0.0078125, 0.0000000, 0.0000000, -0.0078125, 0.0000000, 0.0000000, -0.0078125, 0.0078125, 0.0000000, 0.0000000, 0.0078125, 0.0078125, 0.0078125, 0.0156250, 0.0156250, 0.0000000, -0.0078125, 0.0078125, 0.0000000, 0.0000000, -0.0078125, 0.0000000, -0.0078125, 0.0000000, 0.0078125, 0.0156250, 0.0000000, -0.0078125, -0.0156250, -0.0078125, -0.0156250, -0.0078125, 0.0078125, 0.0000000, -0.0156250, -0.0078125, 0.0000000, -0.0078125, 0.0000000, 0.0156250, 0.0156250, 0.0000000, 0.0078125, 0.0000000, 0.0000000, 0.0000000, 0.0000000, -0.0156250, 0.0000000, 0.0078125, -0.0078125, 0.0078125, -0.0078125, 0.0000000, 0.0000000, 0.0078125, 0.0000000, 0.0000000, 0.0078125, 0.0000000, -0.0078125, 0.0078125, 0.0078125, 0.0000000, -0.0078125, 0.0078125, -0.0078125, -0.0078125, 0.0000000, 0.0000000, 0.0000000, -0.0156250, 0.0000000, 0.0000000, -0.0078125, 0.0078125, 0.0000000, -0.0078125, 0.0000000, 0.0000000, 0.0000000, -0.0156250, 0.0078125, -0.0078125, 0.0000000, 0.0078125, 0.0000000, 0.0000000, 0.0000000, -0.0078125, 0.0078125, -0.0078125, 0.0000000, 0.0000000, 0.0000000, 0.0156250, 0.0000000, -0.0156250, -0.0078125, 0.0000000, 0.0078125, -0.0078125, 0.0000000, 0.0000000, 0.0078125, -0.0078125, 0.0078125, 0.0078125, 0.0000000, 0.0078125, 0.0078125, -0.0078125, 0.0078125, 0.0000000, 0.0078125, 0.0000000, 0.0000000, -0.0078125, 0.0078125, 0.0156250, 0.0000000, 0.0000000, 0.0000000, 0.0000000, 0.0078125, 0.0000000, 0.0000000, 0.0000000, 0.0078125, 0.0000000, 0.0078125, -0.0078125, -0.0078125, 0.0000000, 0.0000000, 0.0000000, 0.0078125, 0.0078125, 0.0000000, -0.0078125, 0.0000000, -0.0078125, 0.0156250, -0.0078125, -0.0078125, -0.0078125, 0.0000000, 0.0000000, -0.0078125, 0.0078125, 0.0000000, 0.0000000, 0.0078125, 0.0000000, 0.0078125, -0.0078125, -0.0078125, 0.0078125, 0.0000000, 0.0000000, 0.0078125, 0.0078125, 0.0000000, 0.0000000, -0.0078125, 0.0000000, -0.0078125, 0.0078125, 0.0156250, 0.0078125, 0.0078125, 0.0000000, 0.0000000, 0.0156250, 0.0000000, -0.0078125, -0.0078125, -0.0078125, 0.0000000, 0.0078125, 0.0078125, 0.0000000, 0.0000000, 0.0078125, 0.0156250, 0.0156250, 0.0000000, 0.0000000, 0.0000000, 0.0078125, 0.0000000, 0.0000000, 0.0000000, 0.0078125, -0.0078125, 0.0000000, 0.0000000, 0.0000000, 0.0000000, -0.0078125, 0.0078125, -0.0078125, 0.0000000, 0.0078125, 0.0156250, 0.0000000, 0.0000000, 0.0000000, 0.0000000, 0.0000000, 0.0078125, -0.0156250, 0.0000000, 0.0078125, 0.0000000, 0.0078125, 0.0078125, -0.0078125, 0.0000000, 0.0000000, 0.0078125, -0.0078125, 0.0000000, 0.0078125, 0.0000000, 0.0000000, 0.0156250, 0.0156250, 0.0078125, 0.0000000, 0.0078125, 0.0000000, 0.0156250, 0.0000000, 0.0156250, 0.0234375, 0.0000000, 0.0000000, -0.0078125, -0.0078125, -0.0078125, 0.0000000, -0.0078125, 0.0000000, -0.0078125, 0.0078125, -0.0156250, 0.0078125, 0.0078125, -0.0078125, 0.0000000, 0.0000000, 0.0000000, 0.0000000, -0.0078125, 0.0078125, 0.0156250, -0.0078125, 0.0000000, -0.0078125, 0.0078125, 0.0000000, -0.0078125, 0.0078125, 0.0000000, 0.0000000, 0.0078125, 0.0078125, -0.0078125, 0.0156250, 0.0156250, -0.0078125, 0.0000000, 0.0078125, 0.0078125, -0.0078125, 0.0000000, 0.0000000, 0.0000000, 0.0078125, 0.0000000, 0.0078125, 0.0078125, 0.0000000, 0.0000000, -0.0078125, -0.0078125, -0.0156250, -0.0078125, 0.0078125, -0.0078125, -0.0078125, -0.0078125, -0.0078125, 0.0000000, 0.0000000, 0.0000000, 0.0000000, 0.0000000, 0.0000000, 0.0000000, 0.0078125, 0.0000000, 0.0000000, -0.0078125, 0.0078125, 0.0000000, 0.0078125, 0.0156250, 0.0078125, 0.0000000, 0.0000000, 0.0078125, -0.0078125, 0.0078125, 0.0000000, 0.0000000, 0.0000000, 0.0000000, 0.0078125, 0.0078125, 0.0156250, 0.0000000, 0.0000000, 0.0078125, 0.0000000, 0.0000000, -0.0078125, 0.0000000, 0.0000000, 0.0000000, 0.0078125, 0.0000000, 0.0000000, 0.0000000, -0.0078125, 0.0078125, 0.0000000, 0.0078125, 0.0000000, -0.0078125, -0.0156250, -0.0078125, 0.0000000, 0.0000000, 0.0078125, 0.0156250, 0.0000000, -0.0078125, 0.0078125, 0.0000000, 0.0078125, 0.0078125, -0.0156250, 0.0078125, 0.0000000, 0.0078125, 0.0078125, 0.0078125, 0.0156250, 0.0156250, -0.0078125, 0.0078125, 0.0000000, 0.0000000, 0.0078125, -0.0156250, 0.0000000, -0.0078125, 0.0078125, 0.0078125, 0.0000000, -0.0078125, -0.0078125, 0.0078125, 0.0078125, 0.0000000, 0.0078125, 0.0000000, 0.0000000, -0.0078125, 0.0078125, -0.0156250, 0.0078125, -0.0078125, 0.0000000, 0.0078125, 0.0000000, 0.0156250, 0.0000000, 0.0078125, 0.0078125, -0.0078125, 0.0000000, -0.0078125, 0.0078125, 0.0000000, 0.0078125, 0.0000000, -0.0078125, 0.0078125, 0.0156250, 0.0078125, 0.0000000, 0.0000000, 0.0000000, 0.0000000, 0.0000000, 0.0078125, -0.0078125, 0.0078125, 0.0078125, 0.0000000, 0.0078125, -0.0078125, -0.0078125, 0.0078125, 0.0156250, -0.0078125, 0.0000000, 0.0078125, 0.0000000, 0.0000000, 0.0078125, 0.0078125, 0.0000000, 0.0000000, 0.0000000, 0.0000000, 0.0000000, 0.0000000, 0.0000000, 0.0000000, 0.0000000, -0.0078125, 0.0156250, -0.0078125, 0.0078125, -0.0078125, 0.0000000, 0.0000000, 0.0078125, 0.0000000, 0.0000000, 0.0000000, 0.0078125, 0.0156250, 0.0000000, 0.0000000, 0.0000000, -0.0078125, 0.0000000, 0.0000000, 0.0000000, -0.0078125, 0.0000000, 0.0000000, 0.0000000, -0.0078125, -0.0078125, 0.0156250, 0.0078125, -0.0078125, 0.0000000, -0.0078125, -0.0078125, 0.0078125, 0.0000000, -0.0078125, 0.0000000, -0.0078125, 0.0000000, 0.0078125, -0.0078125, -0.0156250, -0.0078125, -0.0078125, 0.0000000, -0.0156250, 0.0078125, -0.0156250, 0.0000000, 0.0000000, 0.0078125, 0.0000000, -0.0078125, 0.0000000, 0.0078125, 0.0078125, 0.0000000, 0.0000000, 0.0000000, -0.0078125, 0.0000000, 0.0078125, -0.0078125, -0.0078125, -0.0078125, -0.0156250, -0.0078125, -0.0156250, -0.0078125, 0.0000000, 0.0000000, 0.0000000, -0.0078125, -0.0078125, 0.0078125, -0.0078125, 0.0000000, 0.0000000, 0.0078125, 0.0000000, 0.0078125, -0.0078125, 0.0000000, -0.0078125, -0.0078125, -0.0156250, 0.0078125, 0.0078125, 0.0078125, 0.0000000, 0.0000000, -0.0078125, 0.0000000, 0.0000000, -0.0078125, -0.0078125, -0.0078125, 0.0000000, -0.0078125, 0.0078125, -0.0078125, -0.0078125, 0.0078125, 0.0000000, 0.0000000, 0.0000000, -0.0078125, 0.0000000, 0.0078125, 0.0000000, 0.0000000, 0.0078125, 0.0000000, 0.0156250, -0.0156250, -0.0078125, 0.0078125, 0.0000000, -0.0078125, 0.0000000, 0.0000000, 0.0000000, 0.0000000, -0.0156250, 0.0000000, -0.0078125, 0.0000000, 0.0000000, 0.0000000, 0.0000000, 0.0000000, 0.0078125, 0.0000000, 0.0078125, 0.0078125, 0.0000000, -0.0078125, -0.0078125, 0.0000000, 0.0078125, -0.0078125, 0.0078125, 0.0078125, 0.0000000, -0.0078125, 0.0000000, -0.0078125, -0.0078125, 0.0000000, -0.0078125, -0.0078125, -0.0078125, 0.0078125, 0.0000000, 0.0000000, -0.0078125, 0.0000000, 0.0000000, -0.0078125, -0.0078125, 0.0000000, 0.0000000, 0.0078125, 0.0078125, 0.0078125, -0.0078125, 0.0000000, 0.0156250, 0.0000000, -0.0156250, -0.0078125, -0.0156250, -0.0078125, -0.0156250, -0.0078125, -0.0156250, 0.0000000, -0.0078125, 0.0000000, 0.0000000, -0.0156250, -0.0078125, -0.0078125, -0.0156250, 0.0000000, 0.0156250, -0.0078125, -0.0078125, 0.0000000, 0.0000000, -0.0078125, -0.0078125, -0.0078125, -0.0156250, -0.0156250, -0.0156250, -0.0078125, 0.0000000, 0.0078125, -0.0078125, 0.0078125, 0.0000000, 0.0000000, 0.0000000, -0.0078125, 0.0000000, 0.0078125, 0.0000000, 0.0000000, 0.0000000, -0.0078125, 0.0000000, -0.0078125, -0.0078125, 0.0078125, -0.0078125, 0.0000000, -0.0078125, -0.0078125, 0.0000000, -0.0078125, -0.0078125, -0.0156250, -0.0078125, 0.0078125, 0.0000000, 0.0000000, 0.0078125, -0.0078125, -0.0156250, 0.0000000, 0.0078125, 0.0000000, -0.0078125, -0.0156250, 0.0000000, 0.0000000, -0.0078125, -0.0078125, 0.0078125, 0.0000000, 0.0000000, -0.0078125, -0.0078125, 0.0078125, -0.0156250, -0.0078125, -0.0156250, 0.0000000, -0.0156250, 0.0000000, -0.0078125, -0.0078125, -0.0156250, -0.0078125, 0.0000000, 0.0078125, -0.0078125, 0.0000000, 0.0078125, 0.0000000, 0.0000000, 0.0078125, -0.0078125, -0.0078125, 0.0078125, -0.0156250, -0.0078125, -0.0078125, -0.0078125, 0.0000000, 0.0078125, -0.0078125, 0.0078125, -0.0156250, 0.0000000, -0.0078125, 0.0156250, 0.0000000, -0.0156250, -0.0156250, 0.0000000, -0.0156250, 0.0000000, 0.0078125, -0.0078125, 0.0078125, 0.0000000, -0.0078125, -0.0078125, 0.0078125, 0.0000000, 0.0078125, -0.0234375, 0.0078125, 0.0000000, 0.0078125, 0.0078125, -0.0078125, -0.0078125, -0.0156250, -0.0234375, 0.0000000, -0.0156250, -0.0156250, 0.0000000, 0.0000000, 0.0000000, -0.0078125, 0.0000000, 0.0156250, -0.0078125, 0.0156250, 0.0156250, 0.0000000, -0.0078125, 0.0000000, 0.0000000, -0.0078125, -0.0156250, -0.0156250, -0.0156250, -0.0156250, -0.0078125, 0.0078125, -0.0078125, 0.0078125, -0.0156250, 0.0000000, -0.0078125, 0.0156250, -0.0078125, -0.0078125, 0.0000000, 0.0000000, 0.0078125, 0.0000000, -0.0156250, -0.0078125, -0.0078125, -0.0156250, 0.0000000, 0.0000000, -0.0078125, 0.0000000, 0.0156250, 0.0078125, 0.0000000, -0.0078125, 0.0078125, -0.0078125, -0.0156250, 0.0000000, 0.0078125, -0.0156250, -0.0078125, -0.0078125, -0.0156250, -0.0078125, 0.0000000, 0.0000000, 0.0000000, -0.0078125, -0.0078125, 0.0000000, -0.0156250, 0.0078125, 0.0156250, 0.0000000, 0.0156250, -0.0078125, -0.0156250, 0.0078125, -0.0078125, 0.0000000, -0.0078125, 0.0000000, -0.0156250, 0.0000000, 0.0000000, 0.0000000, -0.0156250, 0.0000000, -0.0078125, 0.0078125, 0.0000000, -0.0078125, 0.0000000, 0.0078125, 0.0000000, 0.0234375, 0.0000000, -0.0156250, -0.0078125, 0.0000000, -0.0156250, 0.0078125, 0.0000000, 0.0000000, 0.0000000, 0.0000000, -0.0078125, -0.0156250, -0.0078125, -0.0078125, 0.0156250, -0.0156250, -0.0156250, -0.0078125, -0.0078125, 0.0000000, 0.0000000, 0.0000000, 0.0078125, 0.0000000, -0.0078125, 0.0000000, -0.0078125, -0.0078125, 0.0078125, 0.0000000, -0.0078125, 0.0000000, 0.0078125, 0.0078125, 0.0000000, -0.0156250, 0.0000000, -0.0078125, -0.0156250, 0.0156250, -0.0156250, -0.0078125, -0.0078125, 0.0078125, -0.0078125, 0.0000000, 0.0000000, -0.0078125, -0.0078125, 0.0156250, 0.0000000, 0.0000000, 0.0000000, -0.0078125, -0.0156250, 0.0000000, -0.0078125, -0.0078125, 0.0000000, -0.0156250, -0.0078125, 0.0078125, 0.0000000, 0.0000000, -0.0078125, 0.0078125, 0.0000000, -0.0078125, 0.0000000, 0.0000000, 0.0156250, 0.0000000, -0.0078125, -0.0078125, -0.0078125, 0.0000000, -0.0078125, -0.0078125, 0.0000000, -0.0078125, -0.0078125, 0.0078125, 0.0078125, 0.0000000, 0.0000000, 0.0000000, 0.0000000, -0.0078125, -0.0078125, 0.0078125, 0.0000000, 0.0000000, -0.0078125, 0.0000000, 0.0000000, 0.0000000, 0.0078125, -0.0078125, 0.0078125, 0.0000000, 0.0078125, 0.0000000, 0.0000000, -0.0078125, 0.0000000, 0.0078125, 0.0000000, 0.0000000, 0.0000000, 0.0000000, 0.0000000, 0.0000000, 0.0078125, 0.0000000, 0.0000000, -0.0078125, -0.0156250, -0.0078125, -0.0078125, -0.0078125, 0.0000000, -0.0078125, -0.0078125, -0.0078125, 0.0078125, 0.0078125, 0.0156250, 0.0078125, 0.0000000, -0.0078125, 0.0000000, 0.0000000, -0.0234375, 0.0078125, -0.0078125, -0.0078125, 0.0078125, 0.0000000, -0.0078125, -0.0156250, 0.0000000, -0.0078125, 0.0000000, 0.0000000, 0.0000000, -0.0078125, 0.0078125, -0.0156250, 0.0000000, -0.0078125, -0.0078125, 0.0078125, 0.0078125, -0.0078125, -0.0078125, -0.0156250, 0.0000000, 0.0078125, -0.0078125, 0.0000000, 0.0000000, 0.0156250, -0.0078125, -0.0312500, 0.0000000, 0.0000000, -0.0078125, 0.0000000, -0.0156250, -0.0156250, 0.0078125, 0.0078125, 0.0000000, 0.0000000, -0.0078125, 0.0000000, 0.0000000, -0.0078125, 0.0000000, 0.0078125, -0.0078125, -0.0078125, -0.0078125, -0.0078125, -0.0156250, -0.0078125, 0.0000000, -0.0156250, 0.0000000, 0.0156250, 0.0000000, 0.0000000, -0.0156250, -0.0078125, 0.0000000, -0.0156250, 0.0000000, -0.0078125, 0.0000000, 0.0000000, 0.0000000, -0.0078125, 0.0000000, -0.0156250, -0.0078125, -0.0078125, 0.0000000, -0.0156250, -0.0078125, 0.0000000, -0.0078125, -0.0078125, -0.0078125, 0.0000000, 0.0000000, -0.0156250, -0.0078125, 0.0000000, 0.0000000, -0.0078125, -0.0156250, -0.0078125, -0.0312500, -0.0078125, 0.0078125, 0.0000000, -0.0078125, -0.0156250, 0.0000000, 0.0078125, -0.0156250, -0.0078125, 0.0156250, 0.0078125, 0.0078125, 0.0000000, -0.0078125, 0.0078125, -0.0078125, 0.0000000, 0.0078125, 0.0000000, 0.0078125, 0.0078125, 0.0000000, 0.0156250, -0.0234375, 0.0078125, -0.0156250, -0.0078125, -0.0078125, 0.0000000, 0.0000000, 0.0000000, 0.0000000, 0.0000000, 0.0078125, -0.0156250, -0.0078125, -0.0156250, -0.0156250, 0.0078125, -0.0078125, 0.0000000, 0.0000000, -0.0078125, -0.0078125, -0.0078125, -0.0078125, -0.0078125, 0.0156250, -0.0078125, 0.0000000, -0.0156250, 0.0000000, -0.0078125, -0.0078125, 0.0000000, 0.0078125, 0.0078125, 0.0078125, -0.0156250, 0.0000000, -0.0156250, -0.0078125, 0.0000000, -0.0078125, 0.0000000, 0.0078125, 0.0000000, 0.0000000, -0.0234375, -0.0078125, -0.0078125, -0.0156250, 0.0078125, -0.0234375, -0.0156250, 0.0000000, 0.0000000, 0.0000000, -0.0078125, 0.0000000, 0.0000000, -0.0078125, 0.0000000, 0.0000000, 0.0000000, -0.0078125, -0.0078125, 0.0156250, -0.0078125, -0.0156250, -0.0156250, 0.0078125, -0.0234375, 0.0000000, 0.0078125, 0.0000000, 0.0000000, -0.0234375, 0.0156250, 0.0000000, 0.0078125, 0.0000000, -0.0078125, 0.0078125, 0.0000000, -0.0078125, 0.0000000, 0.0000000, -0.0156250, -0.0078125, -0.0078125, -0.0078125, -0.0156250, -0.0078125, 0.0000000, -0.0078125, -0.0078125, 0.0078125, 0.0000000, -0.0078125, -0.0156250, -0.0078125, 0.0000000, -0.0078125, 0.0000000, -0.0312500, 0.0078125, -0.0156250, 0.0000000, 0.0000000, 0.0078125, -0.0078125, -0.0156250, -0.0078125, 0.0000000, -0.0234375, 0.0000000, 0.0078125, -0.0156250, 0.0156250, -0.0156250, 0.0000000, -0.0156250, -0.0078125, -0.0078125, -0.0078125, -0.0078125, -0.0156250, 0.0000000, -0.0156250, -0.0078125, -0.0234375, 0.0000000, 0.0000000, -0.0156250, -0.0234375, 0.0078125, 0.0000000, 0.0078125, 0.0000000, 0.0000000, -0.0078125, 0.0078125, 0.0000000, -0.0078125, -0.0156250, 0.0078125, 0.0078125, 0.0000000, 0.0000000, -0.0078125, -0.0078125, -0.0156250, 0.0000000, -0.0156250, 0.0078125, -0.0156250, 0.0000000, -0.0156250, -0.0078125, -0.0078125, -0.0078125, 0.0078125, 0.0000000, 0.0000000, -0.0078125, -0.0234375, 0.0078125, 0.0000000, 0.0000000, 0.0000000, -0.0078125, 0.0078125, 0.0078125, -0.0078125, 0.0000000, 0.0000000, 0.0078125, 0.0000000, -0.0156250, 0.0078125, -0.0078125, -0.0078125, 0.0000000, -0.0078125, 0.0000000, -0.0078125, 0.0078125, 0.0000000, 0.0000000, -0.0078125, 0.0078125, 0.0078125, -0.0078125, 0.0078125, -0.0078125, -0.0156250, 0.0000000, -0.0078125, -0.0078125, 0.0000000, 0.0078125, -0.0156250, 0.0078125, 0.0078125, 0.0000000, 0.0000000, -0.0078125, -0.0078125, 0.0156250, 0.0000000, 0.0000000, 0.0078125, 0.0078125, 0.0078125, 0.0000000, 0.0000000, -0.0078125, 0.0000000, 0.0000000, 0.0234375, 0.0078125, 0.0000000, 0.0078125, -0.0078125, 0.0000000, 0.0078125, 0.0000000, -0.0078125, 0.0000000, 0.0078125, 0.0078125, 0.0078125, 0.0000000, 0.0078125, 0.0000000, -0.0156250, 0.0000000, 0.0156250, 0.0000000, -0.0156250, 0.0156250, 0.0078125, -0.0078125, -0.0156250, 0.0000000, 0.0078125, 0.0000000, 0.0078125, 0.0000000, -0.0078125, -0.0078125, 0.0078125, -0.0078125, 0.0078125, 0.0078125, 0.0000000, 0.0000000, 0.0078125, 0.0000000, 0.0000000, 0.0000000, 0.0156250, 0.0000000, 0.0156250, 0.0000000, 0.0078125, 0.0078125, 0.0078125, 0.0000000, 0.0000000, 0.0078125, 0.0000000, -0.0156250, 0.0000000, 0.0156250, -0.0078125, -0.0078125, 0.0078125, -0.0078125, -0.0078125, 0.0078125, -0.0078125, -0.0156250, 0.0000000, -0.0078125, -0.0156250, -0.0078125, 0.0000000, -0.0078125, 0.0000000, -0.0078125, 0.0078125, 0.0078125, 0.0000000, 0.0078125, -0.0156250, 0.0078125, -0.0078125, -0.0078125, 0.0078125, 0.0078125, 0.0156250, 0.0078125, -0.0078125, 0.0078125, 0.0000000, 0.0078125, 0.0000000, -0.0078125, -0.0078125, 0.0078125, 0.0000000, 0.0000000, 0.0000000, 0.0078125, -0.0078125, -0.0078125, 0.0078125, 0.0000000, 0.0000000, 0.0000000, 0.0000000, -0.0156250, 0.0000000, -0.0156250, 0.0078125, 0.0078125, -0.0078125, 0.0156250, 0.0000000, 0.0078125, 0.0078125, -0.0156250, -0.0078125, -0.0078125, 0.0000000, 0.0156250, 0.0078125, 0.0000000, 0.0078125, 0.0000000, -0.0078125, 0.0078125, 0.0000000, 0.0078125, 0.0000000, 0.0000000, 0.0078125, 0.0000000, -0.0078125, -0.0078125, 0.0078125, 0.0000000, 0.0078125, -0.0078125, 0.0000000, 0.0000000, 0.0000000, 0.0000000, 0.0000000, 0.0000000, 0.0000000, -0.0078125, 0.0000000, 0.0078125, -0.0156250, 0.0078125, -0.0156250, 0.0000000, 0.0078125, 0.0000000, 0.0000000, 0.0078125, 0.0000000, -0.0078125, -0.0078125, 0.0000000, -0.0078125, 0.0000000, 0.0000000, 0.0000000, 0.0000000, 0.0078125, -0.0078125, 0.0078125, 0.0000000, 0.0000000, 0.0000000, 0.0000000, 0.0156250, -0.0078125, 0.0078125, 0.0000000, 0.0000000, 0.0078125, 0.0000000, -0.0078125, 0.0078125, 0.0156250, -0.0078125, -0.0156250, 0.0000000, 0.0078125, -0.0078125, -0.0078125, -0.0078125, -0.0078125, -0.0078125, 0.0000000, -0.0078125, -0.0078125, -0.0078125, 0.0078125, -0.0078125, 0.0000000, 0.0078125, -0.0078125, 0.0000000, 0.0000000, 0.0000000, 0.0078125, 0.0000000, 0.0000000, -0.0078125, 0.0000000, 0.0000000, 0.0000000, 0.0078125, 0.0078125, 0.0078125, 0.0000000, -0.0156250, 0.0078125, 0.0000000, -0.0156250, 0.0000000, 0.0000000, -0.0078125, 0.0078125, 0.0000000, -0.0156250, 0.0000000, 0.0000000, -0.0078125, 0.0078125, 0.0000000, 0.0000000, 0.0000000, 0.0000000, 0.0000000, -0.0078125, -0.0234375, -0.0156250, 0.0000000, 0.0078125, 0.0000000, 0.0078125, 0.0000000, -0.0078125, 0.0000000, -0.0078125, 0.0078125, 0.0078125, 0.0000000, 0.0078125, 0.0000000, 0.0000000, 0.0000000, 0.0000000, 0.0000000, -0.0078125, -0.0078125, 0.0078125, 0.0078125, 0.0078125, 0.0156250, 0.0000000, 0.0156250, 0.0000000, 0.0078125, 0.0000000, 0.0078125, 0.0000000, -0.0078125, 0.0000000, 0.0078125, -0.0078125, 0.0000000, -0.0078125, 0.0078125, 0.0000000, 0.0078125, 0.0078125, -0.0078125, 0.0078125, 0.0000000, 0.0078125, 0.0000000, 0.0000000, -0.0078125, 0.0078125, 0.0000000, 0.0000000, -0.0078125, -0.0078125, -0.0078125, -0.0234375, 0.0078125, -0.0078125, 0.0000000, -0.0078125, 0.0000000, 0.0000000, 0.0078125, -0.0156250, 0.0156250, -0.0078125, 0.0078125, 0.0000000, 0.0000000, 0.0000000, 0.0156250, 0.0078125, 0.0078125, 0.0000000, 0.0156250, 0.0000000, 0.0000000, 0.0000000, 0.0156250, 0.0000000, -0.0078125, 0.0000000, 0.0000000, 0.0000000, -0.0078125, -0.0078125, -0.0078125, -0.0078125, -0.0078125, 0.0156250, -0.0078125, -0.0078125, -0.0078125, 0.0078125, 0.0078125, 0.0000000, 0.0000000, -0.0078125, -0.0078125, 0.0078125, -0.0078125, 0.0000000, -0.0078125, -0.0078125, 0.0000000, -0.0312500, 0.0078125, 0.0156250, 0.0000000, -0.0078125, 0.0078125, 0.0000000, 0.0078125, 0.0000000, -0.0078125, -0.0078125, -0.0156250, 0.0078125, 0.0000000, 0.0234375, 0.0078125, 0.0156250, -0.0078125, -0.0078125, 0.0078125, 0.0078125, 0.0000000, -0.0156250, -0.0078125, -0.0078125, 0.0000000, 0.0078125, 0.0000000, 0.0000000, -0.0156250, 0.0156250, 0.0078125, 0.0000000, -0.0312500, -0.0156250, 0.0000000, 0.0000000, -0.0078125, 0.0000000, 0.0000000, 0.0312500, -0.0078125, -0.0078125, -0.0078125, -0.0156250, -0.0078125, -0.0156250, 0.0078125, 0.0156250, 0.0078125, 0.0156250, -0.0078125, 0.0078125, 0.0078125, 0.0156250, -0.0078125, 0.0000000, 0.0000000, 0.0000000, 0.0078125, 0.0000000, 0.0078125, -0.0078125, 0.0000000, 0.0234375, 0.0078125, 0.0156250, 0.0000000, -0.0234375, 0.0234375, 0.0000000, 0.0078125, -0.0078125, 0.0000000, -0.0156250, 0.0000000, 0.0078125, -0.0078125, -0.0078125, 0.0000000, 0.0156250, -0.0078125, 0.0078125, 0.0156250, 0.0156250, -0.0156250, -0.0156250, 0.0078125, 0.0078125, -0.0078125, -0.0078125, 0.0156250, 0.0234375, 0.0156250, 0.0078125, 0.0312500, 0.0000000, 0.0078125, 0.0234375, -0.0078125, -0.0078125, 0.0156250, 0.0078125, -0.0234375, 0.0000000, 0.0078125, 0.0000000, 0.0000000, 0.0000000, -0.0156250, -0.0078125, -0.0156250, 0.0000000, 0.0000000, 0.0156250, -0.0078125, 0.0078125, -0.0078125, -0.0156250, 0.0156250, 0.0078125, 0.0000000, 0.0156250, -0.0156250, 0.0078125, 0.0000000, 0.0078125, 0.0000000, -0.0078125, 0.0000000, 0.0078125, 0.0000000, -0.0078125, -0.0078125, -0.0078125, 0.0000000, -0.0156250, -0.0078125, -0.0078125, -0.0078125, 0.0000000, -0.0078125, -0.0078125, 0.0078125, 0.0156250, -0.0156250, 0.0078125, 0.0000000, 0.0000000, 0.0000000, -0.0156250, -0.0078125, -0.0078125, -0.0078125, 0.0234375, -0.0234375, 0.0000000, -0.0078125, 0.0000000, -0.0078125, -0.0078125, -0.0156250, 0.0000000, -0.0078125, 0.0000000, -0.0078125, -0.0156250, 0.0078125, 0.0234375, -0.0156250, -0.0078125, -0.0234375, 0.0000000, 0.0078125, 0.0000000, 0.0000000, 0.0078125, -0.0078125, 0.0234375, 0.0000000, -0.0156250, 0.0156250, 0.0156250, -0.0078125, -0.0156250, 0.0000000, 0.0078125, -0.0078125, -0.0078125, -0.0078125, 0.0000000, 0.0000000, 0.0078125, 0.0078125, 0.0156250, -0.0078125, 0.0000000, -0.0078125, -0.0156250, -0.0156250, -0.0156250, 0.0078125, -0.0156250, 0.0000000, -0.0078125, 0.0000000, -0.0156250, 0.0000000, 0.0000000, -0.0156250, 0.0078125, 0.0000000, 0.0000000, 0.0234375, -0.0156250, -0.0078125, -0.0078125, 0.0000000, -0.0078125, 0.0000000, 0.0156250, 0.0234375, 0.0078125, 0.0156250, 0.0078125, 0.0000000, 0.0078125, 0.0000000, 0.0000000, 0.0156250, 0.0000000, -0.0078125, 0.0078125, 0.0312500, -0.0156250, -0.0156250, 0.0156250, -0.0234375, -0.0156250, -0.0078125, -0.0078125, -0.0156250, 0.0156250, 0.0078125, 0.0156250, 0.0000000, -0.0234375, 0.0078125, 0.0000000, -0.0078125, 0.0078125, -0.0312500, 0.0000000, 0.0000000, 0.0078125, 0.0000000, -0.0156250, 0.0000000, 0.0156250, -0.0078125, 0.0000000, 0.0078125, 0.0000000, 0.0078125, -0.0156250, -0.0156250, 0.0078125, 0.0078125, -0.0078125, 0.0078125, 0.0078125, 0.0078125, 0.0156250, 0.0000000, -0.0078125, 0.0000000, -0.0078125, 0.0156250, -0.0234375, -0.0078125, -0.0078125, -0.0078125, 0.0156250, -0.0078125, 0.0000000, -0.0156250, -0.0078125, -0.0156250, 0.0000000, 0.0000000, -0.0156250, 0.0078125, 0.0078125, 0.0078125, 0.0000000, 0.0078125, 0.0078125, 0.0078125, 0.0000000, -0.0078125, 0.0000000, 0.0000000, -0.0078125, 0.0078125, 0.0000000, 0.0000000, 0.0078125, -0.0078125, -0.0156250, 0.0078125, 0.0078125, -0.0078125, 0.0000000, 0.0078125, 0.0156250, 0.0000000, -0.0156250, 0.0078125, 0.0078125, -0.0078125, 0.0156250, 0.0078125, 0.0078125, -0.0078125, -0.0078125, 0.0000000, -0.0078125, -0.0156250, 0.0156250, 0.0078125, -0.0156250, -0.0156250, 0.0078125, 0.0156250, 0.0000000, 0.0000000, 0.0078125, -0.0156250, 0.0078125, 0.0078125, 0.0078125, 0.0078125, -0.0156250, 0.0078125, -0.0078125, -0.0078125, -0.0078125, 0.0156250, 0.0078125, 0.0156250, -0.0078125, 0.0156250, -0.0078125, 0.0078125, 0.0156250, 0.0000000, -0.0078125, 0.0156250, 0.0000000, 0.0000000, 0.0000000, 0.0156250, -0.0078125, -0.0078125, 0.0078125, -0.0234375, -0.0312500, -0.0156250, -0.0078125, -0.0078125, 0.0000000, -0.0234375, 0.0078125, -0.0156250, -0.0156250, 0.0078125, 0.0078125, -0.0078125, 0.0078125, -0.0156250, 0.0078125, 0.0078125, 0.0000000, 0.0078125, -0.0078125, 0.0078125, -0.0234375, -0.0078125, 0.0000000, 0.0000000, 0.0078125, 0.0000000, 0.0000000, -0.0078125, -0.0078125, 0.0078125, 0.0156250, -0.0156250, 0.0000000, 0.0156250, -0.0078125, 0.0000000, 0.0156250, -0.0156250, 0.0156250, -0.0156250, 0.0000000, 0.0000000, -0.0078125, -0.0078125, 0.0078125, 0.0078125, 0.0156250, -0.0156250, 0.0156250, 0.0078125, 0.0078125, 0.0000000, -0.0078125, -0.0078125, 0.0000000, -0.0234375, -0.0078125, 0.0156250, 0.0312500, -0.0078125, 0.0078125, -0.0078125, -0.0078125, 0.0000000, 0.0000000, 0.0156250, 0.0000000, 0.0156250, 0.0156250, 0.0078125, 0.0000000, 0.0234375, 0.0156250, 0.0000000, 0.0000000, -0.0078125, 0.0000000, 0.0078125, 0.0000000, -0.0078125, -0.0078125, -0.0078125, 0.0156250, 0.0078125, 0.0156250, 0.0078125, -0.0078125, 0.0000000, -0.0078125, 0.0156250, 0.0000000, 0.0078125, -0.0078125, -0.0156250, 0.0000000, 0.0078125, 0.0000000, 0.0078125, 0.0078125, 0.0000000, 0.0156250, 0.0156250, 0.0078125, 0.0000000, -0.0156250, 0.0078125, 0.0078125, -0.0234375, -0.0078125, 0.0234375, 0.0078125, 0.0078125, 0.0078125, 0.0312500, 0.0078125, 0.0000000, 0.0156250, 0.0078125, 0.0078125, 0.0156250, 0.0000000, 0.0000000, 0.0078125, 0.0000000, -0.0078125, -0.0078125, 0.0156250, 0.0000000, -0.0156250, -0.0078125, 0.0000000, 0.0000000, 0.0156250, 0.0156250, -0.0078125, 0.0000000, -0.0078125, -0.0078125, 0.0234375, -0.0078125, 0.0156250, -0.0156250, 0.0078125, -0.0078125, 0.0078125, 0.0000000, -0.0156250, -0.0078125, 0.0078125, -0.0156250, 0.0078125, 0.0000000, -0.0078125, 0.0078125, -0.0156250, -0.0078125, -0.0078125, 0.0078125, 0.0078125, -0.0078125, -0.0078125, 0.0078125, 0.0156250, -0.0078125, 0.0078125, -0.0078125, 0.0234375, 0.0000000, -0.0078125, 0.0078125, -0.0078125, 0.0156250, 0.0078125, 0.0000000, -0.0156250, 0.0156250, -0.0078125, 0.0078125, 0.0078125, -0.0156250, 0.0000000, -0.0078125, 0.0078125, 0.0000000, 0.0078125, 0.0000000, 0.0078125, 0.0000000, 0.0078125, 0.0000000, 0.0078125, 0.0156250, -0.0078125, 0.0156250, 0.0078125, -0.0078125, 0.0078125, -0.0078125, 0.0078125, 0.0234375, 0.0078125, -0.0078125, -0.0156250, -0.0078125, 0.0078125, 0.0156250, 0.0000000, -0.0078125, 0.0000000, -0.0078125, -0.0078125, 0.0000000, 0.0078125, 0.0000000, 0.0078125, 0.0078125, 0.0156250, -0.0078125, -0.0078125, 0.0156250, -0.0078125, 0.0000000, 0.0000000, 0.0078125, -0.0078125, 0.0078125, 0.0078125, -0.0078125, 0.0078125, 0.0000000, 0.0000000, 0.0156250, -0.0078125, 0.0156250, 0.0078125, 0.0000000, 0.0156250, 0.0078125, 0.0156250, 0.0234375, 0.0000000, 0.0156250, 0.0078125, 0.0156250, -0.0078125, -0.0078125, -0.0078125, 0.0312500, 0.0000000, 0.0000000, 0.0078125, 0.0000000, 0.0000000, 0.0000000, -0.0078125, -0.0156250, -0.0078125, -0.0156250, 0.0156250, 0.0078125, 0.0078125, 0.0156250, 0.0156250, -0.0078125, -0.0234375, 0.0000000, 0.0078125, -0.0156250, 0.0156250, -0.0078125, 0.0078125, 0.0000000, -0.0078125, 0.0078125, -0.0156250, 0.0078125, -0.0078125, -0.0078125, 0.0078125, 0.0000000, 0.0000000, 0.0156250, -0.0156250, 0.0000000, 0.0078125, 0.0000000, 0.0156250, 0.0000000, 0.0078125, 0.0078125, 0.0000000, -0.0078125, 0.0000000, 0.0000000, 0.0000000, -0.0078125, 0.0000000, 0.0000000, 0.0000000, 0.0000000, 0.0156250, 0.0078125, 0.0078125, 0.0000000, 0.0078125, 0.0000000, 0.0000000, 0.0000000, 0.0078125, 0.0156250, -0.0078125, -0.0078125, -0.0078125, 0.0078125, -0.0078125, -0.0078125, 0.0000000, -0.0078125, 0.0078125, 0.0000000, 0.0078125, 0.0000000, 0.0078125, -0.0078125, 0.0234375, 0.0078125, 0.0000000, 0.0156250, 0.0000000, 0.0000000, 0.0156250, 0.0078125, 0.0000000, -0.0078125, -0.0078125, -0.0078125, 0.0000000, 0.0000000, 0.0234375, -0.0078125, 0.0000000, -0.0156250, -0.0234375, 0.0000000, -0.0156250, -0.0078125, 0.0000000, 0.0078125, -0.0078125, 0.0000000, -0.0078125, 0.0000000, -0.0078125, 