//Numpy array shape [3, 3, 128, 256]
//Min -0.195312500000
//Max 0.187500000000
//Number of zeros 23906

#ifndef W29_H_
#define W29_H_

#ifndef __SYNTHESIS__
weight29_t w29[294912];
#else
weight29_t w29[294912] = {0.0156250, 0.0234375, 0.0234375, -0.0234375, 0.0078125, -0.0234375, -0.0156250, -0.0078125, 0.0156250, 0.0000000, 0.0078125, 0.0078125, -0.0234375, 0.0000000, 0.0312500, 0.0312500, -0.0156250, -0.0078125, 0.0156250, 0.0000000, 0.0000000, -0.0078125, 0.0156250, -0.0078125, 0.0156250, 0.0078125, 0.0078125, 0.0078125, 0.0078125, 0.0078125, 0.0234375, 0.0156250, 0.0234375, 0.0078125, 0.0156250, 0.0312500, 0.0156250, 0.0078125, -0.0078125, 0.0000000, -0.0078125, 0.0234375, 0.0234375, 0.0000000, 0.0312500, 0.0312500, 0.0234375, 0.0078125, -0.0078125, 0.0078125, -0.0078125, 0.0000000, 0.0156250, 0.0156250, -0.0312500, 0.0000000, 0.0000000, 0.0156250, 0.0156250, 0.0078125, -0.0156250, 0.0000000, 0.0078125, 0.0078125, -0.0078125, 0.0000000, 0.0000000, 0.0234375, -0.0078125, 0.0156250, 0.0156250, 0.0234375, 0.0156250, 0.0000000, 0.0156250, 0.0156250, -0.0156250, 0.0156250, -0.0078125, -0.0078125, -0.0234375, 0.0000000, -0.0078125, 0.0156250, 0.0078125, 0.0312500, 0.0156250, 0.0078125, 0.0078125, 0.0078125, -0.0078125, 0.0156250, 0.0000000, 0.0078125, 0.0156250, -0.0078125, 0.0390625, 0.0000000, 0.0078125, 0.0234375, -0.0156250, -0.0156250, 0.0312500, 0.0156250, 0.0078125, -0.0156250, 0.0234375, 0.0312500, 0.0000000, 0.0234375, 0.0078125, 0.0546875, -0.0312500, 0.0156250, 0.0000000, 0.0078125, 0.0312500, 0.0156250, 0.0000000, 0.0000000, 0.0078125, 0.0000000, 0.0000000, -0.0156250, -0.0156250, 0.0078125, 0.0156250, 0.0156250, 0.0156250, -0.0234375, -0.0156250, -0.0156250, 0.0000000, 0.0156250, 0.0000000, 0.0312500, -0.0312500, 0.0234375, 0.0156250, 0.0000000, 0.0078125, 0.0234375, -0.0078125, -0.0234375, 0.0078125, -0.0156250, -0.0468750, -0.0078125, 0.0000000, -0.0234375, -0.0234375, 0.0078125, -0.0234375, 0.0234375, -0.0312500, -0.0156250, 0.0078125, -0.0078125, -0.0078125, 0.0078125, -0.0156250, -0.0156250, -0.0234375, -0.0078125, -0.0078125, -0.0390625, 0.0000000, -0.0078125, -0.0390625, 0.0000000, 0.0156250, -0.0078125, -0.0078125, -0.0390625, 0.0078125, 0.0000000, 0.0078125, 0.0078125, 0.0000000, 0.0078125, 0.0078125, -0.0156250, -0.0078125, 0.0078125, -0.0078125, 0.0000000, -0.0078125, 0.0156250, 0.0156250, 0.0000000, -0.0390625, 0.0000000, -0.0156250, 0.0078125, -0.0156250, 0.0078125, 0.0000000, 0.0000000, 0.0000000, -0.0468750, 0.0078125, 0.0000000, 0.0000000, -0.0156250, -0.0312500, -0.0156250, -0.0078125, -0.0078125, -0.0078125, -0.0078125, 0.0156250, 0.0156250, -0.0312500, -0.0234375, 0.0000000, -0.0078125, -0.0078125, 0.0078125, 0.0156250, 0.0078125, 0.0000000, -0.0312500, 0.0156250, -0.0234375, -0.0234375, -0.0078125, 0.0156250, 0.0312500, 0.0000000, -0.0234375, -0.0468750, 0.0156250, -0.0078125, -0.0078125, -0.0156250, 0.0000000, -0.0078125, -0.0234375, -0.0156250, -0.0078125, 0.0156250, 0.0078125, 0.0156250, -0.0156250, 0.0000000, 0.0000000, -0.0078125, -0.0156250, 0.0000000, -0.0078125, 0.0078125, -0.0078125, -0.0234375, -0.0078125, -0.0156250, 0.0000000, 0.0234375, 0.0078125, -0.0156250, 0.0156250, 0.0156250, -0.0078125, 0.0078125, -0.0078125, 0.0000000, 0.0000000, -0.0156250, -0.0078125, 0.0078125, 0.0000000, -0.0390625, -0.0078125, 0.0468750, -0.0156250, -0.0078125, -0.0156250, 0.0000000, 0.0156250, 0.0546875, -0.0234375, 0.0156250, 0.0000000, 0.0000000, 0.0078125, -0.0234375, -0.0234375, 0.0312500, 0.0312500, 0.0000000, 0.0156250, 0.0390625, 0.0078125, 0.0156250, -0.0078125, 0.0000000, -0.0156250, 0.0000000, 0.0078125, 0.0000000, 0.0000000, -0.0234375, -0.0156250, 0.0156250, -0.0078125, 0.0078125, 0.0000000, 0.0078125, 0.0312500, -0.0078125, 0.0000000, -0.0234375, -0.0156250, -0.0078125, 0.0234375, 0.0000000, -0.0078125, 0.0078125, 0.0234375, 0.0078125, -0.0234375, 0.0078125, 0.0234375, 0.0234375, -0.0156250, -0.0078125, 0.0312500, 0.0000000, 0.0312500, 0.0078125, 0.0000000, -0.0078125, -0.0078125, 0.0000000, 0.0234375, 0.0234375, 0.0390625, 0.0234375, 0.0000000, 0.0000000, -0.0078125, 0.0000000, 0.0156250, -0.0156250, 0.0156250, 0.0234375, -0.0078125, -0.0156250, 0.0312500, 0.0078125, -0.0078125, 0.0078125, 0.0156250, 0.0312500, 0.0000000, 0.0078125, 0.0000000, 0.0000000, 0.0312500, 0.0156250, -0.0078125, -0.0156250, -0.0234375, 0.0000000, 0.0156250, -0.0156250, 0.0000000, -0.0078125, 0.0000000, 0.0000000, 0.0234375, -0.0234375, 0.0234375, 0.0156250, 0.0156250, 0.0000000, -0.0234375, -0.0078125, 0.0078125, -0.0156250, -0.0078125, -0.0312500, -0.0234375, -0.0234375, 0.0234375, 0.0468750, -0.0156250, 0.0000000, 0.0000000, 0.0000000, -0.0156250, -0.0156250, 0.0156250, -0.0234375, 0.0078125, -0.0234375, 0.0078125, -0.0156250, 0.0312500, 0.0156250, 0.0312500, -0.0156250, -0.0156250, 0.0234375, 0.0000000, 0.0156250, -0.0078125, 0.0078125, 0.0000000, -0.0078125, 0.0000000, -0.0078125, 0.0000000, 0.0000000, 0.0078125, 0.0000000, 0.0000000, -0.0234375, 0.0156250, 0.0156250, 0.0234375, 0.0156250, -0.0156250, -0.0234375, -0.0390625, 0.0078125, -0.0078125, 0.0156250, 0.0078125, 0.0078125, -0.0078125, 0.0000000, 0.0234375, 0.0000000, 0.0078125, 0.0078125, 0.0000000, 0.0078125, -0.0234375, -0.0234375, -0.0078125, -0.0078125, 0.0000000, 0.0078125, 0.0000000, -0.0156250, -0.0156250, -0.0156250, -0.0078125, -0.0078125, 0.0234375, 0.0000000, 0.0312500, 0.0234375, -0.0078125, -0.0156250, -0.0234375, 0.0468750, 0.0000000, 0.0078125, 0.0000000, 0.0000000, 0.0078125, 0.0000000, -0.0390625, 0.0078125, 0.0000000, 0.0000000, 0.0234375, 0.0000000, 0.0312500, 0.0312500, 0.0000000, 0.0078125, -0.0234375, 0.0234375, 0.0000000, -0.0078125, 0.0312500, 0.0078125, -0.0234375, 0.0468750, 0.0156250, 0.0000000, 0.0000000, -0.0078125, 0.0000000, 0.0468750, -0.0078125, 0.0156250, 0.0234375, 0.0000000, -0.0078125, 0.0234375, 0.0234375, 0.0156250, 0.0156250, -0.0156250, 0.0156250, 0.0234375, 0.0234375, 0.0078125, 0.0312500, 0.0000000, 0.0000000, -0.0078125, 0.0000000, -0.0234375, 0.0234375, -0.0156250, -0.0078125, -0.0156250, 0.0078125, 0.0156250, 0.0078125, -0.0390625, 0.0000000, 0.0156250, 0.0234375, 0.0000000, 0.0234375, 0.0078125, 0.0078125, 0.0000000, -0.0078125, 0.0078125, 0.0234375, 0.0078125, 0.0234375, -0.0312500, 0.0156250, 0.0000000, -0.0078125, 0.0156250, 0.0156250, -0.0234375, 0.0000000, -0.0234375, 0.0078125, -0.0156250, -0.0078125, -0.0156250, -0.0234375, -0.0156250, 0.0078125, 0.0078125, -0.0234375, -0.0156250, -0.0156250, 0.0078125, -0.0312500, -0.0156250, -0.0156250, 0.0000000, 0.0000000, -0.0156250, -0.0156250, -0.0078125, -0.0078125, 0.0000000, 0.0078125, 0.0156250, 0.0078125, -0.0156250, 0.0000000, 0.0078125, 0.0078125, -0.0078125, 0.0078125, 0.0078125, 0.0000000, -0.0234375, -0.0078125, -0.0078125, 0.0078125, -0.0078125, -0.0078125, -0.0078125, -0.0078125, 0.0234375, -0.0234375, 0.0078125, -0.0156250, 0.0156250, -0.0078125, 0.0156250, 0.0078125, -0.0078125, -0.0234375, -0.0234375, -0.0156250, -0.0234375, -0.0234375, 0.0000000, 0.0000000, 0.0156250, 0.0156250, -0.0156250, -0.0156250, -0.0078125, -0.0390625, -0.0078125, -0.0156250, 0.0156250, 0.0078125, 0.0078125, -0.0234375, 0.0000000, 0.0000000, -0.0312500, -0.0078125, -0.0156250, 0.0312500, 0.0234375, 0.0000000, -0.0156250, 0.0156250, 0.0000000, -0.0234375, -0.0234375, 0.0156250, -0.0078125, -0.0078125, -0.0390625, -0.0156250, 0.0078125, 0.0234375, -0.0390625, -0.0078125, 0.0000000, 0.0078125, 0.0000000, 0.0156250, 0.0000000, 0.0156250, 0.0000000, -0.0156250, -0.0156250, 0.0000000, -0.0156250, 0.0156250, -0.0078125, 0.0078125, -0.0078125, -0.0078125, 0.0000000, -0.0234375, 0.0078125, 0.0156250, 0.0156250, -0.0156250, -0.0156250, 0.0078125, 0.0078125, 0.0156250, -0.0078125, 0.0234375, 0.0312500, 0.0000000, -0.0078125, 0.0078125, 0.0156250, 0.0078125, 0.0234375, 0.0234375, 0.0468750, 0.0000000, 0.0156250, 0.0078125, 0.0156250, 0.0312500, -0.0078125, -0.0234375, 0.0156250, 0.0312500, -0.0156250, -0.0156250, 0.0078125, -0.0078125, -0.0312500, -0.0078125, 0.0000000, -0.0078125, -0.0078125, -0.0078125, -0.0234375, -0.0156250, 0.0312500, 0.0078125, 0.0234375, 0.0156250, -0.0156250, -0.0156250, 0.0078125, -0.0312500, 0.0078125, -0.0390625, 0.0234375, 0.0156250, -0.0234375, -0.0078125, -0.0156250, 0.0078125, 0.0078125, -0.0234375, 0.0078125, -0.0078125, 0.0156250, 0.0234375, -0.0078125, -0.0078125, -0.0078125, 0.0156250, 0.0000000, -0.0078125, 0.0156250, -0.0078125, -0.0078125, 0.0156250, 0.0390625, 0.0390625, 0.0234375, 0.0000000, 0.0078125, 0.0000000, -0.0078125, 0.0390625, -0.0234375, 0.0468750, 0.0156250, 0.0078125, -0.0078125, 0.0078125, 0.0078125, 0.0156250, -0.0078125, -0.0078125, 0.0078125, -0.0078125, 0.0234375, -0.0078125, -0.0156250, 0.0156250, 0.0000000, 0.0000000, -0.0234375, -0.0156250, -0.0078125, 0.0078125, -0.0156250, 0.0000000, -0.0156250, 0.0156250, 0.0000000, 0.0312500, 0.0234375, 0.0156250, -0.0234375, 0.0156250, 0.0000000, -0.0078125, -0.0156250, 0.0000000, -0.0078125, 0.0078125, -0.0156250, -0.0156250, -0.0156250, 0.0156250, -0.0234375, 0.0000000, 0.0156250, 0.0156250, 0.0000000, -0.0078125, 0.0000000, -0.0078125, -0.0078125, 0.0156250, 0.0312500, 0.0000000, 0.0000000, 0.0000000, -0.0156250, -0.0156250, -0.0078125, 0.0078125, 0.0234375, 0.0312500, -0.0156250, -0.0078125, -0.0078125, 0.0078125, -0.0078125, 0.0078125, 0.0000000, 0.0078125, 0.0078125, 0.0156250, 0.0156250, 0.0156250, 0.0000000, 0.0156250, 0.0000000, 0.0000000, 0.0078125, 0.0000000, -0.0234375, -0.0078125, 0.0078125, 0.0156250, 0.0078125, -0.0156250, 0.0156250, -0.0078125, 0.0312500, -0.0078125, 0.0000000, -0.0234375, -0.0078125, 0.0000000, 0.0234375, 0.0156250, -0.0078125, -0.0078125, 0.0000000, 0.0000000, -0.0234375, -0.0078125, -0.0078125, 0.0156250, 0.0312500, 0.0000000, 0.0078125, 0.0156250, -0.0156250, 0.0000000, 0.0078125, 0.0078125, 0.0078125, 0.0000000, -0.0156250, -0.0078125, 0.0000000, 0.0234375, 0.0078125, 0.0156250, 0.0000000, -0.0078125, -0.0078125, 0.0390625, -0.0156250, -0.0156250, -0.0078125, -0.0156250, -0.0078125, 0.0000000, 0.0312500, 0.0234375, -0.0078125, 0.0156250, 0.0078125, 0.0078125, -0.0156250, -0.0234375, 0.0234375, -0.0234375, 0.0156250, -0.0078125, 0.0156250, 0.0156250, 0.0312500, 0.0156250, 0.0000000, 0.0000000, 0.0078125, 0.0312500, -0.0078125, 0.0156250, 0.0000000, 0.0078125, 0.0078125, -0.0078125, 0.0000000, -0.0078125, -0.0078125, 0.0078125, 0.0000000, 0.0078125, 0.0000000, 0.0078125, -0.0234375, 0.0312500, 0.0156250, 0.0156250, 0.0000000, 0.0312500, 0.0000000, 0.0078125, -0.0156250, 0.0000000, 0.0078125, -0.0078125, -0.0156250, 0.0234375, 0.0312500, 0.0156250, -0.0078125, -0.0078125, -0.0078125, 0.0078125, -0.0156250, -0.0390625, -0.0234375, 0.0078125, -0.0078125, 0.0000000, -0.0234375, 0.0000000, -0.0390625, 0.0000000, 0.0078125, 0.0390625, 0.0156250, 0.0000000, -0.0234375, -0.0156250, -0.0312500, 0.0156250, 0.0000000, -0.0156250, 0.0000000, -0.0312500, -0.0234375, -0.0078125, -0.0078125, 0.0000000, 0.0234375, 0.0078125, 0.0156250, 0.0156250, -0.0234375, -0.0078125, 0.0078125, 0.0078125, 0.0078125, 0.0078125, 0.0000000, 0.0000000, 0.0156250, 0.0000000, -0.0156250, -0.0078125, 0.0078125, 0.0156250, -0.0156250, 0.0078125, 0.0078125, 0.0078125, -0.0390625, -0.0156250, -0.0078125, 0.0078125, -0.0234375, -0.0312500, -0.0156250, 0.0156250, 0.0078125, -0.0234375, 0.0234375, 0.0000000, 0.0156250, -0.0156250, -0.0078125, 0.0000000, 0.0078125, -0.0156250, -0.0312500, 0.0312500, 0.0156250, -0.0312500, 0.0078125, -0.0234375, 0.0000000, -0.0390625, 0.0078125, -0.0312500, 0.0000000, 0.0078125, 0.0156250, 0.0078125, 0.0078125, -0.0312500, -0.0156250, -0.0078125, -0.0078125, 0.0156250, 0.0078125, -0.0078125, 0.0000000, 0.0156250, 0.0078125, -0.0078125, 0.0000000, 0.0000000, 0.0078125, -0.0078125, 0.0000000, 0.0000000, 0.0078125, 0.0000000, -0.0078125, 0.0078125, -0.0156250, -0.0156250, -0.0078125, 0.0312500, -0.0156250, 0.0078125, 0.0000000, 0.0078125, 0.0234375, 0.0078125, -0.0078125, 0.0078125, 0.0078125, -0.0156250, -0.0234375, -0.0156250, 0.0000000, -0.0312500, -0.0156250, 0.0000000, 0.0078125, -0.0234375, 0.0390625, 0.0078125, 0.0234375, 0.0078125, -0.0234375, -0.0078125, -0.0156250, -0.0078125, 0.0156250, 0.0000000, 0.0078125, -0.0234375, 0.0000000, -0.0234375, 0.0156250, -0.0156250, 0.0156250, 0.0000000, -0.0078125, 0.0000000, 0.0078125, 0.0156250, 0.0156250, -0.0078125, 0.0000000, 0.0000000, -0.0078125, -0.0234375, -0.0078125, 0.0078125, -0.0312500, 0.0156250, 0.0078125, 0.0000000, 0.0000000, -0.0078125, 0.0156250, -0.0078125, 0.0078125, -0.0234375, 0.0078125, 0.0234375, 0.0000000, -0.0234375, -0.0234375, 0.0000000, -0.0078125, -0.0078125, -0.0078125, 0.0000000, -0.0312500, -0.0156250, 0.0000000, -0.0078125, 0.0078125, 0.0078125, 0.0156250, 0.0234375, -0.0156250, -0.0156250, 0.0000000, -0.0234375, -0.0078125, 0.0234375, 0.0234375, 0.0156250, -0.0078125, 0.0156250, -0.0156250, 0.0234375, 0.0078125, 0.0156250, -0.0078125, -0.0156250, 0.0000000, 0.0000000, 0.0156250, 0.0156250, 0.0078125, 0.0078125, 0.0078125, 0.0156250, -0.0078125, 0.0156250, -0.0078125, 0.0000000, 0.0078125, -0.0156250, -0.0156250, -0.0468750, 0.0000000, 0.0234375, -0.0078125, -0.0078125, 0.0078125, -0.0156250, 0.0000000, -0.0078125, -0.0078125, 0.0312500, 0.0234375, -0.0156250, -0.0156250, 0.0234375, 0.0156250, 0.0078125, -0.0078125, -0.0078125, -0.0234375, 0.0156250, -0.0078125, 0.0000000, -0.0234375, 0.0156250, -0.0078125, 0.0000000, -0.0156250, 0.0078125, -0.0156250, 0.0000000, -0.0156250, 0.0078125, 0.0078125, -0.0078125, 0.0078125, -0.0078125, 0.0078125, -0.0078125, -0.0078125, 0.0000000, -0.0078125, 0.0078125, 0.0000000, -0.0078125, 0.0000000, -0.0078125, 0.0000000, 0.0078125, 0.0078125, -0.0078125, 0.0000000, 0.0000000, -0.0078125, -0.0234375, -0.0078125, 0.0000000, 0.0000000, -0.0156250, -0.0078125, 0.0000000, 0.0078125, 0.0000000, 0.0078125, 0.0000000, 0.0000000, -0.0078125, -0.0078125, 0.0000000, 0.0078125, 0.0078125, -0.0078125, 0.0000000, -0.0078125, 0.0000000, -0.0156250, 0.0000000, 0.0078125, 0.0000000, 0.0000000, -0.0078125, 0.0000000, -0.0078125, 0.0000000, -0.0078125, 0.0000000, -0.0078125, 0.0156250, 0.0000000, 0.0000000, 0.0078125, 0.0000000, 0.0000000, 0.0078125, 0.0078125, -0.0156250, 0.0000000, 0.0078125, 0.0000000, 0.0000000, 0.0000000, -0.0078125, -0.0078125, -0.0156250, 0.0078125, 0.0000000, 0.0000000, 0.0156250, 0.0078125, -0.0078125, 0.0078125, 0.0000000, -0.0078125, -0.0156250, -0.0078125, 0.0000000, 0.0078125, 0.0000000, 0.0000000, -0.0078125, 0.0000000, 0.0000000, 0.0000000, 0.0000000, -0.0078125, 0.0000000, 0.0000000, -0.0078125, -0.0078125, 0.0000000, -0.0078125, -0.0078125, -0.0078125, -0.0078125, 0.0000000, 0.0078125, -0.0156250, -0.0078125, 0.0078125, 0.0000000, -0.0156250, -0.0078125, -0.0078125, -0.0078125, 0.0000000, -0.0078125, 0.0078125, 0.0078125, 0.0000000, 0.0078125, -0.0156250, -0.0078125, 0.0078125, 0.0000000, -0.0078125, -0.0156250, -0.0078125, -0.0078125, 0.0078125, -0.0078125, 0.0000000, 0.0000000, -0.0078125, -0.0078125, 0.0000000, 0.0000000, -0.0078125, -0.0156250, 0.0156250, -0.0078125, -0.0078125, 0.0156250, 0.0000000, 0.0000000, 0.0078125, 0.0000000, 0.0000000, 0.0078125, 0.0000000, 0.0078125, -0.0156250, 0.0000000, -0.0156250, 0.0000000, 0.0078125, 0.0000000, 0.0000000, -0.0078125, 0.0000000, 0.0000000, 0.0000000, 0.0000000, 0.0000000, 0.0000000, 0.0078125, -0.0078125, 0.0000000, 0.0000000, 0.0078125, -0.0078125, -0.0078125, 0.0078125, 0.0000000, 0.0000000, 0.0000000, 0.0078125, 0.0000000, 0.0000000, 0.0000000, 0.0078125, 0.0000000, 0.0000000, 0.0078125, 0.0000000, -0.0078125, 0.0000000, 0.0000000, 0.0000000, -0.0078125, -0.0078125, 0.0078125, 0.0000000, 0.0156250, 0.0000000, 0.0000000, 0.0078125, -0.0078125, 0.0000000, -0.0078125, 0.0000000, 0.0156250, -0.0078125, 0.0000000, 0.0000000, 0.0000000, -0.0078125, 0.0000000, -0.0078125, 0.0078125, 0.0000000, 0.0000000, 0.0000000, -0.0078125, 0.0078125, -0.0156250, 0.0156250, 0.0156250, 0.0000000, -0.0156250, 0.0078125, 0.0078125, 0.0078125, -0.0078125, 0.0000000, 0.0078125, -0.0078125, 0.0000000, 0.0000000, 0.0000000, -0.0156250, -0.0078125, -0.0156250, -0.0078125, 0.0000000, 0.0000000, -0.0156250, 0.0000000, 0.0078125, 0.0000000, -0.0078125, -0.0078125, 0.0000000, 0.0000000, 0.0078125, 0.0000000, 0.0234375, 0.0078125, 0.0000000, -0.0078125, -0.0078125, -0.0078125, 0.0078125, 0.0000000, -0.0078125, 0.0000000, -0.0156250, 0.0078125, 0.0078125, 0.0156250, 0.0078125, 0.0000000, 0.0078125, -0.0156250, 0.0000000, 0.0000000, 0.0078125, 0.0156250, 0.0000000, 0.0078125, 0.0000000, -0.0078125, 0.0000000, 0.0078125, -0.0078125, 0.0000000, 0.0156250, 0.0000000, 0.0078125, -0.0078125, -0.0078125, 0.0078125, 0.0078125, 0.0078125, -0.0078125, 0.0000000, 0.0000000, 0.0000000, 0.0078125, -0.0078125, 0.0078125, 0.0000000, 0.0078125, 0.0156250, -0.0078125, 0.0234375, 0.0000000, 0.0078125, 0.0000000, 0.0000000, 0.0078125, 0.0000000, 0.0078125, 0.0078125, 0.0078125, 0.0000000, 0.0000000, 0.0078125, -0.0078125, 0.0078125, -0.0078125, 0.0078125, 0.0000000, 0.0078125, -0.0078125, 0.0000000, 0.0078125, 0.0078125, 0.0000000, 0.0078125, 0.0078125, 0.0156250, -0.0078125, -0.0078125, 0.0078125, 0.0078125, 0.0000000, 0.0000000, 0.0078125, 0.0000000, 0.0078125, 0.0078125, 0.0000000, 0.0078125, 0.0000000, 0.0000000, -0.0078125, 0.0000000, 0.0000000, -0.0156250, -0.0078125, -0.0234375, 0.0078125, -0.0078125, 0.0078125, 0.0156250, -0.0078125, 0.0000000, 0.0000000, 0.0078125, 0.0000000, -0.0078125, 0.0156250, 0.0000000, -0.0078125, -0.0078125, 0.0078125, 0.0000000, 0.0000000, -0.0078125, -0.0078125, 0.0000000, 0.0078125, 0.0078125, -0.0078125, 0.0000000, 0.0078125, 0.0000000, 0.0078125, -0.0078125, -0.0078125, 0.0078125, 0.0078125, -0.0078125, 0.0078125, 0.0156250, 0.0000000, -0.0078125, 0.0000000, 0.0078125, 0.0000000, -0.0078125, 0.0000000, -0.0078125, -0.0078125, 0.0156250, -0.0078125, 0.0078125, 0.0078125, 0.0000000, -0.0078125, 0.0078125, 0.0078125, -0.0078125, -0.0156250, 0.0078125, -0.0078125, -0.0156250, 0.0000000, -0.0078125, 0.0000000, -0.0156250, 0.0000000, 0.0000000, 0.0156250, -0.0078125, 0.0000000, -0.0078125, 0.0078125, -0.0156250, 0.0000000, 0.0078125, -0.0078125, -0.0078125, -0.0078125, 0.0000000, -0.0078125, -0.0078125, 0.0078125, -0.0078125, -0.0078125, -0.0078125, -0.0078125, 0.0000000, 0.0000000, 0.0078125, 0.0000000, 0.0156250, -0.0078125, -0.0078125, -0.0078125, -0.0078125, 0.0000000, -0.0078125, 0.0000000, -0.0078125, 0.0000000, 0.0078125, -0.0078125, 0.0000000, 0.0000000, -0.0078125, 0.0000000, -0.0078125, -0.0078125, 0.0156250, 0.0000000, 0.0078125, 0.0000000, 0.0000000, -0.0078125, -0.0078125, -0.0078125, 0.0000000, -0.0078125, 0.0000000, -0.0078125, 0.0000000, -0.0078125, 0.0078125, 0.0156250, 0.0078125, 0.0000000, -0.0078125, -0.0078125, 0.0078125, 0.0000000, -0.0156250, 0.0000000, -0.0156250, -0.0078125, 0.0000000, 0.0000000, 0.0000000, -0.0078125, 0.0000000, -0.0078125, -0.0078125, 0.0078125, 0.0000000, -0.0156250, -0.0078125, -0.0078125, -0.0156250, -0.0078125, -0.0078125, 0.0000000, -0.0234375, 0.0000000, 0.0078125, 0.0156250, 0.0078125, -0.0078125, 0.0078125, -0.0078125, -0.0078125, -0.0078125, -0.0156250, -0.0078125, -0.0078125, 0.0000000, 0.0156250, 0.0078125, 0.0000000, 0.0078125, -0.0156250, -0.0078125, -0.0078125, 0.0000000, 0.0000000, -0.0156250, -0.0156250, 0.0000000, -0.0078125, 0.0000000, 0.0078125, 0.0078125, 0.0000000, 0.0000000, -0.0078125, -0.0078125, 0.0000000, 0.0078125, 0.0000000, 0.0000000, -0.0078125, 0.0000000, -0.0078125, -0.0078125, 0.0000000, 0.0000000, 0.0000000, 0.0000000, -0.0078125, -0.0078125, -0.0078125, 0.0000000, -0.0078125, 0.0000000, 0.0078125, 0.0078125, -0.0078125, -0.0078125, 0.0078125, 0.0078125, 0.0078125, 0.0078125, -0.0156250, 0.0078125, 0.0078125, -0.0078125, -0.0156250, -0.0078125, 0.0078125, 0.0078125, 0.0000000, 0.0078125, 0.0078125, 0.0078125, -0.0078125, 0.0156250, 0.0000000, 0.0000000, 0.0000000, 0.0156250, 0.0000000, 0.0000000, 0.0000000, 0.0000000, 0.0000000, -0.0078125, -0.0078125, 0.0156250, 0.0078125, -0.0078125, 0.0078125, 0.0078125, 0.0000000, 0.0000000, -0.0078125, 0.0000000, 0.0000000, 0.0000000, -0.0078125, -0.0078125, 0.0156250, -0.0234375, 0.0078125, 0.0078125, 0.0078125, -0.0078125, 0.0000000, -0.0234375, 0.0078125, 0.0078125, 0.0000000, 0.0000000, 0.0000000, 0.0078125, -0.0078125, 0.0000000, 0.0078125, 0.0000000, -0.0156250, -0.0078125, -0.0078125, 0.0000000, -0.0078125, 0.0000000, 0.0000000, 0.0000000, -0.0078125, 0.0078125, 0.0000000, -0.0156250, -0.0078125, -0.0078125, 0.0000000, 0.0078125, 0.0078125, -0.0156250, 0.0078125, 0.0078125, -0.0078125, -0.0078125, -0.0156250, 0.0000000, 0.0000000, 0.0078125, 0.0078125, 0.0078125, 0.0078125, 0.0000000, -0.0156250, 0.0078125, 0.0078125, 0.0000000, -0.0078125, 0.0000000, -0.0078125, -0.0078125, 0.0078125, 0.0078125, 0.0000000, 0.0000000, -0.0078125, 0.0000000, 0.0000000, 0.0078125, -0.0078125, 0.0000000, 0.0000000, 0.0000000, 0.0000000, 0.0000000, 0.0000000, 0.0078125, -0.0078125, 0.0000000, 0.0000000, 0.0000000, 0.0000000, 0.0000000, -0.0078125, 0.0000000, 0.0000000, 0.0000000, 0.0078125, -0.0078125, 0.0000000, -0.0078125, 0.0078125, 0.0000000, -0.0078125, 0.0000000, -0.0078125, 0.0078125, 0.0078125, 0.0000000, 0.0000000, 0.0000000, 0.0000000, 0.0000000, 0.0234375, 0.0078125, -0.0078125, -0.0078125, 0.0078125, 0.0078125, 0.0078125, 0.0000000, 0.0000000, 0.0078125, 0.0078125, 0.0156250, 0.0000000, 0.0078125, 0.0000000, -0.0078125, -0.0156250, 0.0078125, 0.0078125, -0.0078125, 0.0156250, -0.0078125, 0.0078125, -0.0078125, 0.0000000, 0.0078125, 0.0000000, -0.0078125, 0.0000000, 0.0078125, 0.0156250, 0.0000000, 0.0078125, 0.0078125, 0.0000000, 0.0000000, -0.0078125, 0.0000000, 0.0000000, 0.0078125, -0.0078125, 0.0078125, -0.0078125, 0.0156250, 0.0078125, 0.0078125, 0.0078125, -0.0078125, -0.0078125, -0.0078125, -0.0078125, 0.0078125, 0.0000000, 0.0000000, 0.0000000, -0.0078125, -0.0078125, -0.0078125, 0.0078125, 0.0078125, 0.0078125, -0.0078125, 0.0078125, 0.0078125, 0.0000000, 0.0000000, 0.0078125, 0.0000000, -0.0078125, 0.0000000, 0.0000000, 0.0000000, -0.0078125, 0.0156250, 0.0078125, 0.0000000, 0.0156250, 0.0000000, 0.0078125, 0.0000000, 0.0000000, -0.0078125, 0.0000000, -0.0078125, 0.0000000, -0.0156250, 0.0000000, 0.0078125, 0.0078125, 0.0078125, -0.0078125, -0.0078125, -0.0078125, 0.0000000, -0.0078125, -0.0078125, 0.0078125, 0.0000000, 0.0078125, 0.0000000, 0.0000000, -0.0078125, 0.0000000, -0.0078125, 0.0000000, 0.0000000, -0.0078125, 0.0000000, -0.0078125, -0.0078125, -0.0078125, 0.0000000, 0.0000000, -0.0078125, 0.0078125, 0.0000000, -0.0078125, 0.0078125, 0.0000000, 0.0078125, -0.0078125, -0.0078125, 0.0000000, 0.0000000, 0.0000000, 0.0000000, 0.0000000, 0.0000000, 0.0078125, 0.0078125, 0.0000000, -0.0078125, -0.0078125, 0.0078125, -0.0078125, -0.0078125, 0.0000000, 0.0000000, 0.0000000, -0.0078125, 0.0000000, -0.0078125, 0.0000000, -0.0078125, -0.0078125, 0.0000000, 0.0000000, -0.0078125, 0.0078125, 0.0000000, 0.0078125, 0.0078125, 0.0078125, 0.0000000, 0.0000000, 0.0000000, 0.0000000, -0.0078125, 0.0078125, -0.0078125, 0.0078125, 0.0000000, 0.0078125, 0.0156250, 0.0078125, 0.0000000, 0.0000000, 0.0000000, -0.0078125, -0.0078125, 0.0078125, 0.0000000, 0.0156250, 0.0000000, 0.0000000, -0.0078125, 0.0000000, -0.0078125, 0.0000000, 0.0156250, -0.0078125, 0.0000000, -0.0078125, -0.0078125, -0.0078125, -0.0156250, 0.0000000, 0.0000000, 0.0000000, -0.0156250, 0.0078125, 0.0000000, -0.0156250, -0.0078125, -0.0078125, 0.0078125, 0.0000000, 0.0000000, -0.0078125, 0.0000000, 0.0000000, 0.0000000, 0.0078125, 0.0078125, 0.0000000, 0.0078125, 0.0000000, -0.0156250, 0.0078125, 0.0000000, -0.0078125, 0.0078125, -0.0156250, -0.0078125, 0.0000000, -0.0078125, 0.0156250, 0.0156250, 0.0078125, 0.0078125, -0.0078125, 0.0078125, 0.0000000, -0.0078125, 0.0078125, 0.0078125, 0.0078125, 0.0078125, 0.0000000, -0.0156250, 0.0000000, 0.0000000, 0.0078125, 0.0078125, 0.0000000, 0.0000000, -0.0078125, -0.0078125, -0.0078125, 0.0000000, 0.0000000, 0.0000000, 0.0000000, 0.0000000, -0.0078125, 0.0078125, 0.0000000, 0.0234375, 0.0000000, -0.0078125, 0.0000000, 0.0000000, 0.0078125, -0.0078125, 0.0078125, 0.0000000, 0.0078125, 0.0078125, 0.0078125, -0.0156250, -0.0078125, 0.0078125, 0.0000000, -0.0078125, -0.0078125, 0.0078125, 0.0234375, -0.0078125, 0.0000000, 0.0000000, -0.0078125, 0.0000000, 0.0000000, 0.0000000, 0.0078125, -0.0078125, 0.0156250, 0.0000000, 0.0078125, -0.0078125, 0.0078125, 0.0000000, 0.0078125, -0.0078125, -0.0078125, 0.0000000, 0.0078125, 0.0000000, 0.0000000, 0.0000000, 0.0078125, 0.0000000, -0.0156250, -0.0078125, 0.0078125, 0.0000000, -0.0078125, 0.0000000, 0.0000000, 0.0078125, 0.0078125, 0.0078125, 0.0000000, -0.0078125, -0.0078125, -0.0078125, -0.0156250, 0.0078125, 0.0000000, -0.0156250, -0.0156250, -0.0078125, 0.0078125, 0.0078125, -0.0078125, -0.0156250, -0.0078125, 0.0000000, 0.0000000, 0.0000000, 0.0078125, 0.0000000, 0.0000000, 0.0078125, -0.0078125, -0.0078125, 0.0000000, -0.0078125, -0.0078125, -0.0078125, 0.0156250, 0.0234375, 0.0000000, 0.0078125, -0.0078125, 0.0078125, 0.0000000, 0.0000000, 0.0000000, 0.0000000, 0.0078125, -0.0078125, 0.0078125, 0.0000000, 0.0000000, 0.0078125, 0.0000000, 0.0000000, 0.0000000, 0.0078125, 0.0000000, -0.0078125, 0.0078125, 0.0156250, 0.0078125, -0.0078125, 0.0000000, 0.0078125, -0.0078125, 0.0000000, 0.0078125, 0.0000000, 0.0000000, -0.0156250, -0.0156250, -0.0156250, -0.0078125, 0.0000000, 0.0078125, -0.0078125, 0.0000000, 0.0000000, 0.0000000, 0.0000000, -0.0078125, 0.0000000, 0.0000000, 0.0000000, 0.0000000, -0.0078125, 0.0234375, 0.0000000, 0.0000000, 0.0000000, 0.0156250, 0.0000000, 0.0078125, 0.0000000, 0.0078125, 0.0078125, -0.0078125, 0.0078125, -0.0078125, 0.0156250, 0.0000000, -0.0078125, -0.0078125, 0.0078125, 0.0000000, 0.0000000, -0.0078125, 0.0078125, 0.0078125, 0.0000000, 0.0078125, 0.0078125, -0.0078125, 0.0000000, 0.0078125, 0.0078125, 0.0000000, -0.0078125, 0.0000000, 0.0000000, 0.0000000, -0.0078125, 0.0078125, 0.0078125, 0.0000000, 0.0000000, 0.0000000, 0.0000000, 0.0156250, -0.0078125, 0.0000000, -0.0078125, 0.0078125, 0.0000000, 0.0078125, 0.0000000, 0.0000000, 0.0000000, 0.0000000, 0.0000000, -0.0078125, 0.0000000, 0.0000000, -0.0078125, 0.0000000, 0.0078125, 0.0000000, -0.0078125, -0.0078125, -0.0078125, 0.0000000, -0.0078125, 0.0078125, 0.0078125, 0.0000000, 0.0000000, -0.0078125, -0.0078125, -0.0078125, 0.0000000, 0.0000000, -0.0078125, 0.0000000, 0.0000000, 0.0234375, 0.0078125, 0.0000000, 0.0078125, 0.0000000, 0.0000000, 0.0000000, 0.0078125, -0.0078125, -0.0078125, -0.0078125, 0.0078125, 0.0000000, 0.0000000, 0.0156250, 0.0156250, -0.0156250, 0.0000000, -0.0312500, 0.0234375, 0.0000000, -0.0078125, -0.0156250, 0.0000000, -0.0156250, -0.0078125, 0.0156250, 0.0000000, 0.0156250, 0.0000000, 0.0078125, 0.0000000, 0.0078125, 0.0078125, 0.0000000, 0.0156250, 0.0000000, 0.0156250, -0.0078125, 0.0078125, 0.0078125, 0.0078125, 0.0000000, 0.0000000, 0.0000000, -0.0156250, 0.0078125, -0.0156250, 0.0156250, 0.0000000, 0.0078125, -0.0390625, 0.0078125, 0.0000000, -0.0078125, 0.0078125, -0.0156250, 0.0000000, 0.0156250, 0.0078125, -0.0156250, -0.0078125, 0.0000000, 0.0078125, 0.0000000, 0.0156250, 0.0000000, -0.0156250, 0.0078125, 0.0078125, 0.0078125, -0.0078125, 0.0078125, -0.0156250, 0.0156250, -0.0078125, 0.0078125, 0.0000000, -0.0078125, 0.0078125, 0.0156250, 0.0156250, 0.0078125, 0.0156250, 0.0000000, 0.0000000, 0.0000000, 0.0000000, 0.0000000, -0.0078125, 0.0078125, -0.0078125, 0.0234375, -0.0078125, 0.0078125, 0.0156250, 0.0000000, 0.0156250, 0.0000000, 0.0000000, 0.0000000, -0.0312500, 0.0000000, 0.0234375, -0.0156250, 0.0000000, -0.0156250, -0.0156250, 0.0078125, 0.0234375, -0.0078125, 0.0000000, 0.0000000, -0.0156250, 0.0078125, -0.0156250, -0.0078125, 0.0000000, 0.0078125, -0.0078125, -0.0156250, 0.0078125, 0.0312500, 0.0000000, -0.0156250, -0.0078125, 0.0000000, 0.0078125, 0.0078125, 0.0078125, 0.0156250, 0.0078125, 0.0156250, 0.0078125, 0.0078125, 0.0000000, -0.0078125, 0.0156250, -0.0156250, 0.0000000, 0.0000000, -0.0234375, 0.0156250, 0.0312500, 0.0312500, 0.0000000, -0.0078125, -0.0156250, 0.0000000, 0.0234375, 0.0156250, 0.0000000, 0.0000000, 0.0234375, 0.0156250, 0.0156250, -0.0078125, 0.0000000, -0.0078125, -0.0078125, -0.0078125, 0.0000000, -0.0078125, 0.0078125, 0.0000000, -0.0078125, 0.0078125, 0.0078125, 0.0000000, -0.0156250, 0.0078125, 0.0078125, -0.0156250, -0.0234375, -0.0156250, -0.0078125, -0.0078125, 0.0078125, 0.0000000, 0.0000000, 0.0000000, -0.0078125, 0.0000000, -0.0078125, -0.0078125, 0.0000000, -0.0078125, 0.0156250, -0.0156250, 0.0000000, -0.0078125, 0.0234375, 0.0000000, 0.0156250, 0.0156250, -0.0078125, 0.0000000, 0.0000000, 0.0000000, 0.0000000, 0.0156250, 0.0000000, 0.0156250, 0.0078125, 0.0078125, 0.0156250, 0.0312500, 0.0000000, 0.0156250, -0.0156250, 0.0000000, -0.0078125, 0.0078125, 0.0000000, -0.0078125, -0.0078125, 0.0000000, -0.0078125, -0.0078125, 0.0000000, 0.0000000, 0.0078125, 0.0078125, 0.0234375, 0.0000000, 0.0000000, -0.0234375, 0.0000000, 0.0156250, -0.0078125, -0.0078125, -0.0078125, 0.0078125, 0.0078125, 0.0078125, -0.0078125, -0.0078125, 0.0000000, 0.0000000, -0.0156250, -0.0078125, -0.0234375, 0.0234375, 0.0000000, -0.0078125, -0.0156250, -0.0078125, -0.0078125, -0.0078125, 0.0000000, 0.0000000, 0.0000000, 0.0000000, -0.0078125, 0.0156250, -0.0078125, 0.0234375, 0.0078125, 0.0000000, 0.0078125, -0.0078125, -0.0078125, -0.0078125, 0.0000000, -0.0156250, -0.0156250, 0.0000000, 0.0156250, 0.0156250, -0.0156250, 0.0156250, 0.0234375, -0.0078125, 0.0156250, 0.0000000, 0.0234375, 0.0078125, 0.0156250, 0.0312500, 0.0234375, -0.0078125, 0.0000000, 0.0000000, -0.0078125, -0.0078125, 0.0234375, 0.0078125, 0.0000000, 0.0078125, 0.0234375, -0.0156250, 0.0156250, 0.0312500, 0.0000000, 0.0078125, 0.0156250, 0.0078125, -0.0156250, 0.0000000, 0.0156250, -0.0078125, 0.0000000, 0.0000000, -0.0156250, 0.0078125, 0.0078125, 0.0000000, 0.0078125, 0.0000000, 0.0000000, 0.0156250, -0.0156250, 0.0078125, 0.0156250, -0.0234375, 0.0156250, 0.0078125, -0.0156250, 0.0078125, 0.0000000, -0.0156250, 0.0078125, 0.0156250, 0.0078125, 0.0078125, 0.0000000, 0.0156250, 0.0078125, 0.0234375, 0.0156250, 0.0078125, 0.0078125, 0.0234375, 0.0234375, 0.0312500, 0.0078125, 0.0156250, 0.0078125, 0.0156250, 0.0234375, 0.0156250, 0.0000000, 0.0156250, 0.0156250, 0.0156250, 0.0078125, 0.0156250, 0.0078125, 0.0234375, 0.0000000, 0.0000000, 0.0000000, 0.0156250, 0.0156250, -0.0078125, 0.0078125, 0.0000000, 0.0000000, 0.0078125, 0.0078125, 0.0078125, 0.0078125, -0.0078125, 0.0078125, -0.0078125, 0.0078125, 0.0000000, 0.0000000, 0.0000000, 0.0234375, 0.0000000, 0.0156250, 0.0078125, 0.0078125, 0.0234375, 0.0000000, 0.0078125, -0.0078125, 0.0000000, 0.0156250, 0.0234375, -0.0078125, 0.0156250, 0.0156250, 0.0156250, 0.0156250, -0.0156250, 0.0000000, 0.0078125, 0.0000000, 0.0312500, -0.0078125, 0.0156250, 0.0000000, -0.0078125, 0.0078125, -0.0078125, 0.0000000, 0.0078125, 0.0000000, 0.0078125, -0.0078125, 0.0078125, -0.0078125, -0.0078125, -0.0156250, -0.0312500, 0.0000000, 0.0000000, 0.0078125, -0.0078125, -0.0156250, -0.0078125, 0.0078125, -0.0078125, 0.0000000, 0.0000000, 0.0078125, 0.0078125, 0.0000000, 0.0000000, -0.0234375, 0.0000000, 0.0078125, 0.0078125, -0.0078125, 0.0000000, 0.0078125, -0.0234375, 0.0000000, -0.0156250, 0.0078125, 0.0000000, -0.0156250, -0.0078125, 0.0078125, -0.0156250, 0.0078125, 0.0000000, 0.0000000, 0.0000000, 0.0000000, -0.0078125, 0.0078125, 0.0078125, -0.0078125, -0.0078125, 0.0078125, -0.0312500, -0.0078125, 0.0078125, 0.0078125, -0.0078125, 0.0000000, 0.0000000, 0.0078125, 0.0078125, 0.0000000, 0.0234375, -0.0078125, 0.0078125, -0.0078125, 0.0156250, 0.0000000, 0.0156250, 0.0000000, -0.0078125, 0.0156250, 0.0078125, 0.0000000, 0.0000000, -0.0078125, 0.0156250, -0.0156250, -0.0156250, -0.0078125, -0.0156250, 0.0156250, -0.0156250, -0.0156250, -0.0156250, 0.0234375, 0.0000000, -0.0078125, 0.0156250, 0.0156250, -0.0156250, 0.0000000, -0.0078125, 0.0000000, -0.0234375, 0.0234375, 0.0000000, 0.0078125, -0.0078125, -0.0078125, 0.0000000, 0.0000000, 0.0000000, -0.0078125, 0.0000000, -0.0078125, 0.0000000, 0.0000000, 0.0000000, -0.0078125, 0.0234375, -0.0078125, 0.0000000, 0.0078125, 0.0078125, -0.0078125, 0.0078125, 0.0000000, 0.0078125, 0.0000000, -0.0234375, 0.0000000, 0.0000000, 0.0156250, -0.0156250, 0.0078125, 0.0078125, 0.0234375, -0.0156250, -0.0078125, 0.0000000, 0.0078125, -0.0078125, 0.0078125, 0.0078125, 0.0000000, 0.0078125, 0.0000000, -0.0078125, -0.0078125, 0.0234375, -0.0234375, 0.0078125, -0.0078125, -0.0156250, -0.0156250, -0.0156250, 0.0000000, 0.0000000, -0.0078125, 0.0000000, 0.0156250, 0.0234375, -0.0078125, 0.0078125, -0.0156250, 0.0000000, 0.0000000, 0.0078125, -0.0156250, -0.0234375, -0.0156250, 0.0000000, -0.0156250, -0.0078125, 0.0000000, -0.0078125, -0.0156250, 0.0000000, -0.0234375, -0.0156250, 0.0078125, -0.0234375, 0.0078125, 0.0000000, 0.0234375, 0.0156250, 0.0078125, -0.0078125, -0.0156250, -0.0078125, -0.0156250, -0.0234375, -0.0078125, -0.0156250, -0.0156250, 0.0156250, 0.0078125, -0.0078125, -0.0156250, 0.0078125, -0.0078125, -0.0078125, 0.0000000, 0.0156250, -0.0156250, 0.0078125, 0.0000000, -0.0156250, 0.0156250, 0.0078125, 0.0078125, -0.0234375, 0.0000000, -0.0078125, -0.0156250, -0.0234375, -0.0078125, -0.0234375, 0.0000000, 0.0078125, -0.0078125, 0.0000000, 0.0234375, 0.0000000, -0.0156250, -0.0234375, 0.0078125, 0.0078125, 0.0234375, -0.0078125, -0.0078125, -0.0234375, -0.0078125, 0.0078125, 0.0078125, 0.0078125, -0.0156250, 0.0000000, -0.0078125, 0.0078125, 0.0078125, -0.0078125, -0.0078125, 0.0156250, 0.0156250, -0.0078125, 0.0078125, 0.0000000, -0.0078125, -0.0156250, 0.0078125, -0.0078125, -0.0156250, 0.0078125, -0.0078125, -0.0156250, -0.0078125, 0.0000000, 0.0156250, 0.0078125, -0.0234375, 0.0078125, 0.0078125, 0.0234375, 0.0000000, -0.0078125, 0.0156250, 0.0234375, 0.0078125, 0.0156250, -0.0078125, 0.0156250, -0.0078125, -0.0078125, -0.0156250, 0.0078125, -0.0078125, 0.0156250, 0.0000000, 0.0156250, 0.0234375, -0.0078125, 0.0156250, 0.0156250, 0.0234375, 0.0156250, 0.0000000, 0.0000000, 0.0078125, 0.0000000, -0.0078125, -0.0156250, 0.0078125, 0.0156250, 0.0078125, 0.0000000, 0.0000000, 0.0156250, 0.0000000, -0.0078125, 0.0234375, -0.0078125, 0.0000000, 0.0078125, -0.0156250, 0.0078125, 0.0156250, 0.0156250, 0.0000000, -0.0156250, 0.0156250, 0.0000000, 0.0156250, 0.0000000, 0.0078125, 0.0156250, 0.0078125, -0.0312500, -0.0078125, -0.0234375, -0.0078125, 0.0000000, 0.0000000, 0.0000000, -0.0156250, 0.0078125, -0.0078125, 0.0000000, 0.0156250, 0.0156250, 0.0000000, 0.0078125, 0.0000000, -0.0078125, -0.0078125, -0.0156250, 0.0000000, 0.0078125, 0.0078125, 0.0078125, -0.0312500, 0.0156250, 0.0156250, 0.0156250, 0.0312500, 0.0156250, 0.0078125, 0.0078125, 0.0000000, 0.0234375, 0.0000000, 0.0078125, 0.0156250, 0.0078125, 0.0078125, 0.0156250, 0.0000000, -0.0156250, 0.0078125, 0.0078125, 0.0078125, -0.0078125, -0.0078125, 0.0078125, -0.0156250, 0.0000000, -0.0156250, 0.0078125, 0.0000000, -0.0078125, -0.0234375, 0.0000000, -0.0156250, 0.0234375, -0.0078125, 0.0156250, -0.0078125, 0.0000000, 0.0078125, 0.0078125, 0.0234375, 0.0000000, -0.0078125, -0.0234375, 0.0000000, 0.0000000, 0.0156250, -0.0156250, -0.0156250, -0.0078125, -0.0078125, -0.0078125, -0.0078125, 0.0000000, 0.0078125, 0.0078125, 0.0000000, 0.0000000, 0.0234375, 0.0078125, 0.0078125, 0.0000000, 0.0000000, 0.0156250, 0.0078125, -0.0078125, 0.0234375, 0.0078125, -0.0078125, -0.0078125, 0.0000000, -0.0156250, 0.0078125, 0.0078125, -0.0156250, -0.0078125, 0.0078125, 0.0000000, -0.0156250, 0.0234375, 0.0156250, 0.0078125, 0.0000000, 0.0156250, -0.0078125, 0.0000000, 0.0078125, 0.0156250, 0.0156250, 0.0078125, -0.0078125, 0.0156250, 0.0000000, 0.0000000, 0.0078125, 0.0156250, -0.0078125, 0.0000000, 0.0234375, 0.0000000, 0.0078125, 0.0000000, -0.0156250, 0.0078125, 0.0156250, -0.0234375, 0.0000000, -0.0078125, 0.0000000, 0.0000000, 0.0000000, 0.0000000, -0.0078125, 0.0234375, 0.0156250, 0.0078125, 0.0000000, -0.0078125, -0.0156250, 0.0078125, 0.0234375, -0.0078125, -0.0156250, 0.0078125, -0.0078125, -0.0156250, 0.0000000, 0.0000000, 0.0078125, 0.0156250, 0.0156250, 0.0078125, 0.0078125, 0.0234375, 0.0234375, 0.0000000, 0.0078125, 0.0078125, 0.0078125, 0.0156250, 0.0156250, 0.0078125, 0.0000000, 0.0078125, 0.0000000, 0.0078125, 0.0078125, -0.0234375, 0.0156250, 0.0078125, -0.0078125, 0.0078125, -0.0078125, 0.0078125, 0.0078125, 0.0234375, -0.0156250, 0.0000000, 0.0078125, 0.0156250, 0.0234375, 0.0000000, -0.0078125, 0.0156250, 0.0156250, 0.0156250, 0.0000000, -0.0234375, -0.0078125, 0.0000000, 0.0000000, 0.0312500, 0.0156250, 0.0000000, -0.0078125, 0.0156250, 0.0000000, 0.0078125, 0.0000000, 0.0156250, -0.0078125, 0.0156250, 0.0000000, 0.0078125, -0.0078125, 0.0078125, 0.0078125, 0.0156250, 0.0000000, -0.0078125, 0.0000000, 0.0000000, -0.0078125, 0.0078125, 0.0078125, 0.0078125, -0.0078125, 0.0234375, -0.0156250, 0.0156250, 0.0000000, 0.0000000, 0.0078125, 0.0000000, -0.0078125, 0.0078125, 0.0000000, 0.0078125, -0.0234375, -0.0156250, -0.0078125, 0.0156250, 0.0078125, 0.0000000, -0.0156250, 0.0234375, 0.0000000, 0.0000000, -0.0234375, 0.0000000, 0.0000000, -0.0078125, 0.0156250, -0.0156250, 0.0156250, -0.0156250, 0.0234375, 0.0156250, 0.0000000, -0.0078125, 0.0000000, 0.0000000, -0.0078125, 0.0078125, 0.0078125, 0.0156250, 0.0000000, 0.0312500, 0.0000000, -0.0156250, 0.0000000, 0.0000000, -0.0312500, 0.0078125, 0.0156250, -0.0312500, -0.0234375, -0.0234375, 0.0078125, -0.0078125, -0.0078125, 0.0078125, -0.0156250, -0.0078125, -0.0078125, 0.0078125, 0.0078125, 0.0078125, 0.0000000, -0.0156250, -0.0078125, 0.0156250, 0.0000000, 0.0156250, -0.0078125, 0.0000000, -0.0156250, 0.0156250, 0.0078125, -0.0078125, 0.0078125, 0.0000000, 0.0234375, -0.0078125, 0.0078125, 0.0078125, -0.0078125, -0.0078125, 0.0078125, -0.0078125, 0.0156250, 0.0000000, -0.0078125, 0.0234375, 0.0000000, 0.0156250, 0.0000000, 0.0000000, 0.0156250, 0.0078125, 0.0078125, -0.0078125, -0.0078125, 0.0000000, 0.0000000, 0.0078125, 0.0078125, -0.0078125, 0.0000000, 0.0078125, -0.0078125, -0.0078125, -0.0156250, -0.0078125, 0.0000000, 0.0156250, 0.0078125, 0.0156250, 0.0000000, 0.0078125, 0.0000000, 0.0078125, 0.0234375, -0.0078125, 0.0000000, 0.0156250, 0.0000000, 0.0156250, 0.0078125, 0.0000000, 0.0078125, -0.0078125, -0.0156250, -0.0156250, -0.0078125, 0.0000000, -0.0078125, 0.0078125, 0.0078125, 0.0078125, -0.0078125, -0.0078125, 0.0234375, -0.0156250, 0.0312500, 0.0234375, -0.0156250, -0.0156250, -0.0078125, 0.0312500, 0.0156250, 0.0078125, 0.0234375, 0.0078125, 0.0156250, 0.0156250, -0.0078125, 0.0156250, 0.0078125, 0.0078125, 0.0078125, 0.0000000, 0.0078125, 0.0000000, 0.0078125, 0.0156250, 0.0156250, -0.0078125, -0.0078125, 0.0000000, 0.0000000, 0.0000000, 0.0078125, -0.0156250, -0.0078125, 0.0000000, -0.0078125, -0.0312500, 0.0000000, 0.0156250, -0.0156250, 0.0078125, 0.0078125, 0.0156250, 0.0234375, -0.0156250, 0.0000000, -0.0078125, -0.0078125, 0.0312500, 0.0000000, 0.0234375, 0.0078125, 0.0000000, 0.0234375, 0.0390625, -0.0078125, 0.0000000, 0.0000000, 0.0312500, 0.0156250, 0.0000000, 0.0156250, -0.0078125, 0.0156250, -0.0156250, 0.0078125, 0.0000000, 0.0000000, 0.0000000, 0.0078125, 0.0078125, 0.0078125, 0.0156250, 0.0078125, -0.0078125, 0.0000000, -0.0078125, 0.0156250, -0.0078125, 0.0234375, -0.0078125, 0.0000000, 0.0156250, 0.0078125, 0.0156250, 0.0156250, 0.0156250, 0.0312500, 0.0000000, 0.0000000, -0.0156250, -0.0156250, 0.0156250, 0.0000000, 0.0156250, 0.0078125, 0.0000000, 0.0000000, 0.0000000, 0.0000000, 0.0234375, 0.0234375, 0.0156250, 0.0156250, 0.0000000, 0.0000000, 0.0000000, 0.0000000, 0.0078125, 0.0078125, -0.0078125, 0.0078125, -0.0078125, 0.0000000, 0.0078125, 0.0078125, 0.0078125, 0.0000000, 0.0000000, 0.0078125, 0.0000000, -0.0078125, -0.0078125, 0.0078125, 0.0000000, 0.0000000, 0.0078125, -0.0078125, 0.0000000, 0.0000000, -0.0156250, 0.0000000, 0.0000000, 0.0000000, 0.0000000, -0.0078125, 0.0000000, 0.0000000, 0.0156250, 0.0078125, 0.0156250, 0.0000000, 0.0078125, 0.0000000, 0.0078125, 0.0156250, 0.0078125, 0.0000000, 0.0078125, 0.0156250, 0.0078125, -0.0156250, -0.0078125, 0.0000000, -0.0078125, 0.0000000, 0.0156250, 0.0078125, -0.0078125, -0.0156250, 0.0000000, 0.0078125, 0.0000000, 0.0078125, 0.0000000, 0.0000000, 0.0000000, 0.0078125, -0.0078125, -0.0078125, 0.0078125, 0.0000000, 0.0078125, -0.0078125, 0.0156250, 0.0000000, -0.0078125, 0.0000000, 0.0078125, -0.0078125, 0.0078125, 0.0078125, 0.0156250, 0.0000000, 0.0078125, 0.0000000, 0.0000000, 0.0000000, -0.0078125, -0.0078125, -0.0078125, 0.0078125, -0.0078125, -0.0078125, 0.0000000, 0.0078125, 0.0000000, -0.0078125, 0.0156250, 0.0078125, -0.0078125, 0.0000000, 0.0000000, 0.0078125, 0.0000000, 0.0078125, 0.0078125, 0.0078125, 0.0000000, -0.0078125, 0.0000000, -0.0078125, -0.0078125, 0.0000000, 0.0000000, 0.0156250, 0.0000000, 0.0000000, -0.0078125, -0.0234375, 0.0000000, 0.0078125, 0.0078125, 0.0078125, 0.0000000, -0.0078125, -0.0078125, -0.0078125, 0.0000000, 0.0078125, -0.0078125, 0.0078125, -0.0078125, -0.0078125, 0.0078125, 0.0000000, 0.0156250, 0.0000000, -0.0078125, 0.0000000, 0.0000000, 0.0078125, 0.0000000, 0.0000000, 0.0078125, 0.0078125, -0.0078125, 0.0156250, 0.0078125, 0.0000000, 0.0000000, 0.0000000, 0.0078125, 0.0078125, -0.0078125, 0.0000000, -0.0078125, 0.0078125, -0.0156250, -0.0078125, 0.0078125, 0.0000000, 0.0000000, 0.0000000, 0.0078125, 0.0156250, 0.0078125, 0.0078125, 0.0000000, -0.0078125, 0.0000000, 0.0000000, 0.0156250, -0.0078125, 0.0000000, -0.0078125, 0.0156250, 0.0156250, -0.0078125, -0.0156250, 0.0000000, 0.0156250, -0.0078125, -0.0156250, 0.0000000, 0.0156250, 0.0000000, 0.0078125, 0.0000000, -0.0078125, 0.0000000, -0.0156250, 0.0000000, 0.0000000, 0.0000000, -0.0078125, 0.0078125, 0.0078125, 0.0000000, 0.0078125, 0.0078125, 0.0000000, 0.0156250, -0.0156250, -0.0078125, -0.0078125, 0.0078125, -0.0156250, 0.0078125, 0.0078125, 0.0078125, 0.0000000, -0.0078125, -0.0156250, 0.0156250, -0.0078125, 0.0000000, 0.0000000, -0.0156250, 0.0000000, 0.0000000, 0.0000000, 0.0156250, 0.0000000, 0.0000000, 0.0078125, -0.0078125, 0.0078125, 0.0000000, -0.0156250, 0.0078125, -0.0078125, -0.0156250, 0.0000000, 0.0078125, 0.0078125, -0.0078125, -0.0156250, 0.0078125, 0.0156250, -0.0156250, 0.0000000, 0.0156250, 0.0000000, -0.0078125, -0.0078125, -0.0078125, -0.0156250, -0.0078125, 0.0078125, 0.0000000, 0.0234375, 0.0000000, 0.0000000, -0.0078125, -0.0078125, 0.0156250, 0.0078125, -0.0078125, 0.0078125, -0.0078125, -0.0078125, 0.0156250, 0.0078125, 0.0000000, 0.0156250, -0.0156250, -0.0078125, -0.0078125, 0.0000000, 0.0078125, 0.0000000, 0.0078125, -0.0078125, 0.0000000, 0.0078125, -0.0078125, -0.0156250, 0.0000000, 0.0000000, 0.0156250, 0.0078125, 0.0078125, 0.0000000, -0.0078125, -0.0078125, -0.0156250, 0.0000000, 0.0156250, 0.0000000, -0.0078125, 0.0078125, 0.0000000, 0.0156250, 0.0000000, 0.0078125, 0.0078125, 0.0078125, 0.0000000, 0.0078125, 0.0078125, 0.0000000, 0.0000000, -0.0078125, 0.0078125, 0.0000000, 0.0078125, -0.0078125, 0.0000000, 0.0000000, 0.0000000, 0.0000000, -0.0078125, 0.0000000, -0.0156250, 0.0078125, -0.0078125, 0.0078125, 0.0078125, 0.0156250, 0.0078125, 0.0156250, 0.0000000, -0.0078125, 0.0000000, 0.0000000, 0.0078125, 0.0078125, 0.0078125, 0.0000000, 0.0000000, -0.0078125, 0.0078125, -0.0078125, 0.0156250, -0.0078125, 0.0078125, 0.0078125, 0.0156250, 0.0000000, 0.0078125, -0.0078125, 0.0078125, 0.0000000, -0.0078125, 0.0000000, 0.0000000, 0.0078125, 0.0000000, 0.0078125, 0.0156250, 0.0000000, -0.0078125, 0.0000000, -0.0078125, 0.0078125, -0.0078125, 0.0000000, 0.0078125, 0.0000000, -0.0078125, 0.0156250, 0.0078125, 0.0078125, -0.0078125, 0.0078125, 0.0156250, 0.0156250, -0.0078125, 0.0000000, 0.0000000, 0.0000000, -0.0078125, -0.0156250, -0.0078125, -0.0078125, 0.0000000, -0.0156250, 0.0078125, 0.0078125, 0.0078125, 0.0234375, -0.0156250, -0.0156250, -0.0078125, 0.0078125, 0.0000000, 0.0078125, -0.0156250, -0.0078125, 0.0078125, -0.0156250, 0.0078125, 0.0000000, 0.0078125, 0.0078125, -0.0156250, 0.0000000, 0.0000000, -0.0078125, 0.0000000, -0.0078125, 0.0000000, 0.0000000, -0.0078125, 0.0078125, 0.0000000, -0.0078125, 0.0000000, -0.0078125, -0.0078125, 0.0000000, -0.0156250, 0.0078125, -0.0156250, -0.0078125, 0.0000000, -0.0078125, 0.0000000, -0.0078125, 0.0000000, 0.0078125, -0.0078125, 0.0000000, 0.0000000, -0.0156250, 0.0000000, 0.0000000, 0.0000000, 0.0000000, 0.0000000, -0.0078125, 0.0078125, 0.0000000, 0.0000000, 0.0000000, -0.0078125, -0.0078125, -0.0078125, 0.0078125, 0.0000000, 0.0000000, -0.0078125, 0.0000000, 0.0000000, -0.0078125, -0.0078125, -0.0078125, -0.0156250, -0.0078125, 0.0078125, 0.0000000, 0.0000000, 0.0078125, 0.0000000, 0.0078125, 0.0078125, 0.0000000, 0.0078125, -0.0078125, 0.0078125, 0.0000000, 0.0078125, -0.0078125, 0.0078125, -0.0078125, 0.0000000, 0.0078125, 0.0000000, 0.0000000, 0.0078125, -0.0078125, -0.0156250, 0.0000000, -0.0078125, 0.0078125, -0.0078125, -0.0078125, 0.0078125, -0.0156250, -0.0078125, -0.0156250, 0.0078125, 0.0000000, 0.0000000, -0.0156250, 0.0000000, -0.0078125, -0.0078125, 0.0000000, 0.0000000, 0.0156250, -0.0078125, -0.0078125, 0.0000000, 0.0156250, -0.0078125, -0.0156250, 0.0078125, 0.0000000, -0.0078125, -0.0078125, -0.0078125, -0.0156250, -0.0078125, -0.0078125, 0.0000000, -0.0156250, 0.0156250, 0.0000000, -0.0156250, -0.0078125, 0.0078125, 0.0078125, -0.0156250, 0.0000000, -0.0078125, 0.0000000, 0.0078125, -0.0078125, 0.0000000, -0.0078125, 0.0000000, 0.0000000, -0.0078125, 0.0000000, 0.0000000, -0.0078125, 0.0156250, -0.0078125, -0.0156250, 0.0078125, -0.0156250, -0.0078125, -0.0078125, 0.0078125, 0.0000000, 0.0000000, -0.0156250, -0.0078125, -0.0078125, -0.0156250, -0.0156250, 0.0000000, 0.0078125, 0.0078125, 0.0000000, 0.0000000, -0.0078125, 0.0156250, 0.0000000, 0.0000000, 0.0000000, -0.0078125, 0.0078125, 0.0078125, 0.0000000, -0.0078125, 0.0078125, 0.0000000, 0.0000000, -0.0156250, 0.0000000, -0.0078125, -0.0156250, 0.0078125, 0.0000000, 0.0000000, 0.0000000, 0.0000000, -0.0078125, -0.0078125, 0.0000000, 0.0000000, -0.0078125, -0.0078125, 0.0000000, -0.0078125, 0.0078125, -0.0078125, -0.0078125, 0.0000000, 0.0000000, -0.0078125, -0.0078125, 0.0000000, 0.0156250, -0.0078125, 0.0000000, 0.0000000, 0.0000000, 0.0078125, 0.0078125, 0.0000000, 0.0000000, -0.0156250, 0.0000000, 0.0000000, 0.0156250, 0.0000000, -0.0234375, 0.0000000, -0.0078125, 0.0078125, -0.0078125, 0.0078125, 0.0000000, -0.0078125, 0.0000000, -0.0156250, -0.0078125, 0.0000000, 0.0078125, -0.0078125, -0.0078125, -0.0078125, -0.0078125, -0.0078125, 0.0000000, -0.0078125, -0.0078125, -0.0078125, -0.0156250, 0.0078125, -0.0078125, -0.0078125, 0.0078125, -0.0078125, -0.0156250, 0.0078125, -0.0078125, -0.0156250, 0.0000000, -0.0078125, 0.0000000, 0.0000000, -0.0078125, 0.0000000, -0.0078125, -0.0156250, 0.0000000, -0.0234375, 0.0000000, 0.0078125, -0.0078125, -0.0156250, -0.0078125, 0.0078125, 0.0078125, 0.0000000, -0.0078125, 0.0078125, -0.0156250, 0.0000000, -0.0078125, 0.0078125, 0.0156250, -0.0078125, -0.0078125, 0.0000000, 0.0000000, 0.0000000, -0.0078125, 0.0000000, -0.0078125, -0.0078125, 0.0000000, -0.0156250, -0.0156250, 0.0078125, -0.0078125, 0.0000000, 0.0000000, -0.0078125, 0.0000000, -0.0078125, 0.0078125, 0.0000000, 0.0078125, 0.0000000, -0.0078125, -0.0078125, 0.0078125, 0.0000000, 0.0000000, 0.0000000, 0.0000000, 0.0000000, 0.0156250, 0.0000000, 0.0000000, 0.0000000, -0.0312500, 0.0000000, -0.0078125, 0.0000000, 0.0000000, 0.0000000, 0.0078125, -0.0078125, -0.0078125, 0.0000000, -0.0156250, -0.0078125, 0.0078125, 0.0000000, 0.0000000, 0.0078125, 0.0000000, 0.0078125, 0.0000000, 0.0078125, 0.0078125, 0.0000000, 0.0078125, -0.0078125, 0.0000000, 0.0156250, 0.0078125, 0.0000000, 0.0156250, 0.0078125, 0.0000000, 0.0000000, -0.0078125, -0.0078125, 0.0156250, -0.0078125, -0.0156250, -0.0078125, 0.0000000, 0.0078125, -0.0078125, 0.0078125, 0.0078125, -0.0078125, 0.0000000, -0.0078125, 0.0000000, 0.0078125, 0.0000000, 0.0000000, 0.0078125, 0.0000000, 0.0000000, 0.0000000, -0.0156250, 0.0078125, -0.0078125, -0.0156250, -0.0078125, 0.0078125, 0.0000000, -0.0156250, 0.0156250, 0.0078125, -0.0078125, 0.0000000, 0.0000000, -0.0156250, 0.0000000, 0.0000000, 0.0078125, 0.0078125, 0.0078125, 0.0078125, 0.0000000, -0.0234375, 0.0000000, 0.0000000, 0.0000000, 0.0000000, -0.0156250, -0.0078125, 0.0000000, -0.0078125, 0.0078125, 0.0156250, 0.0078125, 0.0000000, -0.0156250, 0.0078125, 0.0000000, 0.0000000, 0.0000000, 0.0078125, 0.0078125, 0.0000000, 0.0000000, -0.0078125, -0.0078125, 0.0000000, 0.0078125, 0.0078125, -0.0078125, -0.0078125, -0.0078125, 0.0078125, 0.0000000, 0.0078125, 0.0000000, 0.0000000, 0.0078125, 0.0078125, 0.0000000, 0.0078125, -0.0156250, 0.0078125, 0.0078125, -0.0078125, 0.0078125, -0.0078125, 0.0000000, -0.0078125, 0.0000000, -0.0156250, 0.0078125, 0.0156250, 0.0000000, -0.0078125, 0.0000000, 0.0078125, -0.0156250, -0.0078125, -0.0078125, 0.0156250, 0.0000000, 0.0000000, 0.0000000, 0.0000000, 0.0078125, -0.0078125, 0.0000000, 0.0000000, 0.0078125, 0.0000000, 0.0000000, 0.0078125, 0.0078125, 0.0000000, 0.0000000, 0.0156250, 0.0078125, 0.0000000, 0.0000000, -0.0078125, 0.0000000, -0.0078125, 0.0000000, 0.0078125, 0.0156250, 0.0078125, 0.0000000, 0.0000000, -0.0078125, 0.0000000, 0.0000000, 0.0000000, -0.0234375, 0.0156250, 0.0078125, 0.0000000, 0.0078125, -0.0156250, 0.0000000, 0.0078125, 0.0000000, 0.0000000, 0.0156250, -0.0078125, 0.0000000, -0.0078125, -0.0078125, 0.0000000, -0.0078125, -0.0156250, -0.0078125, 0.0000000, 0.0000000, 0.0078125, 0.0000000, 0.0078125, 0.0078125, 0.0000000, 0.0000000, -0.0078125, -0.0078125, 0.0000000, -0.0078125, -0.0078125, 0.0078125, 0.0078125, 0.0078125, 0.0000000, 0.0000000, -0.0234375, 0.0000000, 0.0000000, 0.0078125, 0.0078125, -0.0078125, -0.0156250, 0.0000000, 0.0000000, 0.0156250, 0.0156250, 0.0078125, 0.0000000, 0.0000000, 0.0078125, 0.0000000, -0.0078125, 0.0078125, 0.0000000, 0.0000000, 0.0000000, 0.0000000, -0.0078125, -0.0078125, 0.0000000, 0.0078125, 0.0078125, -0.0078125, -0.0078125, 0.0000000, 0.0000000, -0.0078125, 0.0000000, 0.0000000, 0.0156250, -0.0078125, 0.0000000, 0.0000000, 0.0078125, -0.0078125, 0.0000000, 0.0000000, -0.0156250, 0.0000000, -0.0078125, 0.0156250, -0.0078125, 0.0078125, 0.0000000, 0.0000000, 0.0000000, -0.0156250, -0.0078125, -0.0078125, 0.0078125, -0.0078125, 0.0000000, 0.0000000, 0.0078125, 0.0000000, -0.0156250, -0.0078125, 0.0078125, 0.0078125, 0.0000000, -0.0078125, 0.0000000, 0.0000000, -0.0078125, 0.0000000, 0.0000000, 0.0078125, 0.0000000, -0.0078125, 0.0000000, -0.0078125, -0.0156250, 0.0000000, 0.0000000, 0.0078125, -0.0078125, 0.0000000, 0.0078125, 0.0078125, 0.0000000, -0.0156250, 0.0000000, 0.0000000, 0.0078125, 0.0000000, -0.0078125, 0.0000000, 0.0000000, 0.0078125, 0.0078125, 0.0078125, -0.0078125, -0.0156250, -0.0234375, -0.0156250, 0.0234375, 0.0000000, 0.0000000, 0.0000000, -0.0156250, -0.0156250, 0.0000000, 0.0000000, -0.0078125, -0.0078125, -0.0078125, 0.0078125, 0.0156250, -0.0078125, 0.0000000, 0.0156250, 0.0078125, 0.0000000, 0.0000000, -0.0156250, -0.0078125, 0.0000000, 0.0000000, 0.0156250, 0.0234375, 0.0000000, 0.0000000, -0.0078125, -0.0078125, 0.0000000, 0.0000000, 0.0000000, -0.0078125, -0.0078125, -0.0078125, 0.0156250, 0.0078125, 0.0078125, 0.0000000, -0.0078125, 0.0078125, -0.0156250, 0.0078125, -0.0078125, -0.0078125, 0.0078125, 0.0000000, 0.0000000, 0.0000000, 0.0000000, -0.0078125, -0.0156250, 0.0000000, 0.0078125, 0.0078125, 0.0078125, 0.0078125, -0.0078125, -0.0078125, -0.0078125, 0.0000000, 0.0000000, 0.0156250, 0.0078125, 0.0000000, -0.0078125, 0.0078125, 0.0000000, 0.0000000, 0.0078125, -0.0078125, 0.0078125, -0.0156250, 0.0078125, 0.0000000, 0.0078125, -0.0078125, 0.0156250, 0.0078125, 0.0078125, -0.0078125, 0.0000000, 0.0078125, -0.0078125, -0.0078125, -0.0156250, 0.0156250, 0.0078125, 0.0078125, 0.0000000, -0.0078125, -0.0156250, 0.0000000, 0.0000000, 0.0078125, 0.0078125, 0.0078125, 0.0000000, 0.0078125, 0.0078125, -0.0078125, 0.0078125, 0.0000000, 0.0156250, -0.0078125, -0.0078125, -0.0078125, 0.0078125, 0.0000000, 0.0000000, 0.0000000, 0.0078125, -0.0078125, 0.0000000, -0.0078125, 0.0078125, 0.0000000, -0.0078125, -0.0078125, -0.0156250, 0.0078125, 0.0000000, 0.0000000, 0.0000000, -0.0156250, 0.0000000, 0.0000000, -0.0078125, 0.0000000, -0.0078125, -0.0156250, 0.0000000, 0.0078125, -0.0156250, 0.0156250, 0.0000000, 0.0000000, 0.0000000, 0.0000000, 0.0000000, -0.0078125, -0.0156250, 0.0000000, 0.0000000, 0.0000000, -0.0078125, 0.0000000, 0.0000000, -0.0078125, 0.0000000, 0.0000000, 0.0078125, 0.0078125, 0.0078125, 0.0000000, -0.0156250, -0.0156250, -0.0078125, 0.0078125, -0.0078125, 0.0000000, -0.0156250, 0.0000000, -0.0078125, 0.0078125, 0.0000000, 0.0000000, -0.0078125, 0.0000000, 0.0156250, 0.0078125, 0.0000000, 0.0156250, -0.0078125, 0.0000000, 0.0156250, 0.0000000, 0.0234375, 0.0078125, 0.0156250, 0.0156250, -0.0156250, 0.0000000, 0.0000000, 0.0000000, 0.0078125, 0.0156250, 0.0000000, 0.0156250, 0.0234375, 0.0078125, 0.0078125, 0.0000000, 0.0156250, 0.0078125, 0.0156250, 0.0000000, 0.0000000, 0.0156250, 0.0000000, -0.0078125, -0.0078125, -0.0078125, 0.0000000, 0.0156250, 0.0078125, 0.0000000, -0.0078125, 0.0000000, 0.0000000, -0.0078125, 0.0156250, -0.0078125, 0.0156250, 0.0078125, -0.0078125, 0.0000000, 0.0000000, -0.0078125, 0.0000000, 0.0000000, 0.0156250, 0.0078125, 0.0078125, 0.0000000, 0.0000000, -0.0078125, 0.0000000, -0.0078125, 0.0156250, -0.0078125, 0.0000000, 0.0000000, -0.0078125, 0.0000000, 0.0156250, 0.0156250, -0.0078125, 0.0078125, 0.0000000, -0.0156250, -0.0078125, -0.0078125, -0.0078125, 0.0156250, 0.0234375, 0.0078125, 0.0156250, 0.0078125, 0.0156250, 0.0000000, -0.0078125, 0.0000000, 0.0000000, 0.0078125, 0.0000000, -0.0078125, 0.0078125, 0.0390625, -0.0078125, 0.0156250, 0.0078125, 0.0000000, 0.0000000, 0.0078125, 0.0078125, 0.0156250, 0.0078125, -0.0078125, 0.0000000, 0.0078125, -0.0078125, 0.0156250, 0.0156250, 0.0000000, 0.0156250, -0.0078125, 0.0000000, 0.0078125, 0.0078125, 0.0156250, 0.0156250, 0.0000000, 0.0078125, 0.0000000, 0.0078125, 0.0000000, -0.0078125, 0.0156250, 0.0156250, 0.0000000, -0.0234375, -0.0078125, 0.0156250, 0.0078125, 0.0000000, 0.0000000, 0.0234375, 0.0156250, 0.0156250, 0.0000000, -0.0234375, 0.0156250, 0.0078125, -0.0078125, 0.0156250, 0.0234375, 0.0000000, -0.0078125, -0.0078125, -0.0078125, -0.0156250, -0.0078125, 0.0156250, 0.0000000, 0.0156250, -0.0078125, 0.0000000, 0.0078125, 0.0000000, 0.0078125, 0.0156250, 0.0078125, 0.0078125, 0.0078125, 0.0156250, -0.0078125, -0.0312500, 0.0156250, 0.0078125, -0.0078125, 0.0000000, 0.0000000, 0.0000000, 0.0000000, -0.0078125, 0.0078125, 0.0000000, 0.0156250, 0.0234375, -0.0078125, 0.0078125, 0.0000000, 0.0078125, 0.0000000, 0.0078125, 0.0156250, 0.0078125, 0.0000000, 0.0078125, -0.0078125, 0.0078125, -0.0078125, 0.0000000, 0.0078125, 0.0156250, 0.0078125, 0.0000000, -0.0078125, 0.0000000, 0.0078125, 0.0078125, 0.0156250, 0.0000000, 0.0156250, 0.0000000, -0.0078125, 0.0000000, 0.0000000, -0.0078125, 0.0000000, 0.0000000, 0.0078125, 0.0234375, 0.0156250, 0.0000000, 0.0000000, 0.0000000, -0.0078125, 0.0078125, 0.0078125, 0.0000000, -0.0078125, 0.0000000, 0.0156250, 0.0156250, -0.0078125, 0.0156250, 0.0000000, 0.0234375, 0.0078125, 0.0078125, -0.0156250, 0.0078125, -0.0156250, -0.0156250, 0.0000000, 0.0000000, 0.0078125, 0.0000000, 0.0078125, 0.0078125, 0.0078125, 0.0156250, 0.0078125, -0.0078125, 0.0078125, 0.0000000, 0.0078125, -0.0078125, 0.0000000, 0.0156250, 0.0000000, 0.0078125, 0.0000000, 0.0078125, 0.0000000, 0.0000000, 0.0078125, 0.0078125, 0.0000000, 0.0156250, 0.0000000, 0.0078125, -0.0156250, 0.0156250, 0.0000000, 0.0000000, -0.0078125, -0.0078125, 0.0000000, 0.0078125, -0.0156250, -0.0078125, 0.0078125, 0.0234375, 0.0078125, 0.0000000, 0.0000000, 0.0078125, 0.0390625, -0.0078125, 0.0156250, 0.0000000, 0.0000000, 0.0078125, 0.0000000, 0.0000000, 0.0078125, 0.0000000, 0.0078125, 0.0234375, 0.0156250, 0.0000000, 0.0234375, -0.0078125, -0.0078125, 0.0156250, 0.0000000, -0.0078125, 0.0000000, -0.0078125, -0.0078125, 0.0000000, 0.0312500, 0.0000000, 0.0312500, 0.0000000, 0.0000000, -0.0156250, 0.0000000, -0.0156250, -0.0156250, 0.0156250, 0.0000000, 0.0000000, 0.0000000, 0.0156250, -0.0078125, 0.0156250, 0.0156250, 0.0000000, 0.0078125, 0.0078125, 0.0078125, -0.0078125, 0.0078125, 0.0000000, 0.0156250, 0.0078125, 0.0156250, 0.0000000, -0.0078125, 0.0000000, 0.0234375, 0.0156250, 0.0078125, 0.0234375, 0.0078125, -0.0078125, 0.0078125, 0.0156250, 0.0078125, 0.0156250, 0.0000000, 0.0234375, 0.0078125, 0.0078125, 0.0000000, 0.0078125, 0.0078125, -0.0156250, 0.0078125, 0.0078125, 0.0156250, 0.0000000, 0.0234375, -0.0078125, -0.0078125, 0.0078125, 0.0078125, -0.0156250, 0.0156250, 0.0000000, -0.0078125, 0.0156250, 0.0078125, -0.0078125, 0.0078125, 0.0000000, 0.0000000, 0.0234375, 0.0156250, -0.0078125, 0.0000000, 0.0078125, 0.0000000, 0.0000000, 0.0078125, 0.0078125, 0.0078125, 0.0156250, -0.0156250, -0.0078125, 0.0078125, 0.0078125, 0.0000000, 0.0000000, 0.0000000, -0.0078125, -0.0078125, -0.0078125, 0.0000000, 0.0156250, -0.0078125, -0.0078125, -0.0234375, 0.0000000, 0.0000000, 0.0078125, -0.0078125, 0.0078125, 0.0000000, 0.0000000, -0.0078125, -0.0078125, -0.0078125, -0.0078125, 0.0234375, 0.0078125, -0.0156250, 0.0000000, -0.0078125, 0.0156250, 0.0078125, -0.0078125, -0.0078125, 0.0000000, -0.0078125, 0.0234375, -0.0078125, 0.0156250, 0.0156250, 0.0078125, 0.0000000, -0.0078125, 0.0000000, 0.0078125, 0.0078125, 0.0000000, 0.0000000, 0.0078125, 0.0000000, 0.0000000, 0.0000000, 0.0000000, 0.0000000, -0.0078125, 0.0156250, -0.0078125, 0.0078125, 0.0000000, 0.0156250, 0.0000000, 0.0078125, -0.0078125, -0.0078125, 0.0000000, 0.0000000, 0.0156250, 0.0078125, -0.0078125, -0.0234375, 0.0156250, 0.0078125, 0.0078125, 0.0078125, -0.0234375, -0.0078125, -0.0156250, -0.0156250, 0.0156250, 0.0156250, 0.0234375, -0.0156250, -0.0078125, 0.0000000, -0.0078125, -0.0078125, -0.0156250, 0.0078125, 0.0078125, -0.0078125, 0.0000000, 0.0000000, 0.0000000, 0.0156250, 0.0000000, -0.0156250, -0.0078125, 0.0000000, -0.0078125, 0.0234375, 0.0000000, 0.0078125, 0.0000000, 0.0000000, -0.0078125, 0.0156250, 0.0000000, -0.0078125, 0.0078125, -0.0156250, 0.0000000, 0.0000000, -0.0078125, 0.0078125, 0.0156250, -0.0078125, 0.0000000, 0.0000000, -0.0156250, 0.0078125, 0.0000000, -0.0234375, 0.0000000, -0.0156250, 0.0156250, -0.0078125, -0.0078125, -0.0156250, 0.0000000, 0.0000000, 0.0000000, 0.0078125, -0.0156250, -0.0078125, 0.0000000, 0.0078125, 0.0078125, 0.0078125, 0.0156250, 0.0156250, 0.0000000, -0.0078125, -0.0156250, -0.0234375, -0.0078125, -0.0234375, -0.0156250, 0.0000000, 0.0078125, -0.0078125, -0.0156250, -0.0078125, 0.0000000, -0.0078125, 0.0156250, -0.0078125, 0.0000000, 0.0000000, 0.0078125, -0.0078125, -0.0234375, -0.0078125, 0.0078125, -0.0078125, 0.0078125, -0.0078125, -0.0078125, 0.0000000, 0.0078125, 0.0000000, -0.0078125, 0.0078125, -0.0234375, 0.0000000, -0.0078125, 0.0078125, -0.0156250, 0.0000000, 0.0078125, -0.0234375, 0.0156250, 0.0156250, 0.0156250, -0.0078125, 0.0000000, -0.0078125, 0.0000000, 0.0000000, 0.0000000, -0.0156250, 0.0000000, -0.0156250, -0.0078125, 0.0000000, 0.0000000, -0.0156250, -0.0156250, -0.0156250, 0.0156250, -0.0078125, 0.0000000, -0.0078125, 0.0000000, -0.0078125, 0.0078125, 0.0000000, -0.0078125, -0.0078125, 0.0078125, -0.0156250, -0.0156250, -0.0078125, 0.0000000, 0.0000000, 0.0000000, 0.0078125, 0.0000000, -0.0078125, -0.0234375, -0.0156250, -0.0078125, 0.0078125, -0.0234375, 0.0000000, -0.0156250, 0.0000000, -0.0078125, 0.0078125, 0.0078125, 0.0000000, 0.0000000, 0.0000000, 0.0078125, -0.0078125, -0.0078125, 0.0078125, -0.0078125, -0.0156250, -0.0156250, 0.0078125, -0.0078125, -0.0078125, 0.0000000, 0.0078125, 0.0078125, -0.0078125, -0.0078125, -0.0078125, 0.0000000, -0.0156250, 0.0078125, 0.0000000, 0.0078125, 0.0156250, -0.0078125, 0.0000000, 0.0000000, -0.0078125, 0.0156250, 0.0000000, -0.0078125, -0.0156250, 0.0078125, 0.0078125, 0.0078125, 0.0000000, 0.0234375, 0.0000000, 0.0078125, -0.0078125, 0.0000000, -0.0078125, -0.0078125, -0.0078125, 0.0078125, 0.0156250, 0.0156250, 0.0078125, -0.0078125, 0.0000000, 0.0078125, 0.0234375, 0.0000000, 0.0156250, 0.0078125, 0.0000000, -0.0078125, 0.0156250, -0.0078125, 0.0078125, 0.0000000, 0.0078125, 0.0078125, -0.0156250, -0.0078125, 0.0000000, -0.0234375, 0.0000000, 0.0234375, -0.0078125, 0.0000000, -0.0234375, 0.0000000, -0.0078125, -0.0156250, 0.0000000, 0.0000000, 0.0078125, 0.0156250, -0.0078125, 0.0000000, 0.0000000, -0.0234375, -0.0078125, -0.0156250, 0.0078125, 0.0000000, 0.0078125, 0.0078125, 0.0078125, 0.0000000, -0.0078125, -0.0312500, -0.0078125, -0.0078125, 0.0234375, 0.0000000, -0.0078125, -0.0156250, 0.0000000, 0.0000000, 0.0234375, 0.0078125, 0.0078125, 0.0078125, 0.0000000, 0.0156250, 0.0156250, 0.0000000, 0.0000000, -0.0078125, 0.0078125, 0.0156250, 0.0078125, 0.0156250, 0.0000000, 0.0000000, 0.0000000, 0.0078125, 0.0078125, 0.0156250, 0.0000000, 0.0000000, 0.0000000, 0.0078125, 0.0078125, 0.0078125, -0.0078125, 0.0000000, 0.0000000, 0.0078125, -0.0078125, -0.0078125, 0.0000000, -0.0156250, -0.0078125, 0.0078125, -0.0156250, -0.0156250, 0.0156250, 0.0000000, -0.0078125, 0.0156250, 0.0000000, 0.0000000, 0.0000000, 0.0078125, 0.0078125, 0.0000000, 0.0000000, 0.0078125, 0.0156250, 0.0078125, 0.0078125, -0.0078125, 0.0000000, 0.0078125, 0.0000000, -0.0156250, -0.0078125, 0.0078125, 0.0078125, 0.0000000, 0.0000000, -0.0078125, 0.0000000, 0.0000000, 0.0000000, 0.0078125, -0.0156250, 0.0078125, -0.0156250, 0.0078125, -0.0078125, -0.0078125, 0.0078125, -0.0078125, -0.0078125, -0.0078125, 0.0000000, 0.0078125, -0.0156250, 0.0000000, 0.0000000, 0.0000000, 0.0078125, 0.0156250, 0.0078125, -0.0078125, 0.0000000, 0.0078125, -0.0078125, 0.0000000, 0.0000000, 0.0078125, -0.0078125, -0.0078125, -0.0078125, 0.0156250, 0.0000000, 0.0000000, -0.0156250, -0.0078125, 0.0000000, -0.0078125, -0.0078125, -0.0156250, -0.0078125, 0.0078125, 0.0000000, -0.0390625, 0.0000000, 0.0000000, -0.0156250, 0.0078125, -0.0156250, 0.0000000, 0.0000000, 0.0078125, 0.0156250, -0.0156250, 0.0000000, -0.0156250, -0.0078125, 0.0000000, 0.0000000, 0.0078125, -0.0078125, -0.0078125, -0.0078125, 0.0000000, 0.0078125, 0.0000000, 0.0000000, 0.0078125, 0.0078125, 0.0078125, -0.0078125, -0.0078125, -0.0156250, -0.0234375, 0.0000000, -0.0078125, -0.0156250, 0.0000000, 0.0078125, 0.0156250, 0.0000000, 0.0000000, 0.0000000, -0.0156250, 0.0078125, -0.0078125, 0.0156250, 0.0000000, 0.0156250, -0.0078125, 0.0156250, 0.0000000, 0.0156250, 0.0078125, -0.0078125, -0.0156250, 0.0000000, 0.0078125, 0.0078125, 0.0000000, 0.0156250, 0.0000000, 0.0078125, 0.0078125, -0.0234375, 0.0156250, -0.0078125, 0.0000000, -0.0078125, 0.0000000, 0.0000000, -0.0156250, -0.0156250, 0.0078125, 0.0000000, 0.0000000, 0.0000000, -0.0156250, 0.0000000, 0.0000000, -0.0078125, 0.0000000, 0.0000000, 0.0078125, 0.0000000, 0.0000000, 0.0000000, -0.0078125, 0.0078125, 0.0078125, 0.0000000, -0.0156250, 0.0000000, 0.0078125, -0.0078125, 0.0078125, -0.0234375, -0.0078125, -0.0078125, -0.0234375, 0.0000000, 0.0078125, -0.0078125, 0.0078125, -0.0156250, 0.0000000, -0.0156250, -0.0156250, 0.0000000, 0.0156250, -0.0078125, 0.0078125, 0.0000000, 0.0000000, 0.0000000, -0.0078125, -0.0078125, -0.0156250, 0.0156250, -0.0078125, -0.0156250, -0.0078125, 0.0078125, 0.0078125, -0.0078125, 0.0078125, 0.0078125, 0.0078125, -0.0078125, 0.0000000, 0.0078125, -0.0312500, -0.0078125, -0.0078125, -0.0156250, -0.0156250, -0.0156250, -0.0234375, 0.0078125, 0.0000000, -0.0234375, -0.0078125, 0.0000000, 0.0000000, -0.0156250, -0.0078125, 0.0000000, 0.0000000, 0.0000000, 0.0078125, -0.0078125, 0.0078125, 0.0156250, -0.0078125, 0.0078125, 0.0000000, 0.0078125, -0.0156250, -0.0156250, -0.0078125, 0.0000000, 0.0000000, 0.0000000, -0.0078125, -0.0078125, -0.0078125, -0.0078125, -0.0234375, -0.0078125, -0.0156250, -0.0156250, -0.0156250, 0.0000000, -0.0156250, -0.0156250, -0.0156250, 0.0234375, 0.0000000, 0.0078125, -0.0078125, -0.0078125, 0.0000000, 0.0156250, 0.0078125, 0.0000000, -0.0156250, -0.0078125, -0.0078125, -0.0078125, -0.0078125, 0.0000000, 0.0000000, -0.0078125, 0.0000000, -0.0078125, 0.0078125, -0.0078125, 0.0000000, 0.0000000, 0.0000000, -0.0078125, 0.0000000, 0.0000000, 0.0000000, -0.0078125, 0.0000000, -0.0156250, 0.0078125, -0.0234375, -0.0078125, 0.0078125, 0.0000000, 0.0000000, 0.0000000, -0.0156250, 0.0000000, 0.0156250, 0.0078125, -0.0078125, 0.0078125, 0.0078125, -0.0078125, -0.0078125, 0.0156250, -0.0078125, 0.0078125, 0.0078125, 0.0000000, -0.0156250, 0.0000000, 0.0078125, -0.0078125, 0.0000000, 0.0000000, 0.0000000, 0.0000000, -0.0078125, 0.0000000, 0.0078125, 0.0078125, 0.0234375, 0.0000000, -0.0078125, 0.0000000, 0.0000000, 0.0000000, 0.0078125, 0.0078125, 0.0000000, 0.0078125, 0.0000000, -0.0078125, 0.0000000, 0.0000000, -0.0078125, 0.0000000, 0.0000000, 0.0156250, 0.0078125, 0.0000000, -0.0078125, 0.0078125, -0.0078125, 0.0000000, -0.0078125, 0.0078125, 0.0078125, 0.0000000, -0.0156250, 0.0000000, -0.0156250, -0.0156250, 0.0234375, 0.0078125, 0.0000000, 0.0000000, 0.0000000, -0.0078125, 0.0000000, -0.0078125, 0.0000000, 0.0000000, 0.0078125, 0.0078125, -0.0156250, 0.0000000, 0.0000000, 0.0000000, -0.0078125, 0.0000000, 0.0078125, 0.0000000, 0.0000000, 0.0000000, -0.0156250, 0.0000000, 0.0000000, 0.0078125, 0.0000000, -0.0156250, 0.0078125, -0.0078125, 0.0000000, 0.0000000, 0.0000000, 0.0000000, 0.0000000, 0.0000000, 0.0156250, 0.0078125, -0.0078125, 0.0000000, 0.0000000, 0.0000000, -0.0156250, 0.0000000, 0.0000000, 0.0078125, -0.0078125, 0.0156250, 0.0078125, 0.0078125, 0.0000000, -0.0078125, 0.0156250, 0.0078125, -0.0078125, 0.0000000, -0.0078125, 0.0078125, 0.0156250, 0.0000000, 0.0000000, 0.0156250, 0.0000000, 0.0078125, 0.0000000, 0.0078125, 0.0078125, 0.0000000, 0.0000000, 0.0000000, 0.0078125, -0.0078125, 0.0078125, 0.0156250, -0.0078125, 0.0078125, -0.0078125, -0.0078125, 0.0000000, 0.0078125, 0.0078125, 0.0078125, 0.0000000, 0.0078125, 0.0000000, -0.0078125, 0.0078125, -0.0078125, 0.0078125, 0.0000000, 0.0000000, -0.0156250, -0.0078125, 0.0000000, 0.0078125, -0.0078125, 0.0000000, 0.0078125, 0.0078125, 0.0156250, 0.0000000, 0.0156250, 0.0078125, -0.0078125, -0.0078125, 0.0156250, 0.0078125, 0.0078125, -0.0156250, -0.0156250, 0.0000000, 0.0000000, 0.0000000, 0.0000000, 0.0078125, 0.0000000, 0.0000000, 0.0000000, 0.0000000, 0.0078125, -0.0078125, -0.0078125, 0.0000000, 0.0156250, -0.0078125, 0.0000000, -0.0078125, 0.0078125, 0.0000000, -0.0078125, 0.0000000, 0.0000000, -0.0078125, -0.0078125, -0.0078125, 0.0000000, -0.0078125, 0.0078125, 0.0078125, 0.0078125, 0.0078125, 0.0000000, -0.0078125, 0.0000000, -0.0078125, 0.0000000, 0.0000000, -0.0156250, 0.0078125, 0.0000000, 0.0156250, 0.0078125, 0.0000000, 0.0000000, -0.0078125, 0.0000000, 0.0000000, 0.0078125, 0.0000000, 0.0000000, 0.0000000, -0.0078125, 0.0078125, 0.0000000, 0.0000000, -0.0078125, -0.0078125, -0.0078125, 0.0078125, -0.0078125, -0.0078125, 0.0000000, 0.0000000, -0.0234375, 0.0000000, -0.0078125, -0.0078125, 0.0000000, -0.0156250, 0.0078125, 0.0078125, 0.0156250, 0.0078125, -0.0078125, 0.0000000, 0.0078125, 0.0078125, 0.0078125, 0.0078125, 0.0000000, -0.0078125, 0.0078125, 0.0078125, 0.0078125, 0.0078125, 0.0000000, 0.0000000, -0.0078125, 0.0078125, -0.0078125, 0.0000000, 0.0000000, -0.0078125, 0.0156250, 0.0078125, 0.0000000, 0.0000000, 0.0000000, 0.0000000, 0.0000000, 0.0000000, 0.0000000, -0.0078125, -0.0078125, 0.0078125, -0.0078125, 0.0000000, 0.0078125, 0.0000000, -0.0078125, -0.0078125, -0.0078125, 0.0078125, 0.0000000, 0.0000000, 0.0078125, 0.0000000, 0.0078125, -0.0078125, 0.0000000, -0.0078125, 0.0078125, 0.0000000, 0.0156250, 0.0156250, 0.0078125, -0.0078125, 0.0000000, 0.0156250, -0.0156250, -0.0078125, -0.0078125, 0.0000000, 0.0000000, 0.0000000, -0.0078125, 0.0000000, 0.0000000, 0.0078125, 0.0000000, 0.0078125, 0.0078125, -0.0078125, 0.0078125, 0.0000000, 0.0078125, 0.0000000, 0.0000000, 0.0078125, 0.0078125, 0.0000000, -0.0078125, -0.0078125, 0.0156250, -0.0078125, -0.0078125, 0.0156250, 0.0078125, -0.0078125, -0.0078125, 0.0000000, 0.0000000, -0.0078125, 0.0000000, 0.0078125, -0.0078125, 0.0078125, 0.0078125, 0.0078125, 0.0078125, 0.0078125, 0.0000000, 0.0000000, 0.0000000, 0.0000000, 0.0078125, 0.0156250, 0.0000000, -0.0156250, 0.0000000, 0.0078125, 0.0078125, 0.0078125, 0.0000000, -0.0078125, 0.0000000, -0.0078125, -0.0078125, -0.0078125, 0.0078125, 0.0000000, 0.0078125, -0.0078125, -0.0078125, 0.0000000, 0.0078125, 0.0000000, 0.0156250, 0.0078125, 0.0000000, 0.0000000, 0.0000000, -0.0078125, -0.0078125, 0.0156250, 0.0000000, 0.0078125, 0.0000000, 0.0000000, 0.0078125, 0.0000000, 0.0000000, 0.0156250, 0.0000000, 0.0078125, 0.0000000, 0.0000000, 0.0078125, 0.0000000, 0.0000000, 0.0078125, -0.0078125, 0.0000000, 0.0000000, -0.0156250, 0.0000000, 0.0000000, -0.0078125, 0.0000000, 0.0000000, -0.0156250, 0.0000000, -0.0078125, -0.0078125, 0.0000000, 0.0078125, 0.0078125, -0.0078125, 0.0000000, 0.0000000, 0.0000000, -0.0078125, 0.0000000, 0.0000000, -0.0078125, 0.0078125, -0.0078125, 0.0000000, 0.0078125, 0.0000000, 0.0000000, -0.0078125, 0.0078125, 0.0000000, 0.0000000, 0.0000000, 0.0000000, -0.0078125, 0.0000000, 0.0000000, -0.0078125, 0.0156250, 0.0000000, 0.0000000, 0.0000000, 0.0078125, -0.0078125, -0.0156250, 0.0000000, -0.0078125, 0.0000000, 0.0000000, 0.0000000, 0.0000000, 0.0078125, 0.0078125, 0.0000000, 0.0000000, 0.0000000, 0.0000000, -0.0078125, 0.0000000, 0.0000000, 0.0000000, 0.0000000, 0.0000000, 0.0000000, -0.0078125, 0.0000000, 0.0000000, 0.0000000, 0.0000000, 0.0000000, -0.0078125, 0.0078125, 0.0000000, 0.0000000, 0.0000000, -0.0078125, -0.0078125, 0.0078125, 0.0000000, 0.0000000, 0.0000000, -0.0078125, 0.0078125, -0.0078125, 0.0078125, 0.0000000, -0.0078125, 0.0000000, -0.0078125, -0.0078125, 0.0000000, 0.0000000, 0.0000000, 0.0000000, -0.0078125, 0.0000000, -0.0078125, 0.0000000, -0.0078125, 0.0000000, -0.0078125, 0.0000000, 0.0000000, 0.0078125, 0.0078125, 0.0078125, -0.0078125, 0.0078125, 0.0078125, 0.0000000, 0.0078125, 0.0000000, 0.0000000, -0.0078125, 0.0078125, 0.0000000, 0.0078125, 0.0078125, -0.0078125, -0.0078125, -0.0078125, 0.0000000, -0.0078125, 0.0000000, 0.0078125, -0.0078125, 0.0078125, 0.0078125, -0.0156250, -0.0078125, 0.0000000, 0.0000000, 0.0078125, 0.0078125, -0.0156250, 0.0078125, 0.0000000, 0.0078125, -0.0078125, 0.0078125, 0.0000000, 0.0000000, -0.0078125, -0.0078125, -0.0078125, 0.0000000, -0.0078125, 0.0156250, -0.0156250, -0.0078125, 0.0000000, 0.0078125, 0.0000000, 0.0000000, 0.0000000, -0.0078125, 0.0078125, 0.0000000, 0.0000000, 0.0000000, 0.0000000, 0.0078125, 0.0000000, 0.0000000, -0.0078125, 0.0000000, 0.0000000, 0.0000000, 0.0078125, 0.0000000, -0.0156250, 0.0000000, 0.0000000, -0.0078125, 0.0000000, 0.0000000, 0.0156250, 0.0000000, 0.0156250, 0.0000000, -0.0078125, 0.0000000, 0.0078125, -0.0078125, 0.0078125, -0.0078125, -0.0078125, -0.0156250, 0.0078125, 0.0078125, 0.0000000, 0.0078125, 0.0000000, 0.0000000, 0.0078125, 0.0000000, 0.0000000, -0.0078125, 0.0000000, 0.0000000, -0.0078125, 0.0000000, 0.0078125, -0.0156250, 0.0000000, 0.0000000, 0.0078125, 0.0000000, 0.0078125, 0.0000000, 0.0000000, 0.0000000, -0.0078125, -0.0078125, 0.0000000, 0.0000000, -0.0078125, 0.0000000, 0.0000000, 0.0078125, -0.0078125, -0.0156250, 0.0000000, -0.0078125, -0.0156250, -0.0078125, -0.0078125, -0.0078125, 0.0000000, -0.0078125, 0.0000000, 0.0078125, 0.0000000, -0.0078125, -0.0078125, -0.0078125, 0.0000000, 0.0000000, -0.0078125, 0.0000000, 0.0000000, -0.0078125, 0.0078125, 0.0000000, 0.0000000, 0.0000000, 0.0000000, 0.0000000, 0.0000000, 0.0000000, -0.0078125, 0.0000000, 0.0078125, 0.0000000, -0.0078125, 0.0000000, 0.0000000, 0.0000000, -0.0078125, 0.0078125, 0.0078125, 0.0078125, -0.0078125, -0.0078125, -0.0156250, 0.0000000, -0.0234375, 0.0000000, 0.0156250, 0.0000000, -0.0078125, -0.0078125, -0.0078125, 0.0000000, -0.0078125, 0.0000000, 0.0000000, 0.0078125, 0.0078125, 0.0000000, 0.0000000, -0.0078125, 0.0078125, 0.0000000, 0.0078125, 0.0078125, 0.0000000, -0.0156250, -0.0078125, 0.0000000, -0.0078125, 0.0000000, -0.0156250, 0.0078125, -0.0078125, 0.0000000, 0.0000000, -0.0078125, -0.0156250, -0.0078125, 0.0000000, 0.0000000, 0.0078125, 0.0078125, 0.0000000, 0.0078125, 0.0000000, 0.0000000, -0.0078125, 0.0000000, 0.0078125, -0.0078125, -0.0078125, 0.0000000, 0.0156250, -0.0078125, 0.0078125, 0.0156250, 0.0156250, -0.0078125, 0.0000000, 0.0000000, 0.0156250, 0.0078125, 0.0000000, 0.0000000, -0.0078125, 0.0078125, 0.0000000, 0.0000000, 0.0000000, 0.0000000, -0.0078125, 0.0000000, 0.0078125, 0.0078125, -0.0078125, 0.0078125, -0.0156250, 0.0000000, -0.0078125, 0.0000000, -0.0156250, 0.0000000, -0.0078125, 0.0000000, 0.0000000, 0.0000000, 0.0078125, 0.0000000, 0.0000000, 0.0078125, -0.0078125, 0.0000000, -0.0078125, -0.0234375, 0.0078125, 0.0000000, 0.0078125, 0.0156250, 0.0156250, -0.0078125, 0.0000000, 0.0000000, 0.0000000, 0.0000000, -0.0078125, 0.0078125, -0.0078125, -0.0078125, 0.0000000, 0.0078125, 0.0078125, 0.0000000, -0.0078125, -0.0078125, 0.0078125, 0.0000000, 0.0000000, -0.0078125, -0.0078125, -0.0078125, 0.0078125, 0.0000000, 0.0000000, 0.0000000, -0.0078125, -0.0078125, 0.0078125, 0.0156250, 0.0000000, -0.0078125, -0.0078125, 0.0078125, 0.0000000, -0.0078125, -0.0078125, -0.0078125, -0.0078125, 0.0000000, 0.0078125, 0.0000000, -0.0078125, 0.0000000, 0.0000000, 0.0000000, 0.0000000, -0.0156250, 0.0000000, 0.0000000, 0.0000000, 0.0000000, 0.0000000, 0.0000000, 0.0078125, -0.0078125, 0.0000000, 0.0078125, 0.0000000, 0.0000000, 0.0000000, 0.0078125, 0.0000000, -0.0078125, -0.0156250, 0.0000000, -0.0078125, -0.0078125, -0.0078125, 0.0000000, 0.0000000, -0.0078125, 0.0000000, 0.0000000, 0.0000000, -0.0078125, 0.0000000, 0.0000000, 0.0000000, -0.0078125, -0.0078125, 0.0000000, 0.0156250, -0.0156250, 0.0000000, 0.0078125, 0.0000000, -0.0078125, -0.0078125, -0.0078125, 0.0000000, 0.0000000, 0.0000000, -0.0156250, 0.0078125, 0.0156250, -0.0078125, 0.0078125, 0.0000000, -0.0156250, -0.0156250, 0.0000000, 0.0000000, 0.0078125, 0.0000000, 0.0000000, 0.0000000, -0.0078125, 0.0000000, 0.0000000, 0.0000000, -0.0156250, -0.0078125, -0.0156250, -0.0078125, 0.0078125, 0.0000000, 0.0078125, 0.0000000, 0.0000000, 0.0000000, 0.0078125, -0.0078125, -0.0156250, -0.0078125, -0.0078125, 0.0078125, 0.0078125, 0.0078125, 0.0000000, 0.0000000, -0.0156250, 0.0000000, -0.0234375, 0.0078125, 0.0000000, 0.0000000, 0.0000000, -0.0078125, -0.0156250, 0.0156250, 0.0078125, 0.0000000, 0.0000000, -0.0156250, 0.0078125, 0.0000000, 0.0078125, -0.0078125, -0.0078125, 0.0078125, 0.0000000, -0.0078125, 0.0000000, 0.0078125, 0.0078125, 0.0000000, 0.0078125, -0.0078125, 0.0000000, 0.0000000, 0.0000000, -0.0156250, 0.0000000, 0.0078125, 0.0156250, 0.0000000, -0.0156250, 0.0000000, 0.0078125, -0.0078125, 0.0000000, -0.0078125, -0.0078125, 0.0000000, -0.0078125, 0.0156250, 0.0000000, 0.0078125, -0.0078125, 0.0078125, 0.0078125, 0.0000000, -0.0078125, 0.0000000, -0.0078125, -0.0078125, 0.0000000, 0.0000000, 0.0000000, 0.0000000, -0.0156250, -0.0078125, 0.0078125, 0.0000000, 0.0078125, 0.0000000, -0.0078125, 0.0234375, 0.0000000, -0.0078125, 0.0000000, 0.0078125, 0.0000000, -0.0078125, -0.0078125, 0.0156250, -0.0078125, 0.0078125, -0.0078125, 0.0156250, -0.0156250, 0.0000000, -0.0078125, 0.0000000, 0.0000000, -0.0156250, 0.0000000, -0.0078125, -0.0156250, -0.0078125, 0.0000000, -0.0078125, 0.0156250, 0.0078125, 0.0156250, 0.0078125, -0.0078125, 0.0000000, 0.0000000, -0.0078125, 0.0000000, 0.0000000, -0.0156250, 0.0000000, 0.0000000, -0.0156250, -0.0156250, 0.0000000, 0.0000000, -0.0078125, -0.0078125, 0.0078125, 0.0078125, 0.0000000, 0.0000000, 0.0078125, 0.0078125, -0.0156250, 0.0000000, -0.0078125, 0.0000000, 0.0000000, -0.0078125, 0.0000000, 0.0078125, 0.0078125, 0.0000000, -0.0078125, -0.0078125, 0.0156250, 0.0078125, -0.0078125, -0.0078125, 0.0000000, 0.0000000, 0.0156250, 0.0000000, 0.0156250, 0.0078125, 0.0000000, -0.0078125, -0.0078125, 0.0000000, 0.0000000, -0.0078125, 0.0078125, 0.0000000, 0.0000000, 0.0000000, -0.0078125, -0.0078125, -0.0078125, -0.0078125, 0.0078125, 0.0000000, 0.0000000, 0.0000000, 0.0000000, 0.0000000, -0.0156250, -0.0078125, 0.0000000, -0.0078125, 0.0078125, 0.0000000, -0.0078125, 0.0078125, 0.0000000, -0.0078125, 0.0000000, 0.0000000, 0.0078125, -0.0078125, 0.0078125, 0.0078125, 0.0078125, -0.0078125, 0.0000000, 0.0000000, 0.0000000, -0.0156250, 0.0000000, 0.0078125, -0.0078125, 0.0000000, 0.0000000, 0.0000000, -0.0078125, -0.0078125, 0.0000000, -0.0156250, -0.0078125, -0.0156250, -0.0078125, 0.0078125, 0.0078125, -0.0078125, 0.0000000, 0.0078125, 0.0078125, 0.0078125, 0.0078125, 0.0000000, 0.0078125, -0.0156250, 0.0078125, 0.0000000, 0.0000000, 0.0000000, 0.0156250, 0.0000000, 0.0078125, 0.0000000, -0.0156250, 0.0078125, 0.0078125, -0.0078125, -0.0078125, -0.0078125, -0.0156250, 0.0078125, -0.0078125, 0.0078125, 0.0078125, -0.0078125, -0.0078125, -0.0078125, 0.0000000, -0.0078125, 0.0078125, -0.0078125, 0.0000000, 0.0000000, -0.0156250, 0.0078125, 0.0000000, 0.0000000, -0.0078125, 0.0000000, -0.0078125, 0.0000000, 0.0000000, -0.0078125, 0.0000000, 0.0000000, -0.0078125, -0.0078125, 0.0000000, -0.0156250, 0.0078125, 0.0078125, 0.0000000, 0.0156250, 0.0000000, 0.0000000, -0.0078125, 0.0000000, -0.0078125, 0.0000000, 0.0000000, 0.0000000, 0.0000000, -0.0156250, 0.0078125, 0.0000000, 0.0156250, 0.0000000, 0.0078125, -0.0078125, -0.0078125, 0.0000000, -0.0078125, -0.0078125, 0.0000000, 0.0078125, -0.0078125, 0.0000000, -0.0078125, 0.0000000, 0.0000000, -0.0078125, 0.0078125, 0.0078125, 0.0000000, -0.0078125, -0.0078125, -0.0078125, -0.0078125, -0.0078125, 0.0156250, 0.0078125, 0.0078125, 0.0078125, 0.0078125, 0.0078125, -0.0078125, 0.0000000, 0.0156250, -0.0078125, 0.0156250, -0.0078125, 0.0000000, 0.0000000, 0.0000000, -0.0078125, 0.0156250, 0.0078125, 0.0078125, 0.0000000, -0.0078125, 0.0078125, -0.0078125, 0.0000000, 0.0000000, 0.0078125, 0.0078125, 0.0000000, 0.0000000, 0.0000000, -0.0156250, 0.0000000, -0.0078125, -0.0078125, 0.0156250, -0.0078125, -0.0078125, 0.0078125, 0.0078125, -0.0078125, 0.0000000, 0.0000000, 0.0156250, -0.0156250, -0.0078125, 0.0000000, 0.0000000, -0.0156250, 0.0000000, 0.0078125, -0.0156250, 0.0078125, -0.0156250, 0.0000000, 0.0000000, 0.0000000, 0.0000000, 0.0000000, -0.0078125, 0.0000000, -0.0156250, 0.0156250, 0.0000000, -0.0078125, -0.0156250, 0.0078125, 0.0000000, 0.0156250, -0.0078125, -0.0078125, -0.0078125, -0.0078125, 0.0000000, 0.0078125, 0.0078125, 0.0000000, -0.0156250, -0.0078125, 0.0000000, 0.0078125, -0.0078125, 0.0000000, 0.0156250, 0.0000000, 0.0000000, 0.0000000, -0.0078125, -0.0078125, -0.0078125, -0.0078125, 0.0156250, 0.0078125, 0.0000000, 0.0078125, -0.0078125, -0.0078125, -0.0078125, -0.0078125, 0.0000000, -0.0078125, -0.0156250, -0.0078125, 0.0078125, 0.0000000, 0.0000000, 0.0078125, 0.0000000, 0.0000000, -0.0156250, 0.0000000, 0.0078125, 0.0078125, 0.0078125, -0.0078125, 0.0000000, 0.0000000, -0.0078125, 0.0000000, -0.0078125, 0.0000000, 0.0078125, 0.0000000, -0.0156250, 0.0078125, -0.0156250, 0.0000000, -0.0078125, 0.0000000, 0.0000000, 0.0078125, -0.0078125, 0.0000000, 0.0000000, 0.0078125, 0.0000000, 0.0000000, -0.0078125, -0.0078125, 0.0000000, 0.0078125, 0.0000000, 0.0078125, 0.0000000, 0.0078125, 0.0078125, 0.0000000, 0.0078125, -0.0078125, -0.0078125, 0.0078125, -0.0078125, -0.0078125, 0.0078125, 0.0000000, 0.0078125, 0.0000000, 0.0000000, 0.0000000, 0.0000000, 0.0078125, 0.0000000, 0.0000000, 0.0078125, -0.0078125, 0.0078125, 0.0078125, 0.0000000, -0.0078125, 0.0000000, 0.0078125, 0.0078125, 0.0000000, 0.0000000, -0.0078125, 0.0000000, -0.0078125, 0.0000000, 0.0000000, 0.0000000, 0.0000000, 0.0000000, 0.0078125, 0.0078125, 0.0078125, -0.0078125, -0.0078125, -0.0078125, 0.0000000, 0.0000000, 0.0078125, 0.0078125, 0.0000000, -0.0078125, -0.0078125, 0.0078125, 0.0078125, 0.0000000, 0.0078125, -0.0078125, -0.0078125, -0.0078125, 0.0078125, 0.0000000, -0.0078125, -0.0078125, -0.0078125, 0.0000000, -0.0078125, -0.0078125, -0.0078125, 0.0000000, 0.0078125, -0.0078125, -0.0078125, -0.0078125, -0.0078125, 0.0000000, 0.0000000, 0.0078125, 0.0078125, 0.0000000, -0.0078125, -0.0078125, 0.0000000, 0.0000000, 0.0000000, -0.0078125, 0.0000000, -0.0078125, -0.0156250, 0.0156250, 0.0000000, 0.0078125, 0.0078125, 0.0000000, 0.0000000, 0.0000000, 0.0078125, -0.0078125, 0.0000000, 0.0078125, -0.0078125, 0.0000000, 0.0078125, -0.0078125, -0.0078125, 0.0000000, -0.0078125, 0.0078125, 0.0000000, 0.0000000, 0.0000000, -0.0078125, 0.0078125, -0.0078125, 0.0078125, 0.0000000, 0.0000000, -0.0078125, 0.0078125, 0.0000000, 0.0000000, 0.0000000, 0.0000000, 0.0000000, 0.0000000, 0.0000000, -0.0078125, 0.0000000, 0.0078125, 0.0078125, -0.0078125, 0.0078125, 0.0000000, 0.0000000, 0.0000000, 0.0078125, 0.0078125, -0.0156250, 0.0000000, 0.0078125, 0.0078125, 0.0000000, 0.0000000, 0.0000000, 0.0000000, -0.0078125, -0.0078125, 0.0000000, 0.0000000, 0.0156250, -0.0078125, 0.0078125, 0.0078125, 0.0078125, 0.0000000, -0.0078125, 0.0078125, 0.0156250, 0.0000000, 0.0000000, 0.0078125, 0.0000000, 0.0000000, 0.0000000, 0.0000000, 0.0078125, 0.0000000, -0.0078125, 0.0078125, 0.0078125, 0.0000000, 0.0000000, 0.0000000, -0.0078125, 0.0000000, -0.0078125, 0.0156250, 0.0000000, -0.0078125, 0.0000000, -0.0156250, 0.0000000, 0.0078125, -0.0078125, 0.0000000, 0.0000000, 0.0000000, -0.0156250, 0.0000000, -0.0078125, -0.0078125, 0.0000000, -0.0078125, -0.0078125, 0.0000000, -0.0078125, 0.0000000, 0.0078125, -0.0078125, 0.0000000, -0.0156250, 0.0000000, 0.0000000, 0.0000000, -0.0078125, 0.0000000, 0.0078125, 0.0078125, 0.0000000, -0.0078125, -0.0078125, -0.0078125, 0.0000000, 0.0078125, 0.0000000, -0.0078125, -0.0078125, 0.0078125, 0.0156250, 0.0000000, 0.0078125, -0.0078125, 0.0000000, -0.0078125, 0.0000000, 0.0000000, 0.0000000, 0.0156250, -0.0078125, -0.0078125, 0.0000000, -0.0078125, 0.0078125, 0.0078125, 0.0078125, 0.0078125, 0.0000000, 0.0078125, 0.0000000, -0.0078125, 0.0078125, -0.0078125, 0.0000000, 0.0078125, -0.0078125, 0.0000000, 0.0000000, 0.0078125, 0.0000000, 0.0000000, 0.0078125, 0.0078125, 0.0000000, 0.0078125, 0.0000000, 0.0078125, 0.0078125, 0.0000000, 0.0000000, 0.0078125, 0.0078125, 0.0078125, 0.0000000, 0.0000000, 0.0000000, -0.0078125, 0.0000000, 0.0000000, 0.0000000, 0.0078125, 0.0078125, 0.0000000, 0.0000000, 0.0000000, 0.0000000, 0.0000000, 0.0078125, 0.0078125, 0.0000000, 0.0078125, 0.0000000, 0.0078125, -0.0078125, 0.0000000, 0.0000000, 0.0078125, 0.0000000, 0.0000000, 0.0000000, 0.0078125, 0.0000000, 0.0078125, 0.0078125, 0.0078125, 0.0000000, -0.0078125, -0.0078125, 0.0078125, 0.0000000, -0.0078125, 0.0000000, -0.0078125, 0.0078125, 0.0078125, 0.0078125, 0.0078125, -0.0078125, -0.0078125, 0.0078125, 0.0000000, 0.0078125, -0.0078125, 0.0000000, 0.0000000, 0.0000000, -0.0078125, 0.0078125, 0.0078125, 0.0000000, 0.0000000, 0.0000000, 0.0000000, 0.0000000, -0.0078125, 0.0078125, 0.0000000, 0.0000000, 0.0078125, 0.0000000, -0.0078125, -0.0078125, 0.0000000, 0.0000000, 0.0078125, 0.0078125, 0.0000000, 0.0078125, -0.0078125, -0.0078125, -0.0078125, 0.0000000, 0.0078125, -0.0078125, 0.0000000, 0.0000000, -0.0078125, -0.0078125, 0.0078125, 0.0000000, -0.0078125, 0.0000000, 0.0000000, 0.0000000, -0.0078125, 0.0000000, 0.0078125, -0.0078125, -0.0078125, 0.0000000, -0.0078125, 0.0000000, -0.0078125, -0.0078125, -0.0078125, 0.0078125, -0.0078125, 0.0078125, 0.0000000, 0.0000000, 0.0000000, 0.0000000, 0.0078125, 0.0078125, -0.0078125, 0.0000000, 0.0000000, 0.0000000, -0.0078125, 0.0000000, 0.0000000, -0.0078125, -0.0078125, 0.0000000, 0.0078125, 0.0000000, 0.0078125, -0.0078125, -0.0078125, -0.0078125, 0.0078125, -0.0078125, -0.0078125, 0.0078125, 0.0000000, -0.0078125, 0.0000000, 0.0000000, 0.0000000, 0.0000000, 0.0000000, 0.0000000, -0.0078125, 0.0000000, 0.0078125, 0.0000000, 0.0078125, -0.0078125, 0.0078125, 0.0000000, 0.0078125, 0.0000000, 0.0000000, 0.0000000, 0.0078125, -0.0078125, 0.0078125, -0.0078125, 0.0078125, -0.0078125, 0.0000000, 0.0000000, 0.0156250, -0.0078125, -0.0078125, 0.0000000, 0.0000000, -0.0078125, -0.0078125, 0.0000000, -0.0078125, 0.0078125, -0.0078125, 0.0000000, 0.0078125, -0.0078125, -0.0078125, 0.0000000, -0.0078125, 0.0078125, -0.0078125, -0.0078125, 0.0078125, -0.0078125, 0.0000000, 0.0000000, -0.0156250, 0.0000000, -0.0078125, -0.0156250, 0.0078125, 0.0000000, 0.0000000, 0.0000000, 0.0078125, 0.0000000, -0.0078125, -0.0078125, -0.0078125, -0.0078125, -0.0078125, 0.0000000, 0.0078125, 0.0078125, 0.0078125, 0.0078125, 0.0000000, 0.0000000, 0.0000000, -0.0078125, -0.0078125, 0.0000000, -0.0078125, -0.0078125, 0.0000000, 0.0000000, 0.0078125, 0.0078125, -0.0156250, -0.0078125, -0.0078125, 0.0000000, -0.0078125, 0.0000000, 0.0078125, 0.0000000, 0.0000000, -0.0078125, 0.0000000, 0.0000000, -0.0078125, 0.0000000, 0.0078125, 0.0156250, -0.0078125, 0.0000000, -0.0156250, 0.0000000, -0.0078125, 0.0000000, 0.0078125, -0.0078125, -0.0156250, 0.0000000, 0.0000000, 0.0000000, -0.0078125, -0.0078125, 0.0000000, 0.0000000, 0.0000000, 0.0000000, 0.0078125, 0.0000000, 0.0078125, 0.0078125, 0.0078125, 0.0000000, 0.0000000, 0.0000000, -0.0078125, 0.0000000, -0.0078125, 0.0000000, -0.0078125, 0.0000000, 0.0000000, -0.0156250, 0.0000000, 0.0000000, 0.0000000, 0.0000000, 0.0000000, 0.0078125, 0.0156250, 0.0000000, 0.0078125, 0.0000000, 0.0156250, 0.0000000, -0.0078125, -0.0078125, 0.0078125, -0.0078125, -0.0078125, 0.0000000, 0.0156250, 0.0000000, 0.0078125, 0.0000000, 0.0156250, -0.0078125, -0.0078125, 0.0000000, 0.0000000, 0.0000000, 0.0000000, 0.0000000, -0.0078125, 0.0078125, 0.0000000, 0.0078125, 0.0078125, -0.0078125, 0.0000000, 0.0000000, 0.0078125, 0.0078125, -0.0078125, 0.0078125, -0.0078125, 0.0000000, -0.0078125, 0.0000000, 0.0000000, 0.0000000, -0.0078125, -0.0078125, 0.0000000, 0.0078125, 0.0000000, -0.0078125, 0.0000000, -0.0156250, -0.0078125, 0.0000000, 0.0000000, -0.0156250, -0.0078125, 0.0000000, 0.0078125, 0.0000000, 0.0078125, 0.0078125, 0.0000000, -0.0156250, -0.0078125, -0.0078125, -0.0078125, 0.0078125, 0.0000000, 0.0000000, 0.0156250, 0.0078125, 0.0078125, 0.0156250, 0.0000000, 0.0000000, -0.0078125, 0.0000000, -0.0078125, 0.0000000, 0.0000000, -0.0078125, 0.0000000, -0.0078125, 0.0000000, 0.0000000, 0.0000000, 0.0000000, 0.0156250, 0.0000000, 0.0078125, -0.0078125, -0.0078125, 0.0000000, 0.0000000, -0.0078125, 0.0000000, 0.0078125, 0.0078125, 0.0000000, -0.0078125, 0.0000000, 0.0000000, 0.0000000, 0.0000000, 0.0000000, 0.0000000, 0.0000000, 0.0078125, 0.0078125, 0.0078125, 0.0000000, 0.0078125, 0.0000000, 0.0156250, 0.0000000, -0.0078125, 0.0156250, -0.0156250, 0.0000000, 0.0000000, 0.0078125, 0.0000000, -0.0078125, 0.0000000, 0.0000000, -0.0078125, 0.0078125, 0.0000000, 0.0078125, 0.0000000, 0.0000000, 0.0000000, 0.0000000, 0.0156250, -0.0078125, -0.0078125, 0.0078125, 0.0078125, -0.0078125, 0.0000000, 0.0078125, 0.0234375, -0.0078125, 0.0000000, 0.0078125, 0.0000000, -0.0078125, -0.0078125, 0.0078125, 0.0000000, 0.0000000, 0.0000000, -0.0156250, 0.0000000, 0.0078125, -0.0078125, 0.0156250, 0.0000000, 0.0000000, -0.0078125, -0.0078125, 0.0000000, 0.0078125, 0.0000000, 0.0000000, 0.0000000, 0.0000000, -0.0078125, 0.0000000, -0.0078125, 0.0000000, 0.0000000, -0.0078125, 0.0000000, 0.0000000, -0.0078125, -0.0078125, 0.0000000, 0.0078125, 0.0000000, -0.0078125, -0.0078125, -0.0078125, -0.0078125, -0.0078125, 0.0078125, 0.0078125, 0.0078125, 0.0078125, 0.0000000, 0.0000000, -0.0078125, -0.0078125, 0.0000000, 0.0000000, 0.0000000, -0.0078125, 0.0000000, -0.0078125, 0.0000000, 0.0000000, 0.0000000, -0.0078125, 0.0000000, 0.0000000, 0.0000000, 0.0000000, 0.0000000, 0.0078125, 0.0000000, 0.0000000, -0.0156250, -0.0078125, 0.0000000, -0.0156250, 0.0000000, 0.0000000, 0.0000000, -0.0078125, -0.0078125, 0.0000000, -0.0078125, 0.0078125, 0.0078125, 0.0000000, -0.0156250, -0.0156250, 0.0078125, 0.0078125, 0.0000000, 0.0078125, 0.0000000, -0.0078125, 0.0078125, -0.0078125, 0.0000000, -0.0078125, 0.0000000, -0.0078125, 0.0156250, 0.0078125, 0.0078125, -0.0078125, 0.0000000, 0.0000000, -0.0078125, 0.0078125, -0.0078125, 0.0000000, -0.0078125, 0.0000000, -0.0078125, 0.0000000, -0.0078125, -0.0078125, 0.0000000, -0.0078125, 0.0078125, 0.0000000, 0.0000000, 0.0078125, 0.0156250, -0.0078125, -0.0078125, 0.0078125, 0.0000000, -0.0156250, -0.0078125, -0.0078125, 0.0078125, 0.0000000, 0.0078125, 0.0000000, -0.0078125, 0.0000000, -0.0078125, -0.0078125, 0.0078125, -0.0078125, 0.0000000, 0.0000000, -0.0156250, 0.0000000, 0.0000000, 0.0078125, -0.0078125, -0.0078125, -0.0078125, 0.0000000, 0.0000000, 0.0156250, 0.0000000, -0.0156250, -0.0078125, -0.0078125, -0.0156250, 0.0000000, -0.0156250, -0.0078125, -0.0156250, -0.0078125, -0.0078125, 0.0000000, 0.0000000, 0.0156250, -0.0078125, 0.0000000, -0.0078125, -0.0078125, -0.0078125, 0.0000000, -0.0078125, -0.0078125, 0.0078125, 0.0078125, -0.0156250, -0.0078125, -0.0078125, -0.0156250, 0.0000000, 0.0078125, -0.0078125, -0.0078125, 0.0000000, -0.0156250, -0.0078125, 0.0000000, 0.0078125, 0.0156250, 0.0000000, 0.0000000, -0.0078125, 0.0078125, -0.0078125, 0.0000000, 0.0078125, 0.0000000, 0.0078125, -0.0078125, 0.0000000, -0.0078125, -0.0078125, 0.0000000, 0.0000000, 0.0000000, 0.0000000, -0.0078125, -0.0078125, 0.0000000, -0.0078125, -0.0078125, 0.0156250, 0.0000000, -0.0078125, 0.0000000, -0.0078125, 0.0078125, -0.0156250, 0.0078125, 0.0000000, -0.0078125, 0.0000000, -0.0078125, 0.0078125, 0.0000000, 0.0000000, 0.0000000, 0.0078125, 0.0000000, 0.0000000, -0.0078125, -0.0078125, 0.0000000, -0.0078125, -0.0078125, -0.0156250, 0.0078125, 0.0000000, 0.0078125, 0.0078125, 0.0000000, -0.0078125, 0.0000000, 0.0078125, 0.0000000, 0.0156250, 0.0000000, 0.0078125, 0.0000000, 0.0000000, -0.0156250, 0.0000000, 0.0078125, 0.0078125, -0.0078125, 0.0000000, -0.0078125, 0.0078125, -0.0078125, 0.0078125, 0.0078125, 0.0000000, 0.0000000, 0.0000000, 0.0000000, 0.0078125, 0.0078125, -0.0078125, 0.0000000, -0.0078125, 0.0078125, 0.0000000, 0.0078125, 0.0000000, -0.0078125, 0.0000000, -0.0078125, 0.0000000, 0.0078125, 0.0000000, -0.0156250, -0.0078125, 0.0000000, 0.0000000, 0.0078125, -0.0078125, -0.0078125, -0.0078125, 0.0000000, 0.0000000, 0.0000000, 0.0000000, -0.0078125, 0.0000000, 0.0000000, -0.0078125, 0.0000000, -0.0078125, -0.0078125, 0.0000000, 0.0000000, 0.0078125, 0.0078125, 0.0156250, -0.0078125, -0.0078125, -0.0156250, 0.0000000, 0.0000000, 0.0078125, 0.0000000, 0.0000000, 0.0000000, 0.0000000, 0.0000000, 0.0156250, 0.0156250, -0.0156250, -0.0078125, 0.0000000, 0.0000000, 0.0000000, 0.0000000, 0.0078125, 0.0000000, 0.0000000, -0.0078125, 0.0078125, 0.0000000, 0.0000000, -0.0078125, 0.0000000, 0.0078125, 0.0000000, -0.0078125, -0.0234375, 0.0000000, -0.0078125, 0.0000000, 0.0000000, 0.0000000, 0.0000000, 0.0000000, -0.0156250, 0.0156250, -0.0078125, 0.0000000, 0.0000000, 0.0000000, 0.0000000, 0.0000000, 0.0078125, 0.0000000, 0.0000000, 0.0000000, 0.0156250, 0.0000000, 0.0078125, 0.0000000, -0.0078125, 0.0000000, 0.0000000, 0.0000000, -0.0078125, 0.0156250, 0.0078125, 0.0000000, 0.0000000, 0.0000000, -0.0078125, 0.0078125, 0.0000000, 0.0078125, 0.0156250, -0.0078125, 0.0000000, 0.0000000, 0.0000000, 0.0078125, 0.0078125, 0.0000000, 0.0078125, -0.0078125, 0.0000000, 0.0000000, 0.0078125, 0.0000000, 0.0000000, 0.0078125, 0.0078125, 0.0000000, -0.0078125, 0.0000000, -0.0078125, -0.0078125, 0.0000000, 0.0000000, -0.0078125, 0.0078125, -0.0078125, 0.0000000, 0.0078125, 0.0000000, 0.0000000, 0.0000000, 0.0000000, 0.0000000, -0.0078125, 0.0000000, 0.0000000, -0.0078125, 0.0000000, 0.0000000, 0.0000000, -0.0078125, -0.0078125, -0.0078125, 0.0078125, 0.0078125, 0.0000000, -0.0078125, -0.0078125, 0.0078125, -0.0078125, 0.0000000, -0.0078125, -0.0078125, -0.0078125, 0.0000000, 0.0078125, 0.0156250, 0.0000000, -0.0078125, 0.0000000, -0.0078125, 0.0078125, 0.0000000, 0.0078125, 0.0078125, -0.0078125, -0.0078125, -0.0234375, -0.0234375, 0.0390625, 0.0234375, 0.0156250, -0.0078125, 0.0390625, -0.0234375, 0.0234375, 0.0312500, -0.0078125, 0.0000000, 0.0234375, -0.0156250, -0.0156250, 0.0078125, -0.0078125, 0.0000000, -0.0156250, -0.0078125, 0.0000000, -0.0078125, 0.0156250, -0.0312500, 0.0156250, -0.0234375, 0.0156250, 0.0234375, 0.0000000, 0.0078125, 0.0000000, 0.0078125, 0.0234375, 0.0156250, -0.0078125, 0.0000000, 0.0000000, -0.0078125, 0.0156250, -0.0156250, -0.0156250, 0.0156250, -0.0078125, 0.0000000, -0.0234375, 0.0000000, 0.0234375, 0.0234375, 0.0078125, 0.0156250, -0.0078125, 0.0078125, -0.0156250, -0.0078125, 0.0000000, 0.0000000, 0.0156250, 0.0000000, -0.0156250, -0.0078125, 0.0234375, 0.0000000, 0.0078125, 0.0000000, 0.0234375, -0.0312500, 0.0000000, -0.0078125, -0.0078125, 0.0234375, 0.0000000, 0.0312500, -0.0156250, 0.0156250, -0.0234375, 0.0156250, 0.0078125, -0.0234375, 0.0156250, 0.0000000, -0.0078125, 0.0234375, 0.0234375, 0.0078125, 0.0078125, 0.0000000, 0.0156250, -0.0078125, 0.0156250, -0.0078125, 0.0312500, 0.0000000, -0.0078125, 0.0078125, 0.0156250, -0.0156250, -0.0078125, 0.0078125, 0.0234375, 0.0000000, 0.0078125, -0.0390625, 0.0312500, 0.0078125, -0.0078125, -0.0312500, 0.0156250, 0.0312500, -0.0078125, 0.0000000, 0.0078125, 0.0078125, -0.0078125, 0.0078125, -0.0078125, 0.0000000, 0.0078125, 0.0000000, -0.0156250, 0.0156250, -0.0078125, 0.0000000, -0.0078125, 0.0000000, -0.0078125, 0.0156250, 0.0000000, 0.0078125, 0.0000000, -0.0078125, -0.0078125, 0.0234375, 0.0078125, -0.0078125, 0.0156250, 0.0000000, -0.0156250, 0.0078125, 0.0234375, -0.0078125, 0.0312500, -0.0078125, 0.0156250, 0.0156250, 0.0234375, 0.0078125, 0.0000000, 0.0000000, 0.0000000, 0.0468750, -0.0078125, 0.0312500, 0.0078125, 0.0078125, 0.0078125, 0.0078125, 0.0156250, 0.0234375, 0.0390625, 0.0000000, 0.0078125, -0.0078125, 0.0000000, 0.0234375, -0.0234375, -0.0078125, 0.0078125, -0.0234375, -0.0078125, -0.0078125, -0.0390625, 0.0078125, 0.0000000, 0.0078125, 0.0078125, 0.0078125, 0.0000000, 0.0312500, 0.0000000, 0.0000000, -0.0078125, -0.0078125, 0.0078125, -0.0078125, 0.0078125, 0.0000000, 0.0156250, -0.0234375, 0.0000000, 0.0078125, -0.0312500, 0.0156250, 0.0000000, 0.0000000, 0.0156250, -0.0078125, 0.0156250, 0.0078125, 0.0078125, -0.0078125, -0.0078125, 0.0234375, -0.0156250, 0.0000000, -0.0078125, -0.0078125, 0.0390625, 0.0234375, -0.0234375, 0.0078125, 0.0312500, 0.0000000, 0.0078125, 0.0078125, 0.0000000, -0.0156250, -0.0312500, 0.0078125, 0.0078125, 0.0000000, -0.0156250, 0.0078125, 0.0234375, 0.0000000, -0.0078125, -0.0156250, -0.0156250, -0.0078125, 0.0078125, 0.0390625, 0.0078125, 0.0078125, 0.0000000, 0.0078125, 0.0078125, 0.0000000, 0.0000000, -0.0078125, -0.0078125, -0.0156250, 0.0234375, 0.0000000, 0.0078125, 0.0000000, 0.0000000, -0.0078125, -0.0078125, 0.0234375, 0.0000000, 0.0000000, -0.0078125, -0.0078125, -0.0078125, 0.0156250, 0.0312500, 0.0078125, -0.0312500, -0.0078125, -0.0156250, -0.0156250, 0.0078125, -0.0156250, 0.0156250, -0.0078125, -0.0156250, 0.0156250, 0.0000000, -0.0156250, 0.0078125, 0.0000000, -0.0156250, -0.0156250, -0.0468750, -0.0312500, 0.0000000, 0.0078125, -0.0156250, -0.0156250, 0.0000000, 0.0000000, 0.0000000, 0.0234375, -0.0156250, 0.0000000, -0.0234375, 0.0000000, 0.0000000, -0.0156250, -0.0078125, 0.0000000, 0.0078125, 0.0078125, -0.0078125, 0.0078125, 0.0000000, -0.0078125, -0.0156250, 0.0078125, -0.0625000, 0.0000000, -0.0078125, 0.0078125, -0.0156250, -0.0156250, 0.0000000, -0.0078125, -0.0078125, 0.0000000, 0.0000000, -0.0156250, -0.0078125, -0.0234375, -0.0156250, 0.0234375, 0.0078125, 0.0000000, -0.0156250, -0.0078125, -0.0078125, 0.0078125, -0.0078125, -0.0156250, -0.0078125, 0.0078125, 0.0000000, -0.0078125, -0.0312500, -0.0156250, 0.0000000, -0.0156250, 0.0000000, 0.0078125, -0.0078125, -0.0390625, -0.0078125, -0.0156250, -0.0156250, -0.0156250, -0.0156250, -0.0078125, -0.0156250, 0.0078125, 0.0078125, -0.0156250, 0.0000000, 0.0000000, -0.0156250, -0.0156250, 0.0078125, -0.0156250, 0.0000000, 0.0000000, 0.0000000, 0.0156250, 0.0000000, 0.0078125, -0.0078125, -0.0312500, -0.0156250, -0.0156250, -0.0234375, -0.0078125, 0.0000000, -0.0078125, 0.0000000, 0.0078125, 0.0156250, -0.0078125, -0.0234375, -0.0078125, -0.0234375, 0.0156250, -0.0468750, -0.0156250, 0.0000000, -0.0078125, 0.0078125, -0.0078125, -0.0078125, 0.0078125, 0.0000000, -0.0156250, -0.0078125, 0.0234375, -0.0234375, -0.0390625, 0.0156250, 0.0156250, 0.0234375, 0.0156250, 0.0234375, -0.0078125, 0.0468750, -0.0468750, 0.0078125, -0.0078125, 0.0156250, -0.0078125, 0.0000000, -0.0078125, 0.0234375, -0.0156250, -0.0234375, -0.0156250, 0.0000000, -0.0468750, 0.0234375, 0.0000000, 0.0156250, 0.0000000, 0.0000000, -0.0312500, -0.0156250, 0.0000000, -0.0078125, 0.0078125, 0.0000000, 0.0156250, 0.0000000, -0.0156250, -0.0234375, -0.0234375, 0.0156250, -0.0078125, 0.0000000, -0.0078125, -0.0312500, -0.0468750, 0.0078125, 0.0390625, 0.0000000, -0.0078125, 0.0078125, 0.0078125, 0.0078125, 0.0078125, -0.0078125, 0.0156250, 0.0000000, 0.0000000, 0.0000000, -0.0156250, -0.0078125, 0.0078125, -0.0078125, -0.0156250, -0.0156250, 0.0078125, 0.0156250, 0.0000000, -0.0078125, -0.0234375, 0.0000000, -0.0156250, -0.0234375, 0.0000000, -0.0156250, 0.0312500, -0.0234375, -0.0078125, 0.0000000, -0.0078125, -0.0156250, 0.0078125, 0.0156250, 0.0078125, 0.0000000, -0.0078125, 0.0000000, 0.0078125, -0.0078125, -0.0234375, -0.0312500, 0.0078125, -0.0156250, -0.0156250, -0.0156250, -0.0156250, 0.0156250, -0.0078125, 0.0000000, -0.0078125, 0.0078125, 0.0156250, 0.0000000, -0.0234375, 0.0156250, 0.0234375, -0.0078125, -0.0234375, 0.0156250, 0.0078125, 0.0000000, 0.0078125, -0.0078125, 0.0078125, 0.0078125, -0.0312500, 0.0078125, 0.0078125, 0.0000000, -0.0078125, -0.0234375, 0.0156250, 0.0078125, 0.0000000, 0.0078125, 0.0078125, -0.0156250, 0.0078125, 0.0000000, 0.0000000, -0.0156250, -0.0078125, -0.0078125, -0.0156250, 0.0000000, -0.0156250, 0.0000000, 0.0156250, -0.0312500, 0.0000000, -0.0156250, -0.0078125, -0.0312500, 0.0078125, -0.0078125, 0.0234375, 0.0156250, -0.0156250, -0.0312500, 0.0000000, 0.0078125, 0.0390625, 0.0156250, 0.0156250, 0.0078125, 0.0078125, 0.0000000, -0.0078125, -0.0078125, 0.0234375, -0.0078125, 0.0078125, 0.0078125, 0.0078125, -0.0156250, 0.0156250, -0.0156250, 0.0000000, 0.0078125, -0.0234375, 0.0078125, -0.0078125, -0.0078125, -0.0234375, -0.0078125, -0.0156250, 0.0078125, -0.0234375, 0.0078125, -0.0078125, 0.0000000, 0.0078125, -0.0234375, -0.0156250, -0.0234375, 0.0156250, 0.0000000, -0.0156250, 0.0156250, -0.0156250, -0.0078125, 0.0078125, 0.0078125, 0.0156250, -0.0078125, 0.0156250, -0.0156250, -0.0234375, -0.0312500, 0.0000000, 0.0000000, -0.0234375, -0.0234375, -0.0078125, -0.0312500, -0.0234375, 0.0000000, 0.0312500, 0.0234375, 0.0000000, 0.0000000, 0.0078125, 0.0078125, -0.0156250, 0.0234375, 0.0000000, 0.0078125, -0.0156250, 0.0156250, -0.0078125, 0.0156250, 0.0078125, -0.0156250, -0.0078125, 0.0156250, -0.0156250, -0.0156250, 0.0078125, -0.0234375, -0.0078125, 0.0156250, 0.0234375, 0.0078125, 0.0234375, -0.0312500, -0.0078125, -0.0078125, -0.0078125, 0.0156250, 0.0156250, -0.0156250, -0.0156250, 0.0156250, -0.0156250, -0.0078125, -0.0078125, -0.0156250, -0.0156250, 0.0000000, 0.0000000, 0.0156250, -0.0078125, -0.0078125, -0.0078125, -0.0234375, -0.0156250, 0.0078125, -0.0156250, 0.0078125, 0.0000000, -0.0312500, -0.0078125, 0.0000000, 0.0078125, -0.0078125, -0.0156250, 0.0078125, -0.0078125, -0.0312500, 0.0156250, -0.0078125, 0.0000000, -0.0078125, -0.0156250, -0.0156250, 0.0000000, 0.0156250, -0.0234375, 0.0078125, 0.0000000, -0.0078125, -0.0234375, 0.0000000, -0.0078125, -0.0078125, -0.0156250, 0.0000000, 0.0000000, -0.0234375, -0.0156250, -0.0156250, -0.0312500, -0.0156250, 0.0000000, 0.0156250, 0.0000000, -0.0156250, 0.0000000, -0.0078125, 0.0234375, 0.0000000, -0.0156250, 0.0078125, -0.0390625, 0.0078125, -0.0312500, -0.0312500, 0.0156250, 0.0156250, -0.0234375, 0.0078125, 0.0078125, -0.0078125, -0.0078125, -0.0234375, -0.0156250, -0.0078125, 0.0078125, -0.0234375, 0.0000000, -0.0312500, -0.0156250, -0.0312500, -0.0078125, 0.0156250, 0.0078125, -0.0156250, 0.0000000, 0.0156250, -0.0312500, -0.0156250, -0.0156250, 0.0000000, -0.0156250, -0.0078125, 0.0156250, -0.0156250, -0.0234375, -0.0078125, 0.0000000, -0.0078125, 0.0078125, -0.0312500, 0.0156250, -0.0156250, -0.0156250, 0.0000000, 0.0156250, 0.0234375, -0.0156250, 0.0234375,