//Numpy array shape [5, 5, 4, 16]
//Min -0.429687500000
//Max 0.382812500000
//Number of zeros 58

#ifndef W4_H_
#define W4_H_

#ifndef __SYNTHESIS__
weight4_t w4[1600];
#else
weight4_t w4[1600] = {-3.4062500, 0.3984375, -2.5390625, -0.9375000, 0.3593750, 0.3671875, -1.0468750, 0.9687500, -1.0546875, 1.5625000, 1.4140625, 3.2031250, 0.2343750, -0.1328125, 0.8515625, 2.2500000, -2.5625000, -0.9531250, 1.4609375, 1.4921875, -0.8593750, 1.4062500, -0.6718750, 2.0546875, -2.3984375, -1.0000000, -2.0546875, 1.2500000, -1.0312500, 0.2031250, 0.2812500, 1.8359375, -0.5625000, 1.0468750, 0.3906250, 4.1875000, -1.8828125, 1.0312500, -4.3750000, -0.2968750, -0.7031250, 0.1406250, 0.8984375, 3.0390625, -1.2265625, -0.2578125, -2.6171875, 5.1484375, -1.7812500, 0.6250000, 0.3984375, -0.6250000, -0.8515625, -1.3828125, 0.7890625, -0.9531250, -4.0781250, 3.0781250, 0.9609375, -0.5937500, -0.3906250, -1.4921875, 1.2187500, 1.6250000, -2.0625000, 0.5937500, 2.4531250, 3.0234375, -1.6718750, 0.8515625, -0.4843750, 1.9531250, -0.6250000, 0.0859375, 1.3906250, 2.2734375, -1.5000000, -1.9453125, -0.9218750, 1.5468750, -0.2265625, 1.6015625, 1.1093750, 5.8203125, -0.1171875, 3.1406250, -0.2343750, 0.0625000, 0.8437500, 3.6406250, -3.5000000, 0.9062500, -1.9687500, -0.8203125, -0.9218750, -0.1171875, -0.0937500, -0.4843750, -1.9921875, 3.0937500, 1.4375000, 0.4609375, 1.2343750, -1.1484375, 0.1953125, -0.3203125, 0.0859375, -0.1406250, 2.3359375, -2.1875000, -2.5781250, 1.3046875, 2.7109375, 1.5078125, 2.0156250, -1.4843750, -2.0390625, -2.4375000, 1.6718750, 0.5078125, 1.0859375, -4.4453125, 0.3593750, 0.2187500, -1.5078125, -1.9843750, -0.4453125, -0.6718750, 1.3125000, -2.6250000, 2.0781250, -0.5937500, -0.7500000, -3.3437500, -1.0937500, 0.4218750, 1.6562500, -2.5937500, 1.7890625, 0.0937500, 0.6250000, -1.9843750, -0.8515625, -1.3906250, 0.1796875, -1.0937500, -0.1953125, -1.4609375, -0.1484375, 0.2343750, 0.0625000, 2.5234375, -0.9687500, 0.0312500, -1.7734375, 1.5781250, -0.0156250, 0.6718750, -0.2031250, -0.3671875, 1.5078125, -2.8593750, -1.0625000, 0.8593750, -1.2109375, 0.0546875, -0.0078125, -3.3046875, -0.8281250, -2.5625000, 2.4375000, -1.3515625, 0.6562500, 0.8046875, -0.1406250, -1.6484375, 0.1562500, 0.9296875, 0.3671875, -2.0703125, -3.0937500, 1.1875000, 1.6953125, 0.5625000, -0.1171875, -1.3828125, -2.8984375, -1.5000000, 0.6875000, 1.5234375, -1.1640625, -1.7187500, 0.3750000, -0.8906250, -0.0390625, -2.0781250, -0.3281250, -1.1171875, 1.1718750, -0.9062500, -1.0859375, 0.5468750, -1.4921875, -3.6953125, -2.8671875, -0.0781250, 0.1875000, 0.0312500, -3.5078125, -0.8046875, -1.4062500, 1.1015625, -1.0625000, 0.9453125, -2.1171875, 1.6015625, -0.4843750, -2.8593750, -2.2031250, -0.6093750, -1.9765625, 1.3906250, -1.6718750, -0.1406250, -2.1718750, 3.1484375, 1.4843750, 2.1640625, -0.4609375, 2.1015625, 1.5078125, -1.1171875, -0.6875000, -1.4921875, -1.8437500, 0.7265625, -1.4296875, 0.5781250, -1.1406250, 1.1171875, -2.1171875, -2.9921875, -2.3125000, -0.9843750, -0.8125000, 0.3281250, 0.0937500, -0.0937500, 1.2187500, 0.0390625, -1.9453125, -1.0625000, -0.4765625, -2.3515625, 1.7734375, -0.6562500, -2.8828125, -1.3359375, 0.8203125, 1.0468750, -1.0781250, 1.7109375, -2.6484375, 1.6406250, -0.5312500, 2.2031250, -0.0781250, 0.0625000, -2.0468750, 1.3046875, -1.1015625, 0.8671875, -0.3125000, -0.0625000, 0.0859375, -1.4687500, -1.3046875, -0.0312500, -2.2734375, 1.8281250, 0.3593750, 2.1875000, 0.4765625, -0.4140625, 1.5000000, -0.9218750, 0.5703125, -2.3984375, 0.3671875, 0.9062500, 1.2109375, 0.1250000, -0.7890625, -0.0859375, 1.7656250, 1.5625000, -1.1093750, 1.1015625, 0.7656250, 2.2187500, -2.6875000, 1.8359375, -1.3437500, -3.4921875, -0.7109375, 0.9921875, 0.5078125, 2.6015625, -1.4921875, 1.6093750, -1.1250000, -0.9609375, -2.8281250, 0.5781250, -1.3125000, 2.1640625, -0.2109375, -3.6015625, 2.2578125, 2.3359375, -2.4375000, 0.8281250, -1.0078125, -4.3437500, -1.7734375, -1.4296875, 0.0078125, -0.2031250, 1.2656250, -1.1484375, -0.5234375, 0.5937500, 0.8203125, -0.7109375, -0.7343750, 0.3593750, -0.6171875, 1.0078125, -0.9531250, 2.0546875, 0.6406250, -1.6406250, 0.2421875, -0.5781250, -0.2734375, 0.3203125, 0.6562500, -1.5390625, 0.0937500, -0.4296875, 1.5312500, 2.2734375, -2.7812500, 1.7890625, 0.3203125, 0.8828125, -0.9921875, 0.2812500, 2.2812500, -0.3828125, -1.5546875, -1.4062500, 0.3906250, -1.2265625, 0.2031250, 0.3906250, -1.6328125, 0.4453125, -2.5468750, -1.7109375, -3.2187500, -1.9609375, -1.4843750, 1.3281250, -1.0781250, 2.5703125, -1.0703125, 0.5078125, 0.5625000, 1.6093750, 1.0937500, 0.9921875, -1.5390625, 0.6875000, -1.8203125, -0.0937500, -0.6250000, 2.8125000, -2.5781250, -1.3359375, -0.7109375, -1.8906250, -0.7812500, -1.5156250, 1.8671875, 0.8671875, -1.1718750, -1.6015625, -1.9609375, -0.5234375, 1.2031250, -2.3515625, 0.2265625, 0.0546875, -0.7343750, -1.7265625, -0.2343750, 0.3671875, 0.9140625, -0.0937500, -0.5625000, 2.5468750, -0.6953125, -0.4375000, 0.5468750, 0.6015625, -2.4921875, -0.3906250, 1.3828125, 0.3515625, 0.6406250, -0.6796875, -0.0468750, -0.3359375, 2.8828125, 0.5000000, 1.8046875, -0.0625000, 0.0468750, -0.9453125, 0.6250000, 0.5781250, 2.6093750, -0.6406250, 0.0078125, 0.1406250, 0.4296875, 0.0390625, 1.5781250, -2.1718750, -2.1796875, 0.3750000, -0.6640625, -3.8203125, -1.6250000, 0.0390625, 1.8593750, 0.7890625, 0.8359375, -0.2031250, 1.2187500, -5.5781250, -1.1484375, -0.4843750, -0.0781250, -3.0781250, 0.8750000, 2.7656250, 1.5312500, 0.2890625, 0.0234375, -0.2578125, 1.2968750, -1.1484375, 0.7109375, -0.6562500, 0.2265625, -0.2109375, 1.3750000, 0.1328125, -0.4218750, -0.5234375, -0.3359375, 1.3593750, 0.3750000, -1.4140625, 0.8437500, -1.2031250, 2.7421875, -0.5000000, 2.9062500, -0.6406250, -0.6718750, -0.2890625, -0.0859375, 0.1015625, 0.5000000, -1.6875000, -3.0390625, 1.1484375, 1.2968750, -0.0390625, -0.4062500, 1.5859375, 2.0000000, -0.4062500, 1.5000000, 1.4531250, -0.3671875, -1.0234375, 0.8437500, -0.6875000, -0.0859375, 1.5781250, -1.5937500, -4.0468750, -0.0703125, 0.0781250, -0.3046875, -0.2265625, -0.4687500, 0.1718750, 1.3203125, 2.1015625, -0.6171875, -1.8203125, 1.6093750, 0.4296875, 3.5078125, -1.8828125, 1.0781250, -0.1171875, -0.6406250, 0.9687500, 0.7734375, 1.5000000, 2.4687500, -0.1875000, -0.9921875, 1.7031250, 0.2890625, -1.7968750, 1.6093750, -0.0156250, 0.3515625, -0.2421875, -0.1406250, 0.3203125, -0.1562500, -0.9765625, 0.9296875, 0.3359375, 0.3281250, -0.1640625, 2.7968750, -0.5312500, 1.6406250, -0.6484375, 2.8046875, 0.0937500, 0.9921875, -0.6093750, -2.3437500, 0.4140625, 0.8125000, -0.0078125, -1.7812500, 0.1718750, 1.1328125, -0.7031250, 1.0390625, -0.8593750, -0.5703125, -0.5234375, 1.7265625, -1.1250000, -2.6484375, 1.5078125, 0.2890625, 0.3437500, -0.5078125, 1.3203125, 0.8125000, 0.9218750, 1.3359375, 0.5156250, 1.0156250, 1.0234375, -2.0781250, -1.5234375, 1.1875000, -3.3984375, 3.1640625, 2.3437500, -0.0234375, -0.2734375, -2.5937500, 3.1250000, 1.6250000, -0.4921875, 1.3125000, -2.5078125, -0.7109375, 1.5000000, -0.3828125, -2.3750000, -0.1406250, 1.2812500, 1.0078125, 2.1484375, -0.5234375, -0.2890625, -0.1093750, -1.4609375, -1.2968750, -0.7343750, 0.1406250, 0.5468750, 0.5625000, -1.4062500, -0.2109375, 0.0781250, -3.3281250, 0.7890625, -0.5312500, -1.0625000, -2.2500000, 1.8203125, 1.1328125, -0.1250000, -1.7421875, -0.8515625, -0.0234375, -0.8828125, -2.9218750, 0.1015625, 0.2968750, -2.8671875, -1.2187500, -0.8125000, -1.9765625, -0.7343750, -0.1484375, 0.0000000, 0.8906250, -2.0937500, -1.6484375, -0.1484375, -0.1015625, -0.8281250, 0.6796875, -0.7656250, -1.4218750, -0.7031250, 0.2500000, 1.2109375, 0.1796875, -0.3906250, -3.1015625, 1.5078125, -2.8750000, 0.5234375, -1.1640625, -2.4218750, -0.3437500, -1.1250000, 0.0234375, 0.2890625, -1.1953125, -2.1406250, -0.1718750, 1.1328125, -0.6250000, 0.5000000, -1.0078125, -0.2031250, -0.5312500, -1.2343750, -1.2265625, -0.8828125, -0.4140625, 0.1640625, -1.6718750, 0.9140625, -1.3125000, -0.5546875, 0.4218750, -0.3203125, -2.3515625, 0.7500000, 2.0234375, 1.7812500, -1.3203125, -0.6015625, -0.1484375, -0.7578125, -0.0234375, -0.7656250, -0.6875000, -0.1796875, -0.6328125, -0.5234375, -4.5468750, 0.8359375, 0.1093750, -3.5312500, -2.8671875, -0.8906250, -0.2968750, -2.2656250, -1.5390625, -1.0234375, -0.3828125, -0.3125000, -1.0156250, 1.4765625, 0.7734375, 0.0546875, -3.7656250, 0.0703125, 1.9843750, 0.4453125, 1.8437500, -1.7031250, 1.2109375, 2.6484375, -1.7500000, 1.8281250, 0.0859375, -0.6328125, -0.6718750, 1.0390625, 0.9218750, 1.4531250, -0.2734375, 0.9453125, -1.2500000, 2.3593750, -0.3125000, 1.1171875, -0.7734375, 2.7812500, -0.2109375, -1.0390625, -5.4062500, 2.2421875, -0.3515625, 1.3359375, -0.3359375, -0.4218750, 0.6015625, 2.7265625, -2.4843750, -1.1328125, -0.1953125, 0.0000000, 1.0703125, 2.5625000, -0.6875000, 1.4062500, 0.0468750, 2.2265625, -1.8984375, -1.6093750, 1.2500000, 3.2031250, 1.2109375, -1.1171875, -0.8125000, -0.1875000, 0.1406250, 1.4531250, -0.5859375, 4.3750000, 0.2500000, -0.7109375, -2.1718750, -1.1796875, -1.3046875, -0.7500000, -0.0468750, 1.1718750, 1.1484375, 1.5234375, 0.8828125, 4.1328125, -1.5781250, 4.2343750, -0.0078125, 2.7109375, 0.2031250, -1.1640625, -1.4843750, 2.9375000, -2.9609375, 0.8125000, 0.4218750, -1.0625000, -1.0625000, 0.8046875, -2.0625000, 1.2890625, -1.6562500, 0.2343750, -0.3359375, 3.0234375, -1.1171875, 0.4687500, -0.7578125, 1.1093750, -1.2734375, 0.6484375, -0.3281250, -2.8750000, 2.0312500, -1.1484375, -2.4531250, -0.9062500, -0.1640625, 1.1093750, 1.5703125, 1.3828125, 0.9609375, 2.7578125, -0.7343750, -1.8359375, 1.8046875, -0.3281250, -2.9765625, -1.0859375, 1.3906250, -0.3515625, 1.8437500, -2.7421875, 1.5234375, -1.5312500, 0.1171875, -2.0312500, -0.6953125, -2.0859375, 0.8281250, -0.7812500, -0.9921875, 1.5234375, -1.0781250, 1.7187500, 1.3125000, -0.3281250, 1.5625000, -3.3750000, 0.1406250, 0.3828125, 1.2656250, 2.2343750, 3.0937500, 2.2031250, -0.0390625, -0.1171875, 0.6093750, 0.4531250, -1.4453125, 0.2031250, -0.4843750, 0.0937500, 0.0546875, -0.3906250, 0.4609375, 0.8750000, 0.5546875, -0.3046875, -0.9453125, -1.3593750, 1.0390625, 1.1093750, -0.2265625, 0.6640625, -1.5234375, 0.6640625, 2.0000000, 1.9140625, 2.0390625, 0.4218750, 2.5390625, 2.1875000, -1.6171875, 0.0000000, 0.1640625, -0.6875000, 0.9375000, 0.1171875, 2.3515625, 1.8281250, -1.9843750, -1.4843750, -1.9375000, -2.7890625, -0.5859375, -0.0937500, 1.6875000, 1.0546875, 0.1875000, -3.7109375, 1.0859375, 2.7500000, -0.0312500, 1.5234375, 0.2812500, 0.3593750, 2.0156250, -0.7578125, 2.3671875, -1.5078125, -3.3593750, -0.8906250, 0.1484375, 0.6953125, 0.7187500, 2.2578125, 0.8125000, 0.7656250, -1.4609375, 0.1250000, 0.5000000, 1.8203125, -0.0937500, 0.3906250, 2.1328125, 0.1406250, -3.2265625, -1.0390625, -0.1640625, -0.9687500, -1.0937500, -1.1796875, -0.3515625, -0.9843750, -1.4375000, -0.2578125, 0.2890625, 0.1718750, -0.8125000, -1.5234375, 0.7890625, -0.8515625, -0.5781250, 1.9296875, 1.6406250, 0.2656250, -3.2265625, -1.0468750, 1.0156250, 0.9453125, -2.4609375, -0.3437500, -0.3125000, -2.3593750, 1.3828125, -1.1718750, -1.6796875, -2.1250000, 0.0468750, 0.7500000, 1.1484375, -1.3125000, -1.5078125, 1.0156250, -1.2890625, 0.7031250, 1.2968750, 0.6640625, 1.5000000, 2.5468750, -0.6406250, -0.1406250, -1.4921875, -0.2578125, -2.1484375, -2.5156250, 2.5625000, 1.5156250, -0.8828125, 0.7500000, -0.9296875, 0.9921875, -1.1796875, 0.5625000, 0.3671875, -0.0546875, 0.6484375, -1.2421875, 0.3359375, 0.0390625, 0.2187500, -0.4296875, 1.0234375, 0.2421875, -0.9140625, 1.5312500, 0.7578125, 0.7656250, -1.0468750, 0.6718750, 1.8359375, 1.0937500, -1.3828125, 0.5546875, 0.1718750, 0.4375000, -1.9687500, -1.3593750, -2.1250000, 0.6250000, 2.2656250, -0.3906250, 0.5156250, 0.3046875, 1.0312500, -2.1406250, -0.4062500, -2.0156250, -1.1718750, 0.1718750, -0.8437500, -0.6250000, -1.7343750, -0.9921875, 0.3437500, -1.2812500, -0.2578125, -0.0703125, -1.1250000, 0.0078125, -1.5625000, -2.0781250, -0.2187500, 1.0468750, 1.4843750, 0.2500000, -0.2343750, -0.7265625, -0.5703125, 2.9062500, -2.3359375, 1.2421875, -2.7656250, 0.4843750, -2.3515625, -0.3125000, 0.5312500, -2.3125000, -2.8906250, 0.6562500, -1.4687500, -0.2421875, -0.4140625, -0.7968750, -0.5781250, -0.4765625, -2.6718750, 0.0390625, 0.8437500, 0.5781250, -2.4453125, -0.1953125, -0.8750000, -1.4765625, -0.7734375, 0.5468750, 1.4531250, -2.4453125, 0.7187500, -1.4921875, -1.8203125, -1.2734375, -3.2890625, 0.0312500, -1.3671875, -0.8046875, 1.1093750, 1.7656250, -0.4453125, -1.8593750, -2.4218750, -1.2109375, 0.3515625, 1.4218750, -1.4531250, 0.2187500, -3.0390625, 0.3437500, -0.4062500, -1.1406250, 0.7109375, -2.4375000, -0.9218750, 0.8437500, -0.4609375, -1.6640625, 0.3125000, -2.0703125, -1.5390625, 0.4140625, -0.3906250, 0.8828125, 0.0078125, 0.4140625, -1.4921875, -1.3750000, -1.6406250, -2.5234375, -0.1796875, 1.4453125, -1.5625000, -0.8984375, 1.1875000, 1.8593750, 2.1328125, -0.1328125, 3.2109375, 0.6171875, 0.4921875, 1.5468750, 1.4843750, -1.8750000, 0.8984375, -0.7968750, -1.3515625, 3.0937500, 0.5781250, -1.3984375, 1.3828125, 0.0781250, 0.2890625, -1.8671875, 0.5546875, -0.4921875, 2.7812500, 0.1406250, 0.8046875, -0.1093750, -0.2656250, -0.6406250, -1.3906250, 0.0859375, -1.4218750, -1.6328125, 2.8203125, 0.0312500, 0.4062500, 0.3984375, -0.1328125, 2.2812500, -0.6250000, 0.7031250, -0.1718750, 3.4843750, 0.6328125, -1.5000000, 2.1015625, 1.7109375, -1.3281250, 0.3828125, -0.8593750, 1.6562500, 1.7968750, -2.4375000, -0.6328125, -0.8984375, -0.2187500, -0.3515625, 0.3359375, 0.6640625, -0.0156250, -2.4609375, 0.5859375, 2.2031250, 0.3281250, -1.3125000, 1.4609375, 1.7734375, -2.8671875, 0.4453125, 0.6015625, 1.7812500, -0.0390625, 0.7265625, 0.7968750, -0.7187500, 1.3125000, -2.7265625, 0.7187500, 1.7812500, 2.3046875, -0.0468750, 0.9765625, 2.0546875, 0.6640625, -1.6484375, 1.1796875, -1.0781250, 1.5000000, 0.1640625, 1.2812500, 1.2812500, -0.2031250, -1.9921875, 0.3281250, -0.8203125, 0.2968750, 0.7109375, 1.2265625, -1.8046875, 2.0546875, 0.1718750, 1.7421875, -1.2968750, 0.2421875, -1.0937500, 1.2109375, -2.1562500, 1.4843750, 2.3437500, 1.9765625, -1.8203125, -0.8203125, 0.9609375, 2.0937500, -2.1093750, -0.4921875, -0.1875000, 2.9140625, -2.3515625, 0.4687500, 2.3906250, -3.0859375, 0.0312500, -1.8203125, -0.1093750, -0.3515625, 1.5000000, 2.4765625, 3.1718750, -0.3281250, -2.1093750, 2.0781250, 0.2500000, -2.1328125, 2.1015625, -1.3515625, 2.3046875, 0.2734375, 1.1484375, 0.7343750, 1.0781250, -1.3828125, 0.2656250, 0.1015625, -0.4687500, 2.6718750, -0.9375000, -1.0546875, 1.3281250, -1.0781250, 1.1484375, 0.9765625, 1.2890625, 3.1562500, 1.1250000, 2.6562500, -0.7968750, -3.4296875, 3.3046875, 3.1484375, 1.2265625, -1.6640625, -1.2656250, -1.0859375, -1.3281250, 1.0078125, -0.0546875, -1.2109375, -0.0312500, -1.3046875, -0.3593750, -1.5625000, -1.1250000, 0.1796875, -1.3906250, -2.3984375, -1.5234375, 1.9453125, -2.5625000, -1.1953125, 1.5859375, 0.6953125, 2.0156250, -3.7343750, -1.9218750, -0.5312500, -1.6953125, 0.1875000, -0.3515625, -0.1015625, -0.8906250, 0.7343750, 1.4062500, -0.3437500, -2.2187500, 1.3281250, -0.9843750, 2.7343750, 2.3984375, 1.2578125, -1.6484375, -0.4218750, 2.0468750, 2.3437500, -2.1484375, 1.0078125, 2.8046875, 1.4296875, 0.7421875, -0.2421875, 0.2656250, 1.5390625, 0.4375000, 0.9609375, -1.7343750, -0.7109375, 1.2031250, 0.0078125, 0.0468750, 0.8281250, 1.9218750, 0.2578125, 2.6250000, 0.8750000, -3.3750000, 0.9453125, 1.6562500, 0.7031250, -0.2890625, 1.4296875, 3.6406250, -1.7187500, -0.5312500, 1.6640625, 1.5625000, 0.2109375, -1.1796875, 1.3125000, 0.8515625, 1.9062500, -2.3359375, 0.5468750, -0.0703125, 0.4296875, 0.0078125, -0.6171875, 1.7734375, -1.6640625, -1.6093750, 1.7343750, 1.5390625, 0.6406250, 0.2500000, 0.0390625, 1.6015625, -0.5312500, -0.1328125, 0.1718750, -1.0625000, -0.6250000, -0.6171875, -1.4296875, -1.1171875, 1.4062500, -0.0937500, -1.2734375, 1.6718750, -0.7578125, -1.4921875, -0.5078125, -0.0078125, -0.0468750, -0.4062500, 1.9062500, -0.2187500, 0.2890625, -1.7187500, 0.9609375, 0.8359375, 1.1953125, 0.0390625, -0.2890625, -0.3828125, -0.6093750, 0.9296875, 0.0937500, 1.4140625, 2.1796875, 2.0390625, -0.0859375, 2.8593750, 0.8593750, -0.4453125, 1.0703125, -0.1250000, 0.8671875, -0.6250000, -2.0312500, -0.8984375, 0.5625000, -1.6093750, -2.5234375, -1.3437500, -1.5781250, -0.6718750, -1.4218750, 0.0312500, 1.8203125, 0.4062500, -1.4062500, -1.5234375, 0.7031250, -3.6718750, -3.1250000, 0.1953125, -0.2734375, 0.8359375, -2.6640625, -1.5625000, -3.1640625, -0.6328125, -0.3359375, 0.8515625, -1.0546875, -1.3046875, -0.3984375, -1.7656250, 0.6718750, 2.0078125, 0.0781250, -0.6640625, 0.6562500, 1.2734375, -1.3437500, 1.5000000, 0.1093750, 1.7890625, -2.7031250, -0.7031250, 1.8671875, -1.1171875, -0.9921875, -1.5625000, -3.1250000, -0.5234375, -0.0625000, -0.1328125, -2.8828125, 3.0390625, -3.0859375, 1.1875000, 1.3359375, 3.0156250, -0.2656250, 1.0390625, -0.5312500, 1.3906250, 0.6562500, 0.9140625, -0.4140625, -0.2968750, -0.1406250, 2.3593750, -1.4765625, 0.8125000, 0.1250000, 1.0390625, -0.8046875, 1.1796875, 0.0000000, -0.3203125, 0.8984375, 0.3203125, -1.0312500, 3.3437500, 0.7187500, 0.3203125, 0.3359375, 0.9218750, -0.0625000, -1.5625000, 0.6796875, -1.7109375, -2.1328125, -1.1093750, 0.3984375, 0.5859375, -1.2734375, 1.8515625, 1.8750000, -1.4296875, -0.0468750, 0.8750000, -2.0859375, 0.3046875, -1.5625000, -0.5312500, 0.8046875, 2.3984375, 2.4062500, -1.3046875, 1.5468750, 3.2968750, 0.1718750, -0.2500000, -1.7578125, 0.2812500, -1.0312500, -1.5859375, -0.9062500, -0.6250000, 0.3281250, -1.8203125, -0.0859375, 0.9921875, 0.1484375, 1.3750000, -0.5703125, 0.2656250, -1.2890625, -0.8906250, 2.1796875, -0.5703125, 0.9765625, 1.4375000, 0.0468750, 1.1640625, 2.0625000, -0.0859375, 1.4140625, -0.0390625, 2.0078125, -0.0703125, 0.1875000, 1.9531250, 0.1796875, -0.5468750, 1.9375000, 1.1796875, -2.2421875, 1.8906250, -0.2734375, -0.5468750, 0.1718750, -0.1406250, 0.6875000, 0.2031250, -1.4140625, -3.5390625, 2.0937500, 1.8125000, 1.0937500, 0.1484375, 1.7968750, 0.1328125, 2.0390625, -3.0312500, 1.3281250, -0.2812500, -0.4609375, -1.5000000, -0.2968750, 2.6406250, 0.3281250, 0.9453125, -0.4218750, 0.6718750, 1.3359375, 1.4765625, -1.9296875, 2.9609375, 1.1093750, -0.6484375, -0.4531250, 1.1015625, -0.0546875, -1.6250000, 1.2968750, -0.1015625, 0.0859375, 0.5234375, -0.0390625, 0.5390625, 0.0468750, -0.6953125, -0.8203125, 0.2500000, -0.3359375, -1.0625000, -1.0937500, 1.8046875, -2.3437500, -1.8203125, 1.4296875, 2.1640625, 2.4140625, -0.4609375};
#endif

#endif
