//Numpy array shape [256, 1]
//Min -0.492187500000
//Max 0.492187500000
//Number of zeros 0

#ifndef W44_H_
#define W44_H_

#ifndef __SYNTHESIS__
weight44_t w44[256];
#else
weight44_t w44[256] = {0.4609375, 0.4765625, 0.4140625, -0.4843750, 0.3828125, 0.4609375, 0.4687500, 0.3750000, -0.4609375, 0.3593750, -0.3593750, 0.4609375, 0.3750000, 0.4609375, -0.4843750, -0.3671875, 0.4375000, -0.3984375, -0.4218750, 0.4843750, -0.4296875, -0.4843750, 0.4062500, 0.3828125, -0.4531250, -0.4531250, -0.3671875, -0.3671875, 0.4375000, 0.4453125, -0.3828125, -0.4375000, 0.4531250, 0.4218750, -0.3359375, -0.4218750, -0.4687500, 0.3828125, -0.3828125, -0.4843750, -0.4609375, -0.3671875, -0.4296875, -0.4531250, 0.4765625, -0.3750000, -0.3906250, 0.4453125, 0.4843750, -0.4531250, -0.4218750, -0.3906250, -0.3984375, -0.4531250, -0.4531250, -0.3906250, -0.4843750, -0.4531250, 0.4531250, -0.3750000, 0.4531250, -0.4687500, 0.3828125, -0.4453125, -0.4765625, -0.4140625, -0.4218750, 0.3984375, -0.4140625, -0.4296875, -0.3593750, -0.3671875, 0.4140625, -0.4687500, 0.4218750, 0.4531250, 0.4375000, 0.4687500, -0.4609375, -0.3593750, 0.4843750, -0.3828125, -0.3750000, 0.4140625, 0.3593750, -0.3984375, 0.3671875, 0.3593750, -0.4531250, 0.4062500, -0.4062500, 0.4609375, -0.4843750, 0.3828125, 0.4218750, -0.4609375, 0.3828125, -0.4453125, 0.4453125, -0.3828125, 0.4843750, 0.4921875, 0.3671875, 0.4140625, 0.4765625, -0.3828125, -0.3828125, -0.3671875, 0.3984375, 0.3906250, -0.3906250, 0.4531250, 0.4062500, 0.3750000, 0.3906250, 0.4765625, 0.4531250, 0.4375000, 0.3828125, -0.3437500, -0.4453125, -0.3984375, -0.4843750, 0.4375000, 0.3671875, 0.3671875, -0.4296875, 0.3828125, -0.4218750, 0.4375000, 0.4218750, -0.3593750, -0.4218750, 0.4921875, -0.4765625, 0.4140625, 0.4296875, -0.4375000, -0.3828125, 0.4609375, 0.4296875, -0.4843750, -0.4531250, -0.3671875, 0.4765625, -0.3750000, 0.3984375, -0.3906250, 0.4921875, -0.3671875, 0.4218750, -0.4218750, 0.3984375, -0.4843750, 0.4609375, -0.3671875, 0.4609375, 0.3906250, -0.3359375, 0.4218750, -0.4453125, 0.4218750, 0.3906250, -0.4531250, 0.3828125, 0.3593750, -0.4843750, -0.4062500, -0.4062500, 0.4140625, 0.3593750, 0.4531250, 0.3828125, 0.4687500, -0.3984375, -0.4375000, 0.4296875, 0.3593750, 0.4765625, 0.3984375, 0.4687500, -0.4296875, -0.4218750, -0.4140625, -0.4062500, -0.4375000, 0.3750000, -0.4687500, 0.3984375, -0.3671875, -0.4375000, 0.4609375, -0.4453125, -0.4375000, -0.4453125, -0.4375000, -0.4921875, -0.4765625, -0.3671875, 0.3750000, 0.3593750, 0.4531250, 0.4375000, -0.3593750, 0.4765625, 0.4843750, -0.4296875, -0.4765625, -0.4609375, -0.4687500, 0.3750000, -0.4140625, -0.4296875, 0.4531250, -0.4218750, -0.4531250, 0.3984375, 0.3984375, -0.3984375, 0.4375000, -0.4218750, -0.4296875, 0.4453125, 0.4843750, 0.4843750, -0.4296875, 0.4453125, -0.4140625, -0.3359375, 0.4453125, 0.4140625, -0.3593750, 0.3593750, -0.3750000, 0.4609375, -0.4687500, -0.4453125, 0.4921875, 0.4921875, 0.3671875, 0.4531250, -0.4453125, -0.4453125, -0.3593750, 0.3671875, 0.4453125, -0.4140625, -0.3828125, -0.4843750, -0.4531250, -0.4296875, -0.4609375, -0.4453125, -0.4687500, 0.4687500, -0.4218750};
#endif

#endif
